{"hidden_layer": 50, "iterations": 400, "learning_rate": 0.005, "dropout": true, "_parameters": {"W1": [[-0.050733786210077514, 0.06262696390145858, 0.004078855342120824, 0.03313616949625217, -0.03173827976810782, -0.024144509504007303, 0.05067226785313933, 0.0637276066397541, -0.023825239633189943, 0.08006399714512477, 0.046025493616517865, 0.04198765616674835, -0.0019673715880049736, -0.08540553884354674, 0.0009597554093601773, -0.04809476631868892, -0.01898380634175348, 0.01559672928587523, 0.08480560913278909, -0.000923495100423069, 0.06964277396456778, 0.05053678730870795, 0.022500797764927666, -0.03153876181643192, 0.0291963150451387, 0.03669403303897345, 0.09035508416079721, -0.04627717962859808, -0.05997316606551406, -0.07577423395692617, 0.01807594058009132, -0.010323846381784518, 0.02270697708601052, -0.039510311966518843, 0.08011432694410828, -0.04665719623231271, -0.0603030939281116, -0.07507625683860192, 0.055778272577809124, 0.08370421579666884, 0.08995038878667613, -0.05904575746063667, 0.03726719683551094, -0.05598022226185056, -0.03001609713639833, -0.014934938539674453, -0.06290298451649123, -0.00014519064311839525, 0.08634225670012871, 0.08432616112838745], [-0.0030988272624986185, -0.03997372812492253, -0.08792863625889176, -0.07582366482934555, 0.036962297843065206, 0.06342043846927489, -0.03553516451391796, -0.042879357491619245, -0.027402321262785453, 0.08460259781840329, -0.005108109269260794, -0.07099110816021688, 0.011042586966523382, -0.07857393162268436, -0.0816993398187478, -0.047065961659762984, -0.06862644205186255, -0.04442417354808115, -0.0158603769982371, 0.04545506074814207, 0.08040973368422549, 0.012869712933808938, -0.06809136234280908, 0.003932932123371619, -0.016763035608468896, -0.03968890962019525, -0.04748362920426657, -0.03466670619546222, 0.09554463132295005, 0.05278991092922941, -0.06734397857982408, 0.06514983729518861, 0.03152487545275845, -0.08531359851514671, 0.00771190950541456, 0.06393257759804569, -0.0541340230985321, -0.009161680515177711, -0.03504710232428186, -0.04622939591232059, -0.05039260857262684, 0.05271581314723789, -0.02290988208743419, 0.05060475993829536, -0.006220629048216339, -0.09488109905148184, 0.08824125029098301, 0.048131518870364765, 0.04229959980510828, -0.00800695991731612], [0.09474938648931958, -0.024251745172912953, 0.07005674061744097, 0.04894404538651087, -0.05162668132159054, -0.01882609620857434, 0.09087735919189782, 0.017391813047608687, -0.031787429296027556, 0.006476581536400738, 0.04397645740090486, 0.06306384525825198, 0.0008808709343127996, -0.01697199462440964, 0.038327161120013276, 0.09969176893886575, -0.08520467293650553, -0.0305342729645747, 0.042594001691494326, 0.09036658489257704, 0.032323939285785114, -0.07799420825612731, 0.08379186993203419, -0.020440782344371744, -0.08575490419113532, 0.06338950099868815, 0.040728117633917205, -0.08129605684619726, 0.09330010714206438, -0.03337180815549483, 0.0038105787197366264, 0.0354776954178517, -0.0029935899652586972, -0.016100294526466413, -0.09245909073049632, 0.03530537143877385, 0.04775680095624846, 0.09096739873926021, 0.06262641852705447, -0.007586150941107775, 0.05301156149763933, -0.008344223582823357, 0.07010518813385669, -0.08297529908402851, -0.0690846363680575, 0.060387451686120114, -0.09044715380513946, -0.057296073033823294, 0.08184019582682109, -0.0036194031490285605], [6.361292872732183e-05, 0.02921745912664736, 0.0916946881040378, 0.03922771915636075, 0.0402101222835608, -0.06955402977042875, -0.0009014467473053844, -0.06665479429242722, 0.005884415849953764, -0.002586788290700734, 0.09158012387089087, 0.06664728292581551, -0.09932366597214207, -0.09269124195843091, -0.04413894792522846, 0.04096159588037196, 0.07806667911210002, -0.06925096496422092, 0.05533130087869412, -0.035231953685099376, -0.0926210590393941, 0.05292785208296727, -0.03924800119481573, -0.013539637160755097, 0.006536330803345897, -0.03365750911209345, 0.009676814623267305, 0.07732599309140317, -0.07850108993923761, 0.06440562721591, -0.05012314871517565, 0.08510891119716832, 0.04983004832577073, 0.07904177616143424, -0.07606628470402413, -0.02776853860268276, -0.002856134787236647, 0.03423002567917016, 0.06007032216387234, 0.008117863265329303, -0.03671630890234749, 0.044543197888059854, 0.0765629409946181, 0.028383202159157406, -0.0535649563525656, -0.04179292567213686, -0.06067597001803671, 0.01276243559774462, -0.09076018482340731, -0.09044732491852858], [0.07319640370663377, -0.04927707350117377, 0.02529068190557132, 0.07466865888689975, -0.04800601084485119, 0.0745019499831042, 0.09962409711626341, 0.014418969424664141, -0.04514252694321024, 0.00221555142252175, -0.07466788720243991, 0.08192094032522795, 0.06605125543117063, -0.08565285509195303, -0.004323777703638829, -0.010279700258709862, 0.0848190632830301, 0.04912635392688719, -0.031941269151611246, 0.01371444360339509, 0.09241198690925995, -0.07762147161841478, -0.02544259547929177, -0.07267407805025157, -0.008717664198782393, 0.02808116740378558, 0.06808997617511314, 0.07390653783366163, -0.006377651825675443, -0.047060965232627795, -0.06729272741814474, -0.046990625082690966, -0.017623385597059824, -0.0016734275626497236, 0.008653883267260881, 0.02712997577431578, 0.022238145266606058, -0.0997039963044587, -0.05961003670390117, 0.05416484043513023, -0.09061234674700942, -0.07841513657731854, -0.03828471981626367, -0.040963847362468636, 0.034385196346907176, 0.07139172199282182, 0.021217373980534956, 0.01067551112802985, 0.07578204436690594, -0.04536909441662334], [0.009031449691709798, 0.016652743819547594, 0.05491703595339578, 0.0702802092228508, -0.05165954687251977, 0.08439656937496368, -0.09918828238983922, -0.053166955954190166, 0.041687134517375685, -0.07545238274234889, -0.09444042013442043, -0.011432377280587352, 0.029746252167342807, 0.08425582715072608, 0.02409300920798778, -0.042843696594300124, 0.03029052517325817, -0.009207001184435876, -0.018921194054520946, 0.04493633007443498, 0.06951255022601299, 0.095952603098265, 0.06878055720634649, 0.06286824733768628, 0.070149688969764, -0.05105363586621297, 0.05872770909570055, 0.07771947553023106, 0.030570280084265766, -0.06353455036219346, -0.030701753282206576, 0.06606099372754545, 0.01764661024593825, -0.09330656736595076, 0.09552345491320699, 0.036555938146459466, -0.020454922698851824, -0.03713345200476588, 0.08439115092823365, -0.023061644882420573, -0.049372359077328, 0.09089466038544705, -0.055250296421149536, 0.02870827326613168, -0.016575569047625402, -0.038446951686096756, 0.031216425412552373, -0.06289345154512657, 0.03698940116875868, -0.06749406502444871], [0.035109914377209256, 0.03644836468667839, -0.04129471232389497, 0.0828379411335991, 0.04313580065367148, -0.015084536976000013, -0.043637291787251314, 0.08904865204985721, 0.09744588890867406, 0.05498140350262054, 0.06396111602941101, 0.0044133307061288984, 0.07735380606441394, -0.01877021735939015, 0.08896198452649967, -0.08686204053617624, -0.023986959469134497, 0.08229161489504849, 0.07834546713737209, -0.007920115622135057, -0.04776632748095744, -0.06694659874189286, -0.010437320212841411, -0.09114192749316397, 0.01200131715566155, -0.07143799135309015, 0.06991102280725056, 0.006503350349868223, 0.09336973097035967, 0.09738551159593306, 0.042457576405123765, 0.08135773439854033, 0.0329577286192439, 0.07077599905917678, -0.03226280777073501, -0.04624961807821307, -0.02659336751829773, -0.09487089981887085, 0.07480189696407066, 0.025850624136582206, 0.027894557739275377, 0.07608667881045872, -0.00911118335110439, -0.031230568788736854, 0.04176044922816696, -0.009214259584873236, 0.019087430724253493, 0.06437465294322589, 0.08158953584478021, 0.011058921256739171], [0.09963710937103704, -0.03411421696475339, -0.06977752904797248, 0.008672756346794694, -0.07447258175097407, -0.0003734109054821938, -0.0572208745851287, 0.0882788515599151, 0.09078021314082604, -0.07619472264057521, -0.08228239822870952, -0.035771984525053396, -0.037348295602768755, 0.060768869097009265, 0.03725809824038798, -0.05855071818585638, -0.08530388405217665, 0.09419067744597884, -0.052767404627949044, 0.06908595659129016, -0.07509375694229362, -0.051217876061355576, 0.07848072486522872, 0.09947671101645114, -0.04042439303583714, 0.047849822777848106, -0.07949910875955689, -0.003317077366528684, -0.05564632217665, -0.040205371037596985, 0.06480309083327951, 0.05179973075677802, 0.038187416840872374, -0.056276344333009855, 0.09737855777276277, 0.0292530881974383, 0.09758363324066227, -0.015963806308993717, -0.03759922135218923, -0.01788220415464828, 0.030185901290630424, -0.026458252497233548, -0.05766467847202364, 0.0530014046764454, 0.03209605937965451, 0.07910697347587145, -0.011560698592062615, 0.09339999295000331, 0.09201549091808647, -0.0016817837940124314], [0.0008924639142577212, 0.015691577626943037, 0.03019689847683235, -0.002007891949560775, 0.06469612366251173, 0.08124926727345877, -0.09084637994392031, -0.09439800752780106, 0.08403453634045988, 0.0809427626345385, -0.012070492940955996, 0.020806113713915914, -0.010492528965299133, -0.038328076364261346, 0.011798216275250017, -0.03228755118185325, 0.04418346457807096, 0.09524130361658123, -0.06983995543069615, 0.00598272787351746, 0.036962392183071235, 0.09985017347923561, 0.025275620194765508, -0.0670478917466521, 0.06665720002335823, -0.031558786955326434, 0.010976090621621526, 0.09787940615031882, -0.037228231699645425, 0.007436461825765711, 0.09897694993872452, 0.0921056514002252, 0.09557010719875189, 0.03920751721498256, -0.011830935444035795, -0.07814326227006173, -0.057781720733992396, -0.07758372747357963, -0.06762802651112856, 0.042954516691922545, -0.08538548548403074, -0.06522490893898233, 0.09229364903238552, -0.06648784798142285, -0.07127357546316715, -0.04746256777598959, 0.046741936539060336, 0.05103549039278635, -0.04009815532778474, -0.005002308680298828], [0.026223939851582306, -0.019574451700517387, 0.0927746365801711, 0.09055703152212244, 0.03054027976465029, -0.0562283163843675, 0.06641959243945705, -0.04171032585221157, 0.014447787345968938, -0.04128213604220241, 0.022194452294284073, 0.009193149129057027, -0.03043166691080612, 0.04815818103487596, 0.0022325710805481125, -0.04563176996718941, -0.0873326229094204, -0.045342902653880614, -0.004577432698106482, 0.0998484755098242, -0.033568168113030455, -0.05319533723248984, -0.09103803666707465, 0.04268358181816348, -0.035463070062386345, 0.05546200778502372, 0.09751607435076257, 0.018124761753768023, -0.0172052325455236, 0.044620135844188, -0.010396586850708059, -0.07705161266812444, 0.049902664806121266, -0.05154432048225084, -0.013520114188326035, -0.0876300404985344, -0.027088846943410058, 0.0019244490983868212, 0.02526752950503791, -0.06779808597241915, 0.0736153821803627, 0.06181754812148341, -0.0036411438088644055, 0.051090872395219616, 0.07396569200867009, 0.03817041631995827, -0.06683389956016368, 0.010788620563754597, -0.04675131065088747, -0.07910047253467015], [0.038072482263048324, 0.06161022429769347, -0.018233312503904947, -0.0072411952179500805, -0.015450445588370276, -0.06307960778229019, 0.03479517480555533, 0.05969947400642514, 0.04336846991909657, 0.014412183753560459, -0.046520021056994425, -0.04637568676293549, 0.06391558199401903, 0.07415106018359138, -0.006318215944666264, 0.030791998973132395, -0.0657312228725054, 0.08264034475531926, 0.05145966494583973, 0.007663567577539165, -0.09902086680824347, 0.0630384123896787, -0.06832065388310535, -0.05685454139543076, -0.04795398830002922, 0.06427119096229414, 0.05825795038259554, -0.06320189315148403, 0.0405028883820919, -0.09397447565479931, 0.01872959478461314, 0.0990628445340477, 0.0018645922367511725, -0.07045291806616168, 0.0022380092227007042, 0.021105878626467595, -0.07149512234839149, -0.034221360292208125, -0.04542819482481202, -0.039487099544447714, 0.024382653927696035, -0.04375926550153806, 0.006150193434832724, 0.051494477637521185, 0.09266225597385708, -0.09760763582095189, -0.09528124858625622, -0.001658651611142578, 0.08970893989961884, -0.0765143199042948], [-0.08414957634248975, -0.06935870860653635, -0.030242287818519856, 0.03227995282493423, 0.01603872237809008, -0.03077257951007588, 0.04911487516888502, 0.031058061552714233, 0.06904926030570394, 0.09022308744886873, -0.09186155335888345, 0.0840929699708117, -0.06448901186027463, -0.024970394783895622, 0.004800692704584386, -0.04914537708265343, -0.04205301406491553, 0.07542965554364522, -0.04311623021930915, -0.09856536531913392, 0.05066617640201049, 0.07431924614869986, 0.0694428795079963, -0.044536406664375375, 0.009071658911046748, -0.09969750468751469, 0.08767978294251977, 0.08020739804720803, -0.09420534926953823, -0.017449775263668116, -0.06826441141921553, -0.07966505111456466, -0.07370178182830255, 0.0037783635899120566, -0.08522217254882498, 0.025756598563154487, -0.008555102391358302, 0.04454150993169287, -0.02887747668582319, -0.025617086782268775, 0.039962788133260346, 0.07494523154491181, 0.03769786036467537, -0.07079335640518077, 0.012900101307433992, -0.07496488463428726, 0.04456126541872202, -0.03273553162040299, -0.08813979851603493, 0.09239514016614311], [-0.0013438818557750115, -0.03225832717666291, 0.08589254937977941, -0.06560246981252515, -0.07933886250946964, 0.09467673484446998, -0.048474932913321125, -0.027616635293923983, 0.03852488533695006, -0.022000406949235815, 0.028114062589165656, 0.021561629506590435, -0.06225412358327769, 0.027675325778386967, -0.034139165359502344, -0.06866852107055302, 0.08564196370499508, -0.06804560200592809, 0.037800118811279204, -0.0247139754972064, 0.05005431645340633, 0.05942186781207645, 0.0686196105161698, 0.012177556745300605, 0.07894874547879627, 0.0945895794598843, 0.030067685643321768, 0.09898727308361954, 0.09008407622019393, 0.016642415790655285, 0.058403482953001934, -0.011820225463345782, 0.07436984921798065, -0.023666216481837463, 0.0009741887230760166, 0.06966704331980889, 0.003575328260466762, -0.007380920182795098, -0.07878991419367505, 0.0076903115379711035, 0.06534242921035952, 0.03835780682829398, 0.09010596609262866, -0.08892275833012489, -0.029061200040071164, -0.08904647217350384, -0.03521924868586686, -0.09804342410409916, -0.09112946970398683, -0.04015161949701072], [0.06347409526912742, -0.019115604815313242, 0.07819660722481545, -0.05832431592754997, 0.0189388055805014, -0.003794420653795691, -0.08724859978847206, -0.010783314809706762, 0.008156483781991325, -0.038632511257918334, 0.0503405852176558, -0.04496106752895042, 0.024512330290780593, 0.016461191787969745, 0.09179646432903296, -0.0685927920424948, 0.07523142307631872, 0.044551366379216834, -0.0149860711124854, -0.06384654757291813, 0.048828038750132835, 0.08155385195130882, 0.06759783542581069, 0.044963127127162744, 0.06635844120717796, -0.02250434718999765, 0.024898235603912286, -0.06171259175970101, -0.021043557638819044, -0.08328052273566953, -0.06564555676225381, 0.05037772751888944, -0.04131941567951805, 0.018512149890229132, 0.022681689523154552, -0.0690873626901869, -0.09214919710681156, 0.011625949718720066, 0.0983654884488662, 0.04657367406120816, -0.08836134296847137, 0.04712518601486562, -0.09852187555798307, -0.06093707765911127, 0.06551577453252486, -0.04238895569640529, -0.003303479103996726, 0.04905274199627424, 0.027723367794743936, -0.07581609642098974], [-0.056067957227154276, 0.029315225375912524, 0.000950631740789798, -0.09700469968755682, -0.044744976262928594, 0.009898438324528344, 0.020476948400743655, 0.06454350688375571, 0.02304029898059405, -0.04575275050519243, -0.05265469299226109, -0.02478254473435379, -0.013597769120685776, -0.09690300730692102, 0.060176803792812816, 0.08268972079400827, 0.05994426463449207, 0.017662705921115227, 0.012028532336566491, 0.004474903294680477, 0.03035313476457735, 0.0280507109143614, -0.05256088886189041, 0.09088812503792432, -0.037599782899818295, 0.03540482371991405, 0.08485957276551531, 0.06932877196470347, 0.026335870439551573, -0.05800639151158052, 0.022304406108607594, -0.03259325819908525, -0.033424243586752556, -0.022329694687325263, -0.09049583880334558, 0.033252319529090746, 0.09996681857751202, -0.06999181689149375, -0.06916665990423504, 0.09556229215928289, 0.026747892192613476, -0.01617432894638167, -0.08827584473546393, 0.06433684178712235, -0.010393158077422832, -0.09349360412578929, 0.030900111612415515, 0.03879549903301607, 0.032724713577474224, -0.050046519148577766], [0.0012524879290233687, -0.050106785684320504, -0.039970472854674144, 0.053746070635238286, 0.06677697274919608, 0.04366817293183903, 0.04316672317377249, -0.08814170195413018, -0.055588674868623136, 0.05093234997593024, -0.030807710642347996, 0.07102081654592116, -0.09173640341572938, -0.01431695641632362, -0.07407456168488796, -0.008138048542889242, -0.0005906383886848249, -0.016979017273276706, -0.06620598932623861, 0.049814785666451145, -0.008019747100788052, 0.025017688769822966, -0.0632720243762936, 0.013306098371701408, -0.04820545088320649, -0.022133384835628475, 0.021567973042980165, 0.05213585082046043, 0.06781770999301995, 0.09626896952180028, 0.07752013403964306, 0.09151942054110376, 0.054345791167109, 0.09739241633351611, -0.008082347323976904, -0.051642991160222175, -0.001424229983942718, 0.061732489907157184, -0.020107370281165007, -0.0676588614242806, 0.08432002303344452, -0.022931471244880222, -0.022089010994157762, -0.010366862729465659, 0.09141708290822198, 0.005072166901046754, 0.07628294608561223, 0.0653110989747114, 0.03154797830311443, 0.08934462323153858], [-0.01788173656658272, 0.09144123901470569, 0.05844873488709898, 0.06180344225814299, -0.07916201507381987, 0.04690548764747038, -0.08984572877975064, 0.08829501111545265, -0.005341697244113444, -0.07828521991982083, 0.016807028558492393, -0.07590079696753896, 0.05106555678048216, -0.044877571232265503, -0.09801986771312404, -0.026580349303060843, -0.07138708143336109, -0.0836140087791214, -0.051152171762174285, -0.019639321359608844, -0.043275971504917556, -0.03563286758944631, 0.08748676690020715, -0.06009356022733195, 0.021309532911197568, 0.05661899780710383, -0.004140802588918385, 0.08645739549864215, 0.06305092222894271, -0.04398699163757602, -0.08480054867386165, -0.07381665415731367, 0.023080707982601867, -0.09239112171697948, 0.04648287451690675, -0.005887583025067783, -0.0025246064972393595, -0.08810560957909085, -0.09561974833609882, 0.0387154500615233, 0.04335119099702098, 0.07057797732653501, 0.09646983378659288, 0.00054357593268195, -0.03361053987533638, -0.005898851100652094, 0.07539554730259473, -0.018809851647071718, 0.0932722639978629, 0.09573429338712924], [-0.003162178640743224, -0.053113988793378454, 0.0048853591551061976, 0.008161887724514053, 0.03811788348333736, 0.09263780206722377, 0.08033176859662558, -0.04032603167942257, -0.07669643583706737, -0.09890273483791101, -0.016182750698893716, 0.0792077220951114, -0.003099423921723757, 0.07276386228708731, -0.04539404520124542, 0.010004488524841884, 0.07504223759018733, -0.09836551927124021, -0.013168762067033365, -0.010389963896401372, 0.07905714366322572, 0.058860778975854566, 0.0015256793476081248, 0.07498852006874804, 0.06960123447121766, 0.054888173787425526, 0.008280054633076572, 0.045017093024608934, 0.09457708694046471, -0.01726930656762933, -0.010213113664783141, 0.03901692831922593, -0.05978687666744238, 0.0374443007744113, -0.0768029415994353, -0.03091856729311275, 0.0030479175880149673, 0.08612284996136663, -0.04573725798813762, 0.0430078469876809, 0.09337805748218675, 0.017230871717041546, 0.013435444746949715, 0.010536839559188715, -0.005274128622511351, 0.03849079111114312, 0.035657105869775496, -0.07588918741289007, -0.08512160016635387, 0.09239765241444906], [0.0016937396190192244, -0.007085595829966623, 0.010532699389279102, -0.08747635154668298, -0.015446735086476565, 0.09757476784744845, 0.0015793213107238024, -0.03684585284172548, 0.09647114943907553, -0.04080608047676326, 0.031378189500885695, -0.0497026370472756, 0.007592926138305353, 0.08496569944247676, 0.049106854018009294, 0.0954081871352592, 0.002135020521537287, 0.06401304949874204, 0.05530261493313446, -0.08045044116879121, -0.005366570597651332, 0.001887810750219071, 0.08724890871592858, 0.07084983427585653, -0.019894578426955675, -0.03942754887999969, -0.04030271391898557, -0.016563252662897265, 0.03194762791522615, -0.013052013600411055, 0.07579931197199255, 0.047264350893384266, 0.06561739003627953, 0.01576573264502587, 0.001721295862034733, -0.08623048808859071, -0.025053427872801834, 0.04946046832618617, 0.045178154157944406, 0.010390818363650495, 0.07845992346269834, -0.009455046935091443, -0.031222274277784484, -0.02410569365948685, -0.04259903972445205, -0.09657886780084213, 0.07802091336286071, -0.015485984265299152, -0.07701940665177598, -0.005412738115120927], [-0.09176938421297992, -0.04039890116457206, -0.028201094509176336, 0.036720427676176004, -0.056779932924640744, -0.09860631809223735, 0.04400475332027262, -0.09913218764576037, -0.06739888869442093, 0.015698315063149143, 0.030094347739638427, 0.09275267948974689, 0.08577099422035878, -0.031046964060239282, 0.019179981622740552, 0.03511383409467894, 0.06011006012309292, -0.0665244353233363, 0.014580935469383771, -0.08488576329120388, 0.08565563673152807, -0.029318164782263165, -0.07048654184066744, -0.047385716963341866, 0.07854999181891675, -0.004146350646982461, -0.09940203872733654, -0.09839502483228456, -0.04746735540398644, 0.09883182359857104, -0.08624302553428187, 0.011785396032626155, 0.005867292719161352, 0.08641735127486391, -0.011243552114193783, -0.023415993976623042, -0.08373687745333716, -0.03392543593407353, 0.0037140473752231423, 0.060139687755835614, -0.03248661855833439, -0.05386077129425673, -0.06600937027992321, -0.01030679430338019, -0.035314508905978856, 0.07233906344296637, -0.08200901505986494, 0.06191570041658259, -0.07256795034182613, -0.04711560688443255], [0.06288956429191603, 0.07162884301538228, 0.058741915128782046, -0.022150606262566236, -0.0438770129828405, 0.011349640396816033, 0.06386318182584513, 0.060925427010028066, 0.04935577068375205, -0.0933953005325114, 0.07184509459221639, 0.060239081668426536, 0.07705144744157125, 0.08985427408765237, -0.08546383864236123, 0.016189078145328814, -0.020704255446651512, -0.06602991408673682, -0.017043408839870502, -0.007476411943022315, -0.05644329057098044, -0.09786143454118526, 0.0703808369928696, 0.06150881455004037, 0.07246277970375878, -0.006704140103561088, 0.06721698969030665, 0.048331679918828835, 0.01491253987836369, 0.01923444952041846, -0.08910507800966297, -0.07021204592252378, 0.09869294539023218, 0.04003080097335823, 0.009136897908733815, 0.002746415172173153, -0.07711833882103143, 0.060444118133914315, -0.05136914218413431, 0.027486061965226793, -0.03980902464396707, 0.06805218249219608, -0.0854342064068546, -0.008666177448229034, 0.026983691636365936, 0.03789378810365368, 0.05146646545852465, 0.04299823123448884, 0.08202235733427107, 0.06586493624330908], [-0.05652517581536201, 0.07760383185893768, -0.01759664369856717, 0.07917538638108818, 0.07400446927952947, -0.06624333665234292, -0.026094140800026186, 0.003150579883698268, 0.012464098533603682, 0.08394777822295801, 0.06970643253983022, 0.033418691958045976, 0.03213777235426671, 0.007758130225369378, -0.029265479063476693, -0.033005884787071005, 0.0042665058973206105, 0.04831194583234458, 0.058870589823436265, -0.029471249491477752, -0.06297481876140443, -0.0759365724300209, -0.07288855284174132, -0.06897765464531713, -0.08862907882035131, -0.09385980081796508, -0.019230895515486665, -0.06432245068503514, -0.02438424700196226, -0.09349752931135878, 0.02281308345611266, -0.06477318016110198, -0.06462767964965499, -0.08324857241559672, 0.06324337711100322, -0.027056624312980324, -0.024126927757348635, -0.08311283020693656, -0.041235389012090964, -0.030423625975763244, -0.051532006606372804, -0.029765140211503296, 0.04450767791878921, 0.07982030066687126, -0.012614771571670874, 0.0017435649863599412, -0.02774239078135536, 0.013744280810748258, 0.09288756749836, -0.051108177051567255], [0.03660425288023886, 0.019454851872797607, 0.06337671712106546, -0.052795980503094156, -0.013778727312903818, -0.0035569882062797264, -0.098785371175659, 0.07956777973662263, 0.0011551758823920844, -0.0053225290970092265, -0.07237778096992875, -0.0332060773178916, 0.028421852590684193, -0.007605661763844612, 0.08057461311588937, 0.09869004335997641, -0.09999497815088752, -0.01228723734536119, -0.07994022557107894, 0.08491505783585912, -0.08276429078069024, -0.03298279749827725, 0.018270678781839786, -0.007098804336515913, -0.06207602445867984, 0.09188908461681489, 0.06743259652290001, 0.052140337150743704, -0.09945010927215132, -0.049629147672481146, -0.010815463678607487, 0.040891086069827, 0.00765050309758461, 0.06282382508801132, 0.001255972829369692, 0.0013697944796080969, -0.010938212391466681, 0.04773849016296669, -0.01822192830045763, -0.09993016178878121, -0.06836898476250317, -0.05758593880370358, -0.0859239501212028, -0.03124756195468814, -0.07320027887027741, -0.04312253615995568, 0.08736156261650896, -0.06374909447447077, -0.06857009642611063, 0.0722841521730799], [-0.005915175878406398, 0.05396479484316269, 0.02556785847110299, 0.03362730703674685, 0.09506871452680027, -0.04041796755090843, 0.03719747620461983, 0.036588255310198436, 0.09347212443417785, -0.02126788412698659, -0.05630799726140019, -0.01166786935731301, -0.08447491839020516, 0.07208077985802383, -0.08399659107819808, 0.0696027600202486, 0.03517129066957089, -0.08983799717722418, -0.012293527700914589, 0.07229759503425423, -0.05716440053618513, -0.08122752598202768, -0.006307223327589928, 0.05756395240742951, -0.014944043486120065, 0.06834989034731598, 0.08353266720814659, 0.04376779730616534, -0.054347147402239365, -0.04393802936995588, -0.05946353771516071, 0.03285365813869215, -0.016102882106860353, 0.038185202406906094, -0.09201365298819326, -0.0036974322269706927, 0.06799901095649949, 0.059264740802886795, 0.08924980682499964, 0.05620492921410222, 0.07541596406922141, -0.030815331549160968, 0.08791128640806092, -0.03649840481378623, -0.041645087443865726, 0.061790364930444736, -0.08381208890768171, -0.07788797893075126, -0.0022826245912891813, -0.051073338457175835], [0.04297183431999199, 0.04299976024989913, 0.08105315244270647, 0.09710020435066616, -0.0809929380446355, -0.053235710970891484, 0.014019704731542487, -0.050580642736685215, -0.08447926105361188, 0.018868998887567295, 0.08498908309455597, -0.034492098965813844, 0.012284854350087498, 0.05680691254298037, -0.09971995264093753, 0.007466532509404919, -0.058908948245700504, 0.015649346529077388, -0.0755278063142419, -0.014476070736171104, -0.06235528703480469, -0.00837103059780342, 0.0661876265030393, 0.06996782235048965, -0.04187617108172879, 0.029985143006797804, 0.04575682673513151, 0.05950076642767241, 0.037287554396477324, 0.06738652217037808, 0.08533840192124473, -0.08326102473724438, -0.0380285375022994, -0.055293167765314344, 0.027775593121506625, 0.041210944256621, 0.01957139155967684, 0.07302447338927523, -0.05600980454598275, -0.0345111909752516, -0.003495175114813051, 0.0419931065948666, 0.05548992270279246, 0.04838071641809741, -0.08841982690814915, -0.07258552567329897, 0.016057049440976412, -0.04785890224690914, -0.09064164990768005, -0.01607223910425218], [-0.004198870772839133, -0.03427545467045093, 0.02438468408794718, 0.08847770276670491, 0.043350621993744676, 0.023841825023062688, -0.04178668783887032, -0.05218035260132357, -0.04869542166126287, 0.08268667637920762, -0.04566987321685974, -0.03481637388862757, 0.06122388034171722, 0.06620066547353051, 0.09688674650804335, 0.08836623396333187, -0.007808180650006588, -0.010678122324574171, 0.07870506233754324, -0.07727836159676765, -0.08029007084648183, 0.0398458282006644, 0.05403163807386266, -0.022441945758553045, 0.036051910292840106, 0.08711507262275131, -0.003387483489896065, -0.0554690483160053, 0.0648637632324954, 0.011296230447684463, -0.0035509090638339985, -0.0011207016037011741, -0.09889651679531963, -0.007092758571654256, 0.0226292390643604, 0.09014339505820243, 0.01149862608426222, -0.08165217531953212, 0.04115537999426758, -0.04793032033022222, 0.005773475349773433, -0.02421412796998823, -0.01597558030209653, 0.09911473986108094, -0.09237344556721663, -0.02264299561446241, 0.08879250274505776, 0.032438896182808985, 0.08830658218270429, 0.04709607070298741], [0.004821201794855151, 0.07513013267420596, -0.09668997565194948, 0.09699270237916383, 0.09485423380514027, -0.019039681008944376, -0.0256144924189039, 0.01300114997759913, -0.08934241777478835, 0.0527147794267758, 0.05743730082851667, -0.03456306219828993, -0.09619566792007424, -0.09522630073083078, -0.09616957810640454, -0.08984921893005714, -0.06073962538869271, 0.04895801804886546, 0.07132521301339825, -0.05311645805964287, 0.030715707580239726, -0.03933364061743732, 0.02860934786836042, -0.09303216518424728, 0.05942455378594899, -0.056614161013922984, 0.005408071802793055, -0.01631956158796985, 0.07395722071262897, 0.0756795753243438, -0.02651858607526296, -0.09433563812043118, 0.06721327889155401, 0.009907486216767042, 0.02530394525080107, -0.015859995908483124, -0.014826047396275646, 0.0627860220633212, -0.018285722657312015, -0.04133828946989957, -0.030905305111142964, -0.09878088964169325, 0.09460712519594425, 0.023937389256750957, -0.08012972486675463, 0.057973887503001115, -0.030340291875934233, 0.07852079218132182, 0.07269321164580347, 0.03932957370816206], [-0.08789171848864669, 0.09335598455062163, -0.029607975817281404, 0.05804972845268619, -0.07220132812703557, -0.019065686967542544, 0.08591435517102372, -0.03475203070388633, -0.018207421007624694, -0.04794603702063898, -0.04847565483385319, -0.021054867518141715, 0.04011882163891953, -0.050787628277227784, 0.023841391153927777, 0.059894940274762026, 0.08954060874234648, 0.043870947997425275, 0.09567592395020921, 0.027431510516043173, -0.06299679994448398, -0.08206587301146423, -0.0066057713239108945, 0.07804459185206536, 0.053028340906122934, -0.01858937489393056, 0.09536018931983611, -0.060449448262978406, -0.0870701458918633, 0.047320390105353355, 0.04620926490402455, -0.09668561306816331, -0.02634506956266358, 0.05490868070716784, -0.009232020980188008, 0.018563917733366825, -0.09749583141322316, 0.08856447020280989, -0.003425619018808043, 0.038815290351121134, 0.0632878371039273, 0.025719108616171604, -0.04523753716582662, 0.07448332038736982, -0.006520742963599058, -0.09564672124369543, -0.09827572125809284, -0.028674025379545373, 0.043113550327159744, -0.09703699939825938], [0.05715463339919902, 0.06672479585438024, -0.05470953611104459, 0.017904121404948056, 0.07631313415920876, 0.056209477551344394, -0.057268450519123305, 0.0022962938166211783, 0.09673416147326994, -0.05352173674450747, 0.08038451073004954, -0.021616554223815365, 0.09470660409055429, 0.009864317550987559, -0.0065665846493196955, -0.08753698749236019, 0.0018855781421169837, -0.09169897029560725, 0.06324177557809485, -0.03233356933063454, -0.07495197136658374, -0.019141069308729913, 0.01353438403929233, 0.06799151482003715, -0.0459871515333862, 0.010815166282266156, -0.03614736065915479, 0.05040293952048755, 0.0141314628380379, -0.05783364250289618, -0.011894917229844398, 0.0370289097586069, 0.08315587652726325, 0.08558925778246215, 0.010552719088986737, 0.07759011807098931, -0.011455611909372568, -0.06946358919031526, -0.09740531133299707, -0.017730414403304223, -0.05917965165237529, -0.038410051250433425, 0.02659543765672126, 0.013928384732234747, 0.08306533057319127, 0.06233404759469463, -0.03574802295863766, 0.0927212706512508, 0.09909708189793817, 0.06572592274137476], [0.09220281164980532, -0.08412629179260436, 0.09628298642941366, 0.03141907746114886, -0.07065463019508023, 0.08969323178465821, -0.01108597997273833, -0.03283714071564019, 0.04013611150750815, 0.09993292431524603, 0.01730284749664346, -0.053170332892554774, -0.022201609788979518, 0.01722072733068289, -0.028154871333332054, -0.050213217507263465, -0.0012525928337415448, 0.05279245841100255, -0.040410111118348295, -0.08933974241430086, 0.03657278658632768, 0.01591708571577735, 0.015054493358485438, 0.005618137976781429, -0.0629305516445264, -0.05976215904454925, 0.03123271931734861, 0.056986084579643576, 0.06561368231032325, 0.08682744365097236, -0.028849509208394533, -0.08245984093756481, 0.009593386477056681, 0.06293603636864922, -0.07801744158737461, -0.09935768116982996, -0.07067140709340813, 0.03491615521832894, 0.04046525960271902, -0.06460873894189562, 0.01704331487416147, -0.09075683689105252, 0.053322213885514974, 0.07957539870097727, 0.01502887964913166, -0.04619259019366162, 0.0013947821622938977, 0.01120091382433, -0.07602242196524396, -0.09319616378634149], [-0.010970500274523398, -0.02570418924215652, 0.013706415394064336, 0.06398252410378988, -0.0015206204963715414, 0.018041372149294202, -0.0930662754811485, -0.0008128429841425672, -0.02669623633580534, 0.04842870959553203, -0.005066882628218389, 0.06670924022893471, 0.016178956176127163, 0.0635378540233682, -0.06175623307619054, -0.06302910046946833, -0.08738920625633256, -0.011372041145423367, -0.06512619671261405, -0.010528559786433925, -0.08523031074121645, 0.06756715569011762, 0.010158857023964532, -0.0847405118913963, -0.04686362288168542, 0.046840851724609556, -0.04067481312493067, 0.018338291583727503, 0.028293301510585733, 0.007470518478061239, -0.06173128228362637, -0.04448840432756307, 0.0816142664513631, 0.09867420553050482, 0.003541310846904011, -0.007943493210387231, 0.0875226507510628, 0.08667933776473444, 0.08647028724094252, -0.0017448759917968182, 0.0781173152172262, -0.06951201102217408, 0.07745194115324072, 0.06984918982909846, 0.025187543582879862, 0.012699727519092388, 0.06915480436761362, -0.07608220782845206, 0.013767561823634075, -0.09108811642010889], [0.08761129225606476, 0.004482421987925228, -0.050081646009472805, -4.933550615264515e-05, -0.07939198924386637, 0.06155072984657345, -0.09029081768629868, 0.04808448677116223, -0.02039213396341144, -0.045390831594639615, 0.05422664650133183, -0.09555502525666562, -0.012066274643964786, -0.08513034966697018, 0.030315007853638914, -0.05538366359522906, 0.08712358495739156, -0.020304907723783308, 0.06063328663624659, 0.06325128375166664, -0.08393925722969409, -0.053184354371197645, 0.07918767281983655, -0.02287488898423569, -0.051962813778595573, 0.014131330379429152, 0.06932357120596844, -0.008918198170341965, -0.0392190457941356, 0.09934750240430987, -0.019541678374811716, 0.02592184409149953, 0.08683838805117666, -0.021320932576458992, 0.06552154121196083, 0.028379015926665863, -0.03781209541476145, -0.017571162071670893, -0.07226954889236159, 0.06276793968004515, -0.09622458344964527, -0.03388796371904115, -0.021524714467420145, -0.07371480971927967, -0.04285732049313382, -0.08695211777731844, -0.06956143697393552, 0.053511108317584405, -0.049213613657898427, 0.06857222939528371], [-0.06273672469537535, 0.09066611344415115, 0.07604016452288351, 0.017146596454840735, 0.006786941570242594, -0.0894533867038337, -0.07431852683587226, 0.09589757366337767, 0.016535823528871535, 0.05734258264632086, 0.0615035752607844, -0.036194596777154225, -0.03957348138160204, -0.029175853016890074, -0.06762210127147153, -0.05122765796879532, 0.06945812940040286, -0.037396146293205756, 0.03651732405201777, 0.08901513652532103, -0.052552050866812985, 0.009030484079345813, -0.036949364886369504, -0.027508814431137396, -0.01926848636086989, 0.01771497062350677, 0.09323269752905819, 0.05859662945982047, -0.039275314230380914, -0.0685007646333281, 0.020851186209696657, -0.05565918862525217, 0.037416608872249346, -0.07799346842301752, -0.08110419292349383, -0.04766866055032566, 0.0978623419862664, 0.07154370720957953, -0.00664498963040934, 0.05132478982760946, -0.061221547318433815, 0.011086946130240555, 0.01460657265565761, -0.005949342907018568, 0.05554762972209834, -0.004286549983578913, -0.0010620263696058674, -0.0950011498239884, -0.015041810865766253, 0.058118709952770686], [0.07220961918026073, -0.06772057999359546, -0.025419828471751088, 0.03082831789297355, 0.010493882347998973, 0.015754565765670914, 0.07378743591617731, -0.08649317811793476, -0.005449110016646469, 0.05982324182382945, -0.054664565933532284, 0.07271319475225818, 0.016549878907276522, 0.024028392383127484, -0.024339641441084275, -0.04542688984536585, -0.027078243684691805, -0.04944585533743513, 0.09504310536858845, -0.05411984725697985, -0.025100498400272425, -0.06698413018734656, -0.0519420775023082, 0.03780467586045608, -0.06898035295058058, 0.0653879853956991, 0.09533951063778309, -0.042599474038224706, 0.06640719786415436, 0.03686626502230461, -0.025321122333535215, -0.07619284754580768, -0.011743741844919692, 0.08434877206225985, 0.04184258222943371, -0.08414902106220633, -0.03712254852655743, 0.025404543974880123, -0.011000572260591673, 0.04730869143498903, 0.07538859488984351, 0.05865616100641899, 0.07311230678195288, 0.06340940663348904, 0.059778073116131314, -0.024020891791505974, 0.07254292741811949, -0.025201104101586824, -0.07693449053852591, -0.09740917914645975], [0.09637160819129847, 0.03835351740282711, -0.07231502094934357, 0.08478577080889113, -0.09305231594903166, 0.05461345542498594, -0.08469941500004684, 0.09282154252279809, 0.07681323622499636, -0.051010223839538994, 0.0272517577173145, -0.006107272243671774, 0.09284336734488965, -0.09971279156460851, -0.06901905623311178, 0.015679805062096736, 0.01977848232303628, -0.08132723453103803, -0.04043576341997612, -0.008489594998086991, -0.02917081135204036, -0.06436042934270465, -0.04597653408320157, -0.07985799039416308, 0.06379596732912268, 0.04280424565428895, -0.06183379327505154, 0.04557095686309032, -0.07730371326202523, -0.07934069262481525, 0.04720349146106123, -0.04186008339327692, -0.07581450031493274, 0.07913269876705717, 0.08364881795618243, -0.05913023015729262, -0.03459696106592758, 0.015251844361727482, 0.05135166105163577, 0.08903569209374768, -0.06446426454499307, 0.07644004628681036, 0.010742315907163943, -0.04498445233664268, 0.032618630090321704, 0.0625759695716403, 0.0660692040254755, 0.05624986141327584, -0.07980471231580655, -0.08646342388661432], [-0.0028786492932613844, -0.08483159844570975, -0.07568416929568418, 0.026220357500820246, -0.007083165082768628, -0.028080767908271964, -0.08409005421187415, -0.02968199892250481, 0.09479931237435785, 0.029547775634564316, 0.028556812525340203, 0.034795879761891024, 0.05486333077642078, 0.06928429343830203, -0.07025775903720011, 0.05918002092403671, -0.010583273954826722, -0.0780634897709235, -0.043572349456190464, -0.05015830257695755, 0.09318018503317585, -0.04279656725365891, -0.027472312096505386, -0.01631506937423291, -0.0605151774375629, -0.05072175782591404, -0.06624271019873054, 0.0717032844352363, 0.04185228009519107, 0.08730227140873184, -0.05588353313280097, -0.09685306699478556, -0.08079022244626491, -0.020069386256462707, 0.05691132650624639, 0.09368691303285692, -0.012708904469138055, -0.04626322434521218, -0.044955256170315594, 0.04502889838420804, 0.022242723495747713, -0.02309415135017441, 0.08995593430039181, -0.01040545450539751, -0.08813247857726342, 0.056279295302351096, -0.05213187770486519, -0.05675197880392955, 0.015591002746480023, 0.004437487197031437], [0.05835802672882631, -0.09070237431711539, -0.03646406526318709, -0.02315840248047954, 0.054041300815486276, -0.03544335916689015, 0.05956985103851706, -0.03644881513607126, -0.03127611985147352, 0.010756148942475341, 0.055235390146141816, -0.09850621744968038, -0.019541674564632433, 0.051333723150335686, 0.05201539022307769, -0.08889768232972717, -0.09078676740822772, -0.06284457597964171, -0.06814037164007487, -0.019550038662017613, -0.0528808447573925, -0.07688891033624841, 0.08670181506284075, -0.07469168138875792, 0.046748619959987275, 0.09818916207113279, 0.07739411663216286, -0.004500783594511962, -0.08818238721248582, -0.06192519419756042, 0.07549281351742482, 0.007567731071514067, 0.05451090956848628, 0.019396100953910173, -0.02718686148576692, 0.09317496309860795, -0.02021956626001739, -0.09171855762199908, -0.03443307424457891, -0.04414708651396215, 0.04990585625217597, 0.05236627854974821, -0.011777826014124498, 0.029230684565597603, -0.008505453269479268, -0.06348854231848064, -0.018701600003138766, 0.05800331231472047, 0.002193269994668026, 0.08028299889249171], [-0.09924563500277431, 0.01303091312959459, -0.004731362361776098, -0.05877005107683025, 0.0777843688034611, -0.08964873661251088, 0.052033195650524944, -0.019088525603600123, 0.058672263166577227, 0.0028119373089757066, 0.08469268922788264, -0.0040216409593277075, -0.038261687381592926, -0.0010083144801498467, 0.012338731842470807, -0.06114654932816426, -0.05819050126519276, -0.08699996674174276, 0.09874994630967115, -0.05833633581811437, 0.027808522885539533, 0.08588330199388947, 0.0858223818403886, 0.06446563625454663, -0.05691544309213621, 0.060514630541872894, -0.05218891554585392, 0.04978532581074485, 0.035149974440364024, 0.003047517402059108, -0.09383744204740146, 0.0881535069274334, 0.06347227460526772, 0.03317357440934543, -0.006402814579719612, 0.08093794033103846, -0.08859951047559614, 0.06359558717976016, 0.054175118337738554, 0.09218701761446915, 0.0363049355075824, -0.03325900583933382, -0.0015407975860283613, -0.07108692071956957, -0.038771107811148814, 0.05534422520185808, -0.08577316211325717, -0.022600500158100487, 0.08749054171752343, 0.07104678916596696], [0.051351361197651595, -0.048188370277065885, -0.04363628161177381, 0.07804208675984467, -0.028402619780943394, -0.05344666242762421, 0.09754994224730074, -0.08873977860733147, -0.07330668558968544, -0.0513643660592021, -0.06441979856616731, -0.054835819092295505, 0.009299426460490218, -0.06307410232381053, -0.012376065327288164, -0.05606226550248242, 0.026268457162989155, -0.001990752011294712, -0.02269725963283542, 0.04351837098137085, 0.0027408889371963664, 0.078875639524331, 0.09530149610520247, 0.06442630182106834, 0.03469620458295591, -0.0153095395420233, 0.050457559919643055, -0.05065672984415125, -0.023309692185931544, -0.08916303885865029, -0.09845013711974772, -0.08037822015573887, 0.044888876385663724, -0.0615420253124148, -0.092991626817486, -0.08432030131132123, 0.0682754307432028, 0.024811483298655766, -0.0015554064288058535, -0.05516348848672527, -0.06526599746134057, 0.034745969214032814, 0.007379860398114306, -0.03419901812642828, 0.08776890293628335, -0.08243632861034729, -0.09019647245882205, 0.06485264988427614, 0.04648360042751601, -0.04827258611715559], [-0.01468062778497823, 0.09798989547370802, 0.08015876103321344, -0.05596834308911441, 0.09587150068486261, 0.03705090972541231, -0.048485900631655005, 0.008330369654501197, -0.08518108781044934, -0.06738387487815202, 0.07135247214266885, 0.07772647008764466, -0.02646067007095453, -0.07892678146452964, 0.019373146016149163, 0.07589466906053242, -0.0702112514827841, -0.019846248104797133, -0.08959654352959837, -0.07202203665942902, 0.05206030905612027, -0.0015933529255035507, -0.033055341259564, -0.06050903574539858, -0.0250481819776196, -0.08978789144976929, -0.06056605330624866, 0.0429751067530859, 0.008649838558261402, -0.04191938188957175, 0.014316264729705154, 0.002491418305981695, -0.023095339055765926, -0.03665840872045256, 0.02499370347387802, 0.023468767761126313, 0.035102372731443156, -0.025010156191113533, 0.05478522566690235, 0.07503965830537267, -0.006919379709872206, 0.07917287735597844, -0.07632723086627348, 0.047823487479614325, -0.009774362769688651, 0.019695484553727795, -0.06350794737490453, 0.010453868324583082, -0.0001656032645372619, -0.07612235324360044], [-0.05428149129014302, 0.07546076817400678, -0.0027059175828606625, 0.05491767702992793, -0.04600237648972986, 0.08130915853156626, -0.09060836041704431, 0.03310073325097385, 0.028055692769007448, -0.09203708083252855, -0.09580513974911908, -0.08533059924322181, 0.00903980938833253, 0.06049588411495043, -0.03345445778669782, -0.08071503087384493, 0.06423488961813303, -0.036086117819830434, 0.011586224937069728, 0.0591670167651535, 0.056015066619135, -0.09275170812781523, 0.026081806884245582, 0.061511821656561785, -0.04401195170997016, 0.07706740965776969, 0.0002888454829660255, 0.003184168058710923, 0.029252291695090152, -0.0355754355764404, 0.0032123483280478374, 0.07354293707526091, 0.04606737184888152, 0.031968687191150834, -0.022914859432985577, 0.08877133753958849, -2.6283944338884067e-05, -0.023735600411004403, -0.050386065005324755, 0.0416011629179575, -0.09060908159069465, -0.024839274985145817, -0.0493345187442613, 0.026354960528818014, -0.022954237054156525, -0.016192253270462437, -0.007715312523053055, -0.09055806863947441, -0.07733160817418727, -0.08409050254517707], [0.0033881716801140212, 0.0367507254437662, -0.0792053817425117, -0.030272125365822015, 0.03245210890183467, -0.058847632270123636, 0.01161537295286502, 0.04385334023510751, 0.07735918939756613, 0.08857180066246344, -0.014489354357758109, 0.02810580899495358, 0.08567060675606891, 0.01647002037920541, -0.04957241921706232, -0.08963022234218776, -0.10094121464735233, -0.08065908419172346, -0.01864570434067062, 0.08388411500379477, -0.014283129015626847, 0.012508304546268416, -0.093707655020425, -0.06196791808405633, -0.02149431064013058, 0.06349404556358314, 0.10418420171196685, -0.0944892217028152, 0.058739743307278755, -0.08489444308009322, -0.033373156962178865, -0.03211483239189681, -0.05198582428664569, -0.031207000658263477, 0.09042237826443451, 0.04436445695340962, 0.08172196560818916, -0.037806373675210676, -0.07832063130610127, -0.03289589056678665, 0.053917858384889925, -0.02449282094040874, -0.0340799988976691, -0.04289428547721479, 0.0960019014779494, -0.03066422975351631, 0.011626280067247285, -0.02711002903767625, -0.012880571451081712, -0.059204033956364456], [0.061695844786459265, 0.07026751969528848, -0.033742344659314145, -0.05971625678987168, 0.056485379076843256, -0.05460673581771624, -0.0957043333785748, -0.09372364070049799, -0.040126341303420084, -0.038387575412232575, 0.05940189848603205, -0.05133610814837432, -0.06953771100250791, 0.035050753428375485, 0.08006755368302791, -0.05727824512962399, -0.07436369639474524, -0.0464452941709004, -0.04028149094144194, -0.09241020180918903, -0.061383002494563604, 0.09341673736022382, 0.0788680688882817, -0.046510351436570396, -0.01010951724237613, 0.006816619369443726, -0.05791010771290906, -0.052348015779106305, -0.05944718691329742, -0.07614789540534064, -0.06956715210240155, -0.05743648269414737, -0.04066221960410621, -0.047920545997844864, 0.05880254900986198, -0.0993736821497447, -0.009608727935814904, 0.037254768917679836, -0.03375058224400119, 0.08943097066071579, 0.02743536700157976, -0.03211687864056557, 0.05149540894785252, 0.06163465527554324, 0.09878475280118339, 0.0020973579226752598, -0.04004258572433674, 0.013290719814813466, -0.08104330888751986, 0.041664877188728404], [-0.09567512786390635, -0.08485051441550155, -0.09938441916333697, -0.008241609040345982, -0.036635368085660945, 0.026367356411488678, 0.06492427912240793, 0.0041149675480646125, -0.006350809833918768, -0.09951239923573874, -0.06851662985910412, 0.07760041893798635, 0.07806085454253965, -0.02532244165788468, -0.019704846552830682, -0.010630405175296197, -0.0693080733210817, 0.0871587163907071, 0.024427703510986346, -0.06738245106256227, 0.07089632317591799, -0.012452654242376973, -0.0016430769754798085, -0.06576136374426327, -0.012249057369866034, -0.0036609515981812757, 0.0567192090280456, -0.06589063258972143, -0.035593463137131916, 0.011211212879072856, 0.027461344830425335, 0.09701365277808009, 0.003944863743841986, -0.06553152520613857, 0.05877937576511051, 0.024242196086743384, 0.10493563502608827, 0.03743754122020377, -0.08182531249876386, -0.05952107881979066, -0.0824978590632386, -0.02994578534511397, -0.06303868959191974, 0.08888435359726177, -0.08591298480915578, -0.08058370956150812, 0.04613414684902969, -0.06579603977941868, -0.07739656107529773, -0.06711469168726206], [-0.08812181612840059, -0.03813044562612081, -0.05022483479357592, -0.015625066044597964, -0.006315948926978175, 0.0346503379940211, 0.08729720968134476, 0.07794863178076038, -0.06726713677162449, 0.01007779238651289, -0.029995345006841947, 0.015094879631260369, 0.02731915705510622, 0.07660611989842948, -0.09477818453368551, -0.012869721788109374, -0.0012681068017994714, 0.03952657818615059, 0.09564721988969913, -0.009681375935146065, 0.0008887678525224857, -0.05175437765241992, -0.0081859052722211, -0.01890696397892956, 0.06273096204819034, 0.06569878714570423, 0.10024833392572569, -0.10220221483521982, -0.09076848711635906, 0.03735345806551516, -0.06658921438874445, 0.05134431579561349, -0.09482042011697342, 0.06638607881696147, -0.032909743456453366, -0.030247212773418894, 0.09465424683284315, -0.10362365294134183, -0.041186086994094276, 0.0764227594234304, 0.09344587883514285, 0.06357942151688253, 0.03156532411434194, 0.012863351699272748, -0.061599287441541056, -0.05768977209849797, 0.011094375308210646, 0.08501897886128916, 0.06986225736942636, 0.01202134641759404], [0.07198959752303105, 0.06182524109526412, 0.07582620118351566, 0.03740987211406358, -0.061780867213895564, 0.007860349393337296, -0.08317883364033155, 0.08696390231911445, -0.000583361779671818, -0.08834144142096673, -0.021102149132572565, -0.07719446157490732, 0.04531190432853674, -0.05542114363227652, 0.012509491730046696, -0.02507820596933261, 0.017405049300191457, 0.07403584163591402, 0.004976398647146474, -0.09276317530329671, 0.00038434034385589905, -0.08875375551996252, -0.008989372496730931, -0.09310879228906285, -0.058245871111417304, -0.054287524633685684, 0.07335410556944849, -0.007443101676558538, -0.031727120791908675, 0.025982488572180745, 0.023523498271733112, -0.017667918891299546, -0.003657396884099697, 0.08068909343936581, -0.042307418876847455, 0.09598487208311778, 0.07932370191277159, 0.06586005771530665, 0.059680304183694376, -0.023395285919613262, 0.09029460423275693, 0.07747448092523397, -0.01017742576848823, 0.09431398901678964, 0.04569995661584163, -0.055809233564356936, 0.04662428103750111, 0.06604418031784494, 0.023349790970090396, -0.093700766800848], [0.022896584302701438, -0.006539430913363752, -0.05784728258178432, 0.08110123458581606, -0.05399472442041059, -0.09858089209512545, -0.030685713319285064, -0.014512883107729944, 0.005347218248880346, 0.02504642964115528, -0.07655044827639193, -0.07214158741566228, 0.002902737550204557, 0.0627343236639661, 0.07107927025484234, 0.04439588234392701, 0.05586219294611573, -0.030625303813797605, -0.020468009910343525, 0.06058412122358548, -0.06934158278260331, 0.03568004588939378, -0.06253970330235058, 0.020400488869792725, 0.03088611733691518, -0.032990190572345104, -0.05774177502589683, 0.052699507093879494, 0.04530967723518963, 0.03736080097235928, -0.012599126912162879, -0.023270054070925684, 0.03672654352687449, 0.10226609322363846, -0.09711149678700588, -0.007826829000615947, 0.0878357581832449, 0.09439772477106947, 0.009359623451082705, -0.020439987963084678, 0.02634393087304826, 0.07747114230063554, 0.029998673801113415, -0.04543557671547567, 0.0279836553571477, 0.04664255826634008, 0.08851482023098813, 0.01314901541287851, -0.01200382107927232, 0.07169301130314214], [-0.09817904226975087, 0.04019058842162776, -0.00035663497785905576, -0.04386478237578034, 0.04082517075219368, 0.04401832336011755, 0.0036829459908204166, 0.04004035949161089, 0.05598944068143385, -0.0892476252122141, 0.012234652253298343, -0.04382120186215621, -0.08515131850934037, -0.05744560989324118, -0.05566437724512242, 0.041036428262233644, -0.07462649088515279, -0.08878588831129337, 0.0053253546145723115, -0.06891036363730156, 0.040250472222237654, -0.018105649223431552, 0.056030435553225906, -0.04749764642413079, 0.06272802524344326, 0.029644477904167434, -0.07116191231694209, 0.03283891163653727, -0.03428469795229401, 0.036027799194588574, -0.061766058199068885, -0.07494941908882446, 0.04186620685049053, -0.002276986743318457, 0.00946159315917777, -0.07120356811808232, 0.02161257803135644, 0.08811118761309508, 0.04411380783611613, -0.04915955734957235, -0.006567407058918563, -0.08054213577015722, 0.08553462361148494, 0.00214884750087841, -0.06593989851366584, 0.07606065054550203, 0.0058556368402828095, 0.07334629801676114, 0.06042238605708005, -0.052460830826850643], [-0.08380936087296861, 0.0740416416478562, 0.02499223648050562, 0.09163887925753786, -0.030346835869517707, 0.07507177909967849, -0.03636522815054813, 0.0661553347495152, -0.021666944846086746, 0.04547855079292189, -0.07849947640640348, -0.06251006111524239, -0.0019864368095066144, 0.062330024304829305, 0.0022590357737261326, 0.06290454020470805, 0.0046922150346352266, -0.08108864048092468, 0.08301792287261152, 0.06734449227702882, 0.07522034762410115, 0.03135262124480636, 0.016010675224245114, -0.06006262115358596, -0.05483621483858121, 0.08759244439393324, 0.06658033965974183, 0.022867205258855744, 0.03135888121988775, 0.04308317512678761, -0.03796940396760684, 0.0687755242364048, -0.09695667558390486, 0.04095144379537921, -0.08248230695327186, -0.007730781366861391, 0.04713599533559522, 0.07258299654394719, 0.09101782152026547, -0.06400050772265711, -0.032256527490843706, -0.09130725589201884, 0.09444179981704212, 0.0018631129044469573, -0.004413209463559662, 0.029861741837772612, -0.07842886202251274, 0.05049874458685146, 0.0175367718563632, 0.03466354235677303], [-0.09067724153284225, -0.024879852461569214, 0.05630404974940604, -0.09627933022795107, -0.05828197240716219, 0.05281751204558396, 0.06541052476485724, 0.026840669828028744, -0.02716672833791624, -0.07076774002027385, -0.044565723699776696, -0.05940429069100033, 0.015698234817395965, 0.08621327991258916, -0.02179573043294577, 0.05440911160053924, 0.010064365357418253, 0.018922401401639852, 0.029219451155222526, -0.08029105597077625, -0.026870880052068672, -0.030486287635527767, 0.01877409548419826, 0.027721239141003582, 0.08664528129120762, -0.047736427353786734, -0.07380690769903586, -0.031010994815862464, 0.04353922798613657, 0.07054174217164717, 0.0698360160010637, 0.08034845182294087, -0.04098332040376689, 0.07672705490389391, 0.011308298146197222, 0.023461214227136915, -0.0610199832798709, -0.02124358247576664, 0.09461469847201422, 0.04983776342667937, -0.01259065534518306, -0.0964014657995555, -0.07209443446637472, -0.06138336232906411, 0.0630515010603022, -0.05664368012367545, -0.03048357844721737, -0.09653819453746326, -0.08251922796685199, 0.020878980319969084], [-0.06993204380716089, -0.029626665024343454, -0.04462264629318839, 0.0027889586583315995, -0.03446011590309278, -0.01317599388961402, -0.02145914155618919, 0.08036196036300247, -0.046964615262118134, 0.04433121883863243, -0.08731135380903311, -0.07446143648713802, 0.09945676070889713, -0.06723056559538751, 0.048530118694210866, 0.04856182519390005, 0.05946919984171915, -0.030975776769323008, -0.08795026569373196, -0.046261509181158685, -0.04046853072619224, 0.055237804128204684, -0.06989911644161438, 0.020855783270583777, -0.0128045202263806, 0.03584031427459755, -0.08515632211781696, -0.029709918583840592, 0.027532567894047767, -0.06633054159403773, 0.019376838490447072, -0.031072697569804922, 0.06476283920910761, -0.015560496650842321, -0.08727138610451211, -0.0016813188333121354, -0.0293694173105366, -0.05539041412853769, 0.026542306048972914, 0.09091518263625274, 0.0384868523999797, -0.030360907346327872, 0.06647524292716793, 0.046266530047637304, 0.09021391560243928, 0.06885572720746616, 0.09469595324108167, 0.022320959805358215, 0.05714181501535044, -0.01919762469614625], [-0.046895407103161584, 0.08783175705248661, -0.0723012472434243, -0.060011275596524194, -0.07027105238336667, 0.06974646200452614, 0.03995035215318249, 0.008120168447001738, -0.048452309603231374, 0.024067532587401533, 0.08267270720067008, 0.014478351634576933, -0.08441161823189945, 0.04845139649454791, 0.012322518184200021, -0.027223354341862738, 0.04034213822685423, 0.031021292281401547, -0.03250427740120242, -0.0698876965234868, 0.04765329916114036, -0.04609104851811521, 0.025805689888611816, 0.04742881286293513, -0.016796744039162245, -0.061479574718883705, -0.031589784814673325, -0.04655561882530295, -0.050985716646544256, -0.06082075976807702, 0.05229498556800308, -0.01836423603894788, 0.024090239168112676, 0.074675440151759, 0.01755163709692842, -0.05147631418504826, 0.07083672497245741, -0.0793434923077407, 0.07919510794354742, 0.05126542528244013, 0.09048575597139777, -0.09724888775668572, 0.04371482967305351, 0.06195242608679913, 0.00884606122678673, -0.02252592089251275, -0.07445045792097789, 0.07725710385276285, -0.03410741837695433, 0.02447827861144669], [0.0341108812931315, 0.048387922514618154, 0.0705238030136876, -0.029221224670189394, -0.06756253009804472, 0.009420815689887257, -0.04962713824253569, 0.003526072858158355, -0.08322696451415489, -0.050060043964331724, -0.04264423510333078, -0.02322012217549567, -0.015975409548043815, -0.012998693306918635, -0.07299821373135698, -0.003507885131132496, 0.05101346913218596, -0.010898040951033194, -0.08568056451698298, 0.031345409228978716, -0.01577869216591185, 0.04051158019981921, -0.07546945163749962, 0.07992289793612403, 0.0521197435755168, -0.08029685173551973, -0.0002980349641185376, 0.009219179000463734, -0.0596862010316555, -0.09994355401930471, 0.07318448763305638, 0.061643099370458754, 0.09085699920453888, -0.006507582318601074, 0.003521412221193773, -0.03997396658995705, -0.08011970189901813, -0.09780998789980462, 0.01700662161444208, 0.019133731791336817, -0.003972922686080335, 0.0711662083891077, 0.09857944577985786, 0.04126932148297563, 0.032991652240286856, -0.08461901109534953, -0.02858548709472189, -0.06486867783170089, -0.09458808221794907, -0.03623510670662636], [0.07865230501378612, 0.0017400933268115482, -0.09916144738047017, -0.08470281240462033, -0.005417612029445601, -0.0413994251422217, -0.055497053032621715, -0.07053353260142536, -0.007733990779023148, 0.03213529582915434, -0.010196331003762632, -0.0961844380233399, -0.08220291846398523, -0.02461784024593687, -0.05260390771890777, -0.08362298102279442, -0.07560182990392615, 0.0059051498146491105, 0.01654363000246961, -0.06740604030479119, 0.07807173092783523, 0.06237589085726292, 0.09197100417085993, 0.06300705392950029, -0.01319357289025258, -0.01185692465401067, -0.08495247523539051, -0.08390647817433608, 0.02676564958400457, 0.05134864485721824, -0.08496782906011809, 0.03387507784138727, -0.015033499070872453, -0.00883468515296612, -0.08457292761173432, 0.08061761644218476, 0.053250038312533166, -0.047714013173781905, 0.0543577585644566, -0.004629891186627974, -0.0536649706850946, -0.043870465012383834, 0.01682342720314678, -0.04707950785205022, 0.059319573896456784, 0.05455979154773419, 0.07438337522091268, -0.017087434889765607, 0.03311934286907467, 0.0640396166217623], [0.07699512408319362, -0.0013187157281318723, 0.07292023112599677, -0.04629783598499269, -0.030863708527788372, 0.07106659394891698, -0.059008290208876525, -0.06013784757787142, -0.03434379872879463, -0.01471687758338891, -0.030041865282704056, -0.0631283158550131, -0.02033390444670638, 0.08983442614359113, 0.02764869979459264, 0.05877054372287932, -0.006959426814507522, -0.002630665980767624, 0.01523038108578087, 0.08075788392079777, 0.08907657666641397, 0.06163659210102354, 0.07580849362739206, -0.07465497319884072, 0.06362612234531542, -0.09622954376788727, -0.09689078582134142, -0.05828531690604442, -0.0013216903708938715, -0.035738690997186656, -0.002425680217030185, -0.09701911740166427, -0.05722428143421679, -0.08627370716877025, 0.03872538746499535, 0.019591797752261497, -0.050989017214970137, -0.052742734635592294, 0.04525930281835899, 0.08750227480253855, -0.06254418731783924, -0.07678760026784984, -0.06421620784022591, -0.06086442853570902, -0.06434552091847362, -0.009157338943511492, -0.03232345647757551, -0.09874642817234905, 0.02145426699578401, -0.030801679010771424], [-0.048322304528418326, -0.07545802790572037, -0.0385423998366832, -0.03214662233378476, -0.001837125582426144, -0.048578373812651024, -0.01971655352064286, 0.002343577319953563, 0.010771531867885487, -0.007692711629858115, -0.06605046439885198, 0.06591997962558546, -0.01725372294862966, -0.009010895099372834, 0.03852595066075265, 0.03747698851382564, 0.0015278914376998937, -0.0697894636151504, -0.009915329204761042, 0.051859604749856264, -0.09469564175785948, 0.02248991599598489, 0.012163662324861407, 0.07482925355802914, -0.008684733870101158, 0.06156832618336791, -0.07772431538954677, -0.0819688566549321, -0.07770057928767425, -0.09244765240594527, 0.007955986300115625, -0.08477582467273106, -0.008620422347419221, -0.08352273785964726, 0.08131791172606467, 0.09210047551235861, -0.001156788953531801, 0.07750546099657082, -0.09255055904396566, -0.09472387292532287, -0.003918450724645098, 0.021935249513318794, 0.03514606121667835, 0.07233676310465784, 0.028146319590663244, -0.05567265044938596, 0.024144822016363893, -0.02622684190922167, 0.0038833382813944495, 0.014800652005594508], [0.007229488125461606, -0.01213140533713615, -0.0016030941920429226, 0.09637236247503533, -0.04638954177195498, 0.022440169980405725, 0.036378009929580624, -0.06066423077678747, -0.012880559461369429, 0.0439549598861978, 0.06874322640742414, -0.03875121292872499, 0.004489363218640907, 0.06219714706363813, 0.032601203119938915, 0.015253623566755276, 0.004903333229553206, 0.0020079514590372743, -0.056839653007536066, 0.09570172316669526, -0.060223983184461205, -0.003748124867554603, -0.002318114005012986, -0.001852115905500093, -0.06464853157463027, 0.04892630671239859, 0.06530657667537204, -0.039979319216633426, 0.03327016568242838, 0.06846303736989498, -0.0084959202318277, 0.024854481244329582, -0.06528507123456975, -0.05408047571051031, -0.004710802351281268, 0.0760765219582627, -0.045644853558907905, 0.08663850943537427, 0.017921674046354336, 0.06786542478954727, -0.016069719307834657, 0.027213892174046517, -0.04358705308017217, -0.04453343631055395, 0.04082288224188124, -0.02134538735492089, 0.09070632006502144, 0.07345198029661568, 0.08857343582348431, -0.01652770296653132], [-0.0759095158677253, -0.038633096905196944, 0.09305545119312697, 0.03321566449413019, -0.0003872030055614706, -0.07012597622837001, -0.048369922322159024, 0.07162784577888268, 0.016949340050174413, 0.06057512096336545, 0.043676324626389984, -0.06621295308922412, 0.007953557688690466, -0.06433005077556303, -0.05502856777357723, -0.004362404293709862, 0.016145811953261327, -0.04179710016664367, -0.06735930370699059, 0.038251714920632784, -0.09909480864685859, -0.06576612599089363, -0.020540042909266337, 0.017915414763963328, 0.032611884189981316, 0.006486502924975171, -0.06903813911446943, 0.09302607598987858, 0.027511424379997873, 0.020843848438875545, -0.05864525126630309, -0.07411659082471858, -0.0986774775914125, -0.05210859899746163, -0.06863722774421485, 0.07330107084455476, 0.015666433648637818, 0.013626531052160468, -0.04818736484509792, -0.023110256037522398, 0.06572291245255757, -0.04993422867097213, 0.08853032706881703, 0.08197240719548385, 0.0074081476419976255, 0.0367411099062209, 0.05137316986000692, -0.05902486918291688, 0.03546536692223187, 0.03940758393306312], [0.08559524268912708, 0.08495687314004338, -0.07559198363784927, 0.09802155145451183, -0.0837710539117858, -0.06411269724436708, -0.07751290440228127, -0.011340527133663708, 0.031488958094233105, 0.07282892354511367, 0.02586282779093435, -0.0025940371731893175, -0.020973937151094857, 0.07354598189567182, -0.09778273125712794, -0.040966639445284225, -0.021200264643335215, -0.05829014289774175, 0.0521582344138567, -0.0488321722717989, 0.03530112923659767, -0.07802361356465831, 0.06934076605528572, 0.06873388256178722, 0.004050697019174307, -0.049590697718670196, 0.06858428158197735, -0.07338649051867643, 0.007163419055361886, 0.018081596970093664, -0.09510115531768487, -0.06031053949214707, -0.027814658010121646, 0.09243458125606294, -0.01986781545358196, -1.458392282908949e-05, 0.03895303355558269, -0.030535343118596694, -0.04991947339644041, -0.012417863315148894, 0.03555567047340105, 0.03765500167145197, 0.03172659511205078, 0.02350574842357292, 0.05453234250619135, -0.008945072527728512, 0.06203600791944083, 0.03862838931121032, 0.02336707611324143, -0.01774427953082809], [-0.09955369985328032, -0.00138659552394442, -0.01820828529295962, -0.03309091999010268, 0.021414875596269645, -0.033169724814117216, -0.028474258691321544, 0.09097671789318301, -0.08708475671564474, 0.022593733075459643, -0.08801466747165008, 0.04720545812495358, -0.030550489516366255, 0.032832632785797344, 0.033499521027471474, 0.0037170694331659926, 0.03173707359006103, 0.021984973549340994, -0.0546735798030936, -0.04368235320298974, -0.0870127077388214, 0.051386729280917726, -0.087506201823705, 0.03463210317135712, -0.002760057145513861, -0.039479676741119074, 0.020763632705701585, -0.02808943839395449, -0.0865003925978541, -0.012117338873427766, -0.0835744854307964, -0.04574632376799692, 0.07483437506490623, 0.03868888691212752, -0.06105054150745781, 0.07129714820254049, 0.06152412542554095, -0.0687726147619167, -0.09746498925292267, 0.04181521097231314, -0.08401248624711377, 0.0025064014179247557, 0.05756664005151277, 0.025805231508743448, -0.027533305646845863, -0.03318974705244014, -0.09130948903362804, -0.09180632584339482, -0.07194148904634495, -0.00493638567001084], [-0.01582164174270924, 0.06005016328058593, 0.07088009564900291, 0.07290926815797485, 0.046260051140463915, 0.004225415614212816, -0.0058724173440093674, -0.08350126737880802, -0.04637459164189228, -0.037869209979453644, 0.04711926509596448, -0.055714143142406705, -0.09307409255845239, 0.006169135136998502, -0.07898319161959906, 0.04998630499286211, -0.04937996060147452, 0.013365051607362205, -0.010363524555667247, -0.02581913442055042, -0.021277894145250234, -0.015355446705717618, -0.04276722868939056, -0.046134103854825616, -0.0004207970072252626, 0.024572719578827715, -0.03689211257545766, 0.060193606671142014, -0.037728884107083395, 0.013617418724460845, 0.021283030715525703, 0.016016223280925113, -0.007372100361709905, 0.08542397778431979, -0.08375797052489281, -0.0440271476253719, -0.033431838409119494, -0.029480582641865524, 0.005137507209662037, -0.01772865240892152, 0.025993440947886776, 0.002511291840776725, -0.055419413949750786, -0.024566517195789797, -0.04810023608086633, -0.06738227963839283, 0.05135764745719629, 0.0998244649807308, -0.014928470312129433, -0.0990360998823464], [0.040129396717578536, -0.0032747564347511415, -0.093497070637746, 0.0942643430799408, 0.004410086072054661, -0.07591622402385023, -0.09217277419069206, -0.06338260372399213, -0.06945539796017433, 0.06261356735153265, -0.09553474001499745, 0.028901239542217516, -0.02315953050539446, -0.06629253464264323, -0.026611929786953883, 0.05937081849622591, 0.05952000381087372, 0.08061371346749069, -0.034346178620301385, 0.09811081677415787, -0.07653122764210354, 0.03384325451027567, 0.036861803656812964, 0.00629876803148903, 0.0112868253831927, -0.014451815161895601, -0.07806743091403656, 0.07704075191933055, -0.020129302758288586, -0.023263622424373492, 0.06689264331827069, -0.0167939309962883, -0.0684631262321564, 0.09254212039358276, -0.055414409668197245, 0.07634498849916097, -0.0007880946635316632, 0.06461015385200297, 0.04074569699840869, -0.005358787503860651, 0.08184774503897826, 0.011146224835014484, -0.03234795526659476, 0.01940526457480167, 0.05167359922204992, -0.04551950629018793, -0.028749187452945302, 0.03645555400417744, 0.07705881416205793, -0.042460553028983196], [-0.010799852994679518, -0.009882309408414877, 0.0012254694371365282, -0.010329673296892314, 0.04637881481592396, -0.057544816879917284, 0.011246930026297758, -0.06949492749423287, -0.08397084050733915, 0.05051093148481842, 0.029811584908291555, 0.08029626906025492, 0.03221560459957648, 0.007617852518488483, 0.047114043573450004, -0.08237573992693391, 0.05881158964424707, 0.06228134583748135, 0.002474241045001116, -0.07986448196435564, -0.03805982962415855, -0.04917651323066974, 0.03351137244836494, -0.01973415241782847, -0.09107224290577723, -0.04030299844233334, 0.01268902882369849, -0.04642293739435406, 0.08723435535452626, 0.08223049525124837, 0.0725607789060782, 0.0476463105212335, -0.048818685638789154, 0.045906432313084944, -0.012189433832755642, -0.07658556651062243, -0.08905223485188869, -0.0440973723159899, 0.0035507101494248045, -0.09433063976381786, 0.013574084219767621, -0.09312693483199182, 0.09772891099084521, 0.08094258450501685, 0.04530665173813936, 0.04728387880107052, 0.02763136479403175, -0.005102478508636127, -0.002641597818309388, 0.04283925395693819], [-0.08947885012921077, -0.051983013168229404, 0.09102582683753391, 0.02665615439710315, 0.018738576881262903, -0.05758123010255944, -0.02183200569269234, 0.0790271343007214, -0.0978224723189238, 0.04282568638121859, -0.03053514132083628, -0.06478448984541377, 0.014262156010869246, -0.07826718265801633, 0.09227897547502256, -0.09182467364641182, -0.005704338528013227, 0.004562940075243597, -0.04288002956431455, -0.0502499043229739, -0.017842430130747464, 0.0989358370553896, -0.056271047830770075, -0.08453098305589864, 0.04324109095972496, 0.0876483026865487, -0.08595943415549831, -0.06808342113788958, 0.09543464375555397, -0.043153578671859066, -0.0846807830428158, -0.039912128427035086, -0.004132335157041709, -0.08438706066108033, 0.006678187300055976, 0.07760127746934752, 0.04485163477353571, -0.0005160540176193079, -0.002610903211962297, -0.014027879693089022, 0.04659308966054412, -0.00507646082522326, 0.08759706382055404, -0.06813181057486495, 0.020948385165794586, 0.035301079705975014, -0.0941470403306491, 0.07535331842439319, 0.0381740775213087, -0.06419032162793342], [0.06295832471708357, 0.0964439471987246, 0.07196459826041518, -0.0832284302259661, -0.06156130553032051, 0.07313478998804214, -0.05425286977231462, -0.052415925592273156, 0.030758858226228522, 0.015341373782521097, 0.08604756191273571, -0.006470189824450059, 0.03541250341635849, 0.014770658826027256, 0.023482630909418625, 0.06673325061066127, 0.03988285217576344, 0.03581401351769311, 0.03857117186442528, 0.021047259937125046, -0.002511408560913023, 0.09425751736782671, 0.06467848605930743, 0.0765062453690111, -0.05992950702840129, 0.099688679542188, -0.049280692748918234, -0.010816994924345995, -0.087693648784502, 0.03160660583701118, 0.03100408358593218, -0.07617166904011542, -0.02982923998144511, 0.017304246791590136, -0.07365455783124263, -0.051944484672461204, -0.0020073939185167077, -0.04700998378021999, 0.025846129170084938, 0.08395090819836934, 0.0780992872443522, 0.04221062659126727, -0.08607579882664555, -0.016290969052683135, -0.053076571503166026, -0.09504263981390099, -0.02689486694926846, -0.01939815752365646, 0.06635766156045167, 0.009499337596097987], [0.05820311313241314, 0.00013218574363004087, 0.07126915017343174, 0.09458748867865827, 0.025301098066971103, -0.01863029784338638, -0.05883473941255404, 0.061161506207016006, 0.050251421010930754, 0.0020384713523970174, -0.04285970023457465, 0.044668244858475384, -0.03212337446189401, -0.04481567742749013, 0.04175614271290019, 0.02077049632273451, 0.001246333004340852, -0.09255585326974479, 0.05840378766092074, 0.034364887432940056, -0.06223585704834874, -0.08889026768153997, 0.02269291679630025, -0.012311156260281193, 0.013037292177820872, -0.08515416623615403, -0.077642510716278, -0.03316560667179858, 0.0826876342092466, -0.06460211085012409, 0.09677816233967611, 0.032235917000719885, -0.06977456443838138, -0.06247336926745891, 0.06068706927481148, 0.023263535325348115, 0.06521977042276195, 0.0581491235978698, -0.015842797905184152, -0.04844101904372853, 0.039972295242875044, -0.06186373304720531, 0.08344711772209087, -0.029644138051874675, -0.07290808439965903, 0.07422504739364164, -0.04888946358137482, -0.05075122728612789, 0.03491631911908095, -0.08315802499054935], [0.061084737315294034, 0.04452981100166694, 0.06323667811316219, -0.05610704194396884, 0.02261000759248623, -0.008935701497660107, 0.008112280933259967, -0.051492592068432236, 0.04350122717189479, -0.06993553067679358, -0.011223432484510734, 0.08646165861155172, 0.0862521532119449, 0.04228850404843918, -0.08260064440951277, 0.015722583860505034, -0.057208501897141335, -0.07301288360613657, -0.05111130351880006, -0.06905463245023737, 0.10363740491690117, -0.00020631076741561317, -0.07728779206942762, 0.016154086527287673, -0.09069313865570017, 0.042555170702060746, -0.03976626762873204, 0.07667602619829561, -0.09390470627823032, -0.05845173719316161, -0.08603336202455178, 0.06158828135861429, -0.048850859916064034, -0.08458897409688697, -0.05033998969274124, -0.07102894828372801, 0.027376974957741492, -0.013646634586334253, 0.04447984446986421, -0.03972642989061249, 0.04360119099967139, 0.02590287068984643, -0.016810410140878317, 0.05076428793260892, 0.06852405281689188, 0.07047893044661349, -0.006869659317490949, -0.07154522949937038, 0.038418344289980005, 0.07833595733621444], [-0.10677243293946381, -0.07871932942639796, -0.03822858194380473, 0.08089283171530214, 0.05722969087822034, -0.09093087625156183, -0.0784130096134898, 0.10323601336967288, -0.035762398838233025, 0.015151372766476759, -0.020558410626493485, 0.04760205105573469, -0.10460636369040525, -0.036048182647017146, 0.09006428351466718, 0.05942728869058563, 0.06226157344985556, -0.11087313324860422, -0.07597931127337292, 0.022595335861923513, -0.003705073284112689, 0.07104273821079832, -0.09047117385992313, -0.08184661752199153, 0.022910433641851035, 0.03752977329929173, -0.08024544551142652, -0.04553738612197598, -0.015651881344195324, -0.061119106332048284, 0.042701565033009745, -0.03129629722274286, 0.04250554718713096, -0.046744377771031784, -0.07297381982342, 0.0819261240218041, 0.016835077056899274, -0.07396145859685285, 0.0008184610875474411, 0.06336094067648151, -0.0731232420396804, 0.046053265100113885, -0.09743098978262703, 0.005312200770573324, 0.0517128103919543, -0.09389886434949508, 0.07965159800804611, 0.08191133590994429, 0.07302264177170346, 0.02212574366184317], [0.016706167035383836, 0.03690502452366384, 0.0005482444149604339, 0.08135839523084457, 0.037559887890592086, -0.07621029517884144, 0.03732563822351525, 0.03314211795020457, -0.06206710889515811, 0.07935509131248258, -0.05646416280808416, 0.045901016258628566, 0.11357186359763569, 0.021299016588705075, 0.07078935978739184, -0.09600288115712062, -0.15311437749637696, -0.037867115154220386, -0.024366650943248625, -0.07039281952595824, 0.10562041680082794, -0.06151772102046055, -0.03337548750181669, -0.008587389243263495, -0.0781989974418978, 0.0012492529096062835, 0.06252328416693739, -0.06350459856236969, 0.04718860433669942, -0.040260151737659476, -0.02793972230890248, -0.07985602901075152, -0.0979338727669392, -0.0033981403469314957, 0.01845903965580786, -0.05842354825569882, 0.06952513342571957, -0.03500878531829833, -0.034653012770376565, -0.00151454172440479, 0.08442504158891574, 0.017683831396436665, -0.010771586809659927, 0.0639655003711435, -0.045387274323517766, -0.0015933861077225, 0.07953819462103402, 0.03853701710438459, -0.02906932853899639, 0.05206988378688354], [0.06370931617644628, -0.051035856578389154, -0.07333764903914591, -0.05819829692806277, 0.013511274626488282, -0.022249335036749283, 0.00016586139613158077, 0.020898488025308658, -0.11681371590044243, 0.01208349623269392, 0.043441584217970515, 0.060052565731455454, 0.05451764417599092, -0.0034853325414770857, 0.0853964412723539, 0.06768428816247696, -0.003348652136123732, -0.07830753858057421, -0.06136987304345426, -0.008547147877836081, 0.13770764085927203, -0.0592603500775393, -0.047045123096381064, -0.08344450272126823, -0.06706686263891816, 0.016620577492365576, 0.059225666343662484, -0.014675774572116754, -0.05410071310092994, -0.06248213952743345, -0.010345070504309155, -0.05196312587356449, -0.07554128885027339, 0.04127933159426526, 0.0425677786993091, -0.02957575891647953, 0.042896517320021026, 0.09487640510332679, 0.06431153254844789, 0.0408845655646661, -0.02383436951255398, -0.08906042341628524, 0.00038403014057326824, 0.033253357126582825, 0.0022961551949952164, 0.03274305132965937, 0.05886007921590784, -0.11318795542621657, -0.020633542254647377, -0.007304089585250042], [-0.08383872538622869, 0.02986899129211062, -0.03506596315822222, -0.08857263411743092, 0.07024096490065618, -0.06360574616448661, 0.05530791808005862, 0.09126444524046162, -0.020778231172960338, -0.11781459713375725, -0.03662316591264872, -0.06787196753670269, 0.06844273673606413, 0.1379557851712156, -0.08994702681949901, -0.04086591515728076, -0.105637791957162, 0.007794447369997522, -0.08414546731219019, -0.06529705838937634, 0.09244805465591874, -0.0315945391926695, 0.0009932186675460839, -0.043322557912795275, 0.06687687466499942, 0.00822621240433312, -0.048186308566346446, -0.025384171724754007, 0.071375751042856, -0.10078954415585294, -0.012916413841295988, -0.04519426329504705, 0.04979293399203925, 0.02689372862274907, 0.031267226006067385, 0.018169930496788198, -0.014936509487277413, -0.037005655533517964, -0.10531651905264765, -0.0705311404743526, -0.09271042548257713, -0.0072191929073007486, -0.08674641426738063, -0.018776419009605052, 0.031306399401312454, -0.004494494356537607, 0.015317872880830223, -0.015256059272149397, -0.0923892161883389, -0.03543087259145824], [-0.09634590069173601, 0.004205067362695733, -0.08226470350189502, -0.02947298892357067, -0.05117582786256902, -0.05621862555819986, 0.07327368959317977, -0.06960858570183677, -0.07893483802088615, -0.10535866093674347, -0.023931419087496127, -0.014208494636222197, -0.03997553840082714, -0.023588446873447442, 0.004809040072559975, -0.08413003599181229, -0.054381881276720966, -0.0805412654236551, 0.09198010506407049, -0.005979269417079087, -0.0004857072592195269, -0.08881429009149326, -0.06268836143073163, -0.08380359703553644, -0.026696229693648117, 0.0468279676088051, 0.010630859040957017, -0.06128352070388301, -0.03310131100665349, -0.08412432644685626, 0.025112976979045784, -0.0698461639273177, -0.014818142187950781, -0.07520460853125872, 0.07428560822513339, -0.04736561101893627, 0.008170096935874383, -0.08520121925197637, -0.0228770013749914, 0.013048622979367916, -0.012815961641195252, -0.08071171387147079, -0.08477978613506017, -0.04496645393704789, 0.07185481594938667, 0.013962509945847827, 0.02127934022213874, -0.07258531975815899, 0.06253354350933539, -0.06331372949292556], [0.012736062940950399, 0.04002336611161882, -0.0340341197561696, -0.10347044642865416, 0.03236220800845483, -0.02435870418788992, -0.044933355397014776, -0.054485383447548996, -0.028514921165059107, 0.03327620959804829, -0.10332631891782157, -0.079866514843557, 0.027600885224878774, 0.03236159618390027, -0.0025400558900677606, 0.02511672040530566, -0.1586432587137456, -0.006040831476191248, 0.038993483173970764, -0.05069916147634207, -0.045065750469085925, -0.017553360679252727, 0.0019898713382163658, -0.01078683572912572, -0.017440736859671815, -0.12137574732502808, 0.1116517370706985, -0.04612499669526813, -0.04563001944735909, -0.13279670386730905, -0.021721334168498935, -0.04143865884320731, 0.04031794898315738, 0.06513260039192238, 0.010235853062279575, 0.023219116468496843, 0.04254736020153584, -0.009676993489696565, 0.06246464570290038, -0.018642131267620456, 0.027503458176875474, 0.0100930074169011, 0.011883574436404153, -0.06810667410152649, -0.03384023818856937, -0.02910970864344731, -0.012071286907936785, 0.0743045995603995, -0.02990902045381546, -0.1300104041641897], [0.04646532533980933, 0.05408559362453287, -0.044006143617084915, 0.017427897852688966, 0.023644348627042268, 0.05112284237293901, -0.018966288485516715, -0.08476935735580358, -0.09493231212545557, 0.03868416552078484, 0.07791077551719008, 0.0776067772042714, 0.011612178611466024, -0.09181707230171124, -0.0634027698380643, -0.04904668686909753, 0.028408664113545947, 0.006272700966962364, -0.021035032229958575, 0.056616948917947774, 0.03431127682278486, -0.09680799962702269, -0.020398529381055113, -0.02747117475053413, -0.025442610643914, 0.047195285764513144, 0.15601317354582436, 0.06155971272873729, -0.06219986826477115, -0.05245983339029667, 0.05583226154824974, 0.07848964449422864, 0.0307447239884274, 0.06621025158734915, -0.12257267821098, -0.07317777563774516, -0.034326353929514095, -0.07143630670841161, -0.02605773814349966, 0.03076036252534549, -0.10050447662802302, -0.08445474195194795, -0.0561138552074185, -0.06268068363550029, -0.016345901653571544, -0.12983058254689445, -0.04233479446459361, -0.1127204356365021, -0.07981426905657762, -0.152807443110087], [-0.005343622190860278, -0.0358744744250019, -0.07474737427721216, -0.002766809399062072, 0.07786004020877994, 0.029314883517047488, -0.06356093369665698, 0.0531638136920685, 0.010169877539613554, -0.06524905375572944, -0.01493884036785948, -0.004099501032483224, 0.02647685849835913, 0.03954230189505559, 0.0467241152250776, 0.0844745152738369, 0.02645426870752132, -0.0944664752757104, -0.028453629574601614, 0.0759985972024909, -0.04306561498891322, 0.08983527760145352, -0.058954966434051514, 0.09924215549287443, -0.032410351365470345, 0.002020281731245186, 0.16482537867095104, 0.02650468681758452, -0.033056250498843975, -0.04683343018132512, -0.09214342364655367, 0.015591478892617748, -0.047270332788372185, 0.07283401521952218, -0.06631829411417789, 0.006985302112322191, -0.030663562402713517, -0.004048687346051352, 0.00553301100120308, -0.09480684872164798, -0.10049696544310335, 0.041354524482522435, 0.014555024334949884, 0.05821465754895353, 0.10345327906344545, -0.13177734784542156, 0.031197503729207467, -0.042877885893430195, -0.07008857266661, -0.02825588675769033], [0.02341760677983988, 0.021935566452525805, -0.0874597265333356, -0.07590542568100156, 0.016806955061635348, -0.09632550343230735, -0.006256349200251849, -0.07388428733975626, -0.05307085298641133, 0.03622803123625616, 0.02087060323431142, 0.06917206018075742, -0.0877050311671639, -0.010553138223207388, 0.08971539621151617, -0.02116566793675791, -0.022495320166380606, -0.0625224925304232, 0.09195490193293947, -0.09740705853117104, -0.017697259540367074, -0.08345940129421367, -0.01704110355812483, 0.020623496974504305, -0.09757387900055227, -0.001037503482853698, -0.012849053645562573, 2.64775219106688e-05, 0.016949840401014424, -0.0891016536591834, 0.0015141108308717225, 0.006387071007921988, 0.06822085774236232, -0.006008663925602139, -0.0649695307989575, -0.10384732876012998, 0.01154788817210771, 0.007181512083126063, -0.028237588173142706, 0.04479519404413562, -0.11830076609103739, 0.019110399089105518, 0.09130379589885473, -0.07891638045246242, -0.0330513386933262, -0.04192775636890447, 0.03588003389228965, 0.008564515368691987, 0.013006863959148738, -0.02161540848526499], [-0.02561292630265415, -0.019047652465015406, -0.036752565660945584, -0.05480439751787375, -0.04733078146530245, -0.04579597583208007, -0.022305575603742838, -0.05867145456617712, -0.08022058907420211, -0.053717331847761604, -0.08760985000866144, -0.10597651929514833, -0.001486544173671355, 0.0005143421227010452, 0.05631728664619067, -0.024799983720692337, -0.10231932102472935, -0.06557057966480007, 0.07424572563514058, -0.05964550162721412, -0.014166579901061576, -0.08271765444619603, 0.09353458734711263, 0.02307453509551669, -0.06369222219773173, -0.0713289393835654, 0.07355343193994862, 0.017522927401800434, 0.004887044526413496, -0.03603988670200534, -0.06702424791917015, 0.022559263172825843, 0.0016524674525757459, -0.054922636135973674, 0.020299060579294304, -0.05415913087248927, -0.0816746273795686, -0.09580445554975274, 0.030545299372795633, 0.040477320709434196, -0.03522537874010849, -0.06800951047927173, 0.06792107028900003, 0.0005320263263154753, 0.08192897212999707, 0.03361975868811957, 0.05404085022107993, -0.05065894521899726, -0.03466363234228527, -0.08241693451525463], [0.03284709659164188, -0.03418418338550387, -0.054491698622827205, 0.06397385242981099, 0.02757842650650487, 0.06496245929547385, -0.025398860862814693, -0.061216317521263136, 0.014213333682394769, 0.01907378888574545, -0.037936657151538676, -0.01875732537631899, -0.06957071799949086, 0.07846874374872001, 0.07895239111015831, 0.07165186983723071, -0.068676423885643, -0.029761896875322113, 0.05295596319418355, -0.052545169692045965, 0.025682046158609303, 0.07165981226362782, -0.086146660325236, -0.05235423146367902, -0.057584544303787503, 0.05945577466721419, -0.04687916755284999, 0.03166637705025617, -0.0234340400067188, 0.09328817420481798, -0.03516167983178807, -0.048976732334256236, -0.03272552767971804, 0.029632671980262402, -0.011783110067975276, -0.013997914172982538, 0.02795357299402901, 0.06675392511249958, -0.05293131093038787, -0.08063866477067674, 0.06392959734266089, -0.031144890959303402, -0.05119836289918963, 0.00996745587659927, 0.08711435009910196, 0.0009945203937943288, -0.079984112482214, -0.09025596325534199, -0.005769411317162702, -0.10709434218292045], [0.06446578324850208, -0.07046362113201586, -0.05427180411981415, 0.03118838004162455, -0.05321616791656592, -0.09883881121708098, -0.04810483746125801, -0.09034817175461322, -0.09988215360123077, 0.025970971567030755, 0.09848925129307898, 0.06114109481288859, -0.030991640263365216, 0.06357562832085394, -0.004472833138225962, 0.09412373761326587, 0.008029282111745082, -0.07935504861548048, 0.0671617887618892, 0.05822446009660468, -0.019206764236861074, 0.029426351529948932, 0.09153949256278326, -0.006641329510325973, -0.015505989066838158, -0.03775035878971098, -0.06732055196897088, 0.04959016213870775, -0.002122279621717774, -0.02900218117826004, -0.04270132606156589, -0.09993028159745926, -0.09149236573817623, 0.03921320359123712, -0.04668385488390957, 0.07656715989045706, -0.052641735340963516, -0.07216495356426081, -0.020888359922220868, -0.058978754560552904, 0.06325875606793722, 0.09336286669512896, -0.09351811781870202, 0.0368407166507623, -0.0300049131341088, -0.03216865001178649, 0.05186596874299512, -0.0909628930840174, -0.03524867416667856, 0.03704831943809349], [-0.0473481854270786, 0.02295447755514885, 0.03089861192036403, 0.02144675168832366, 0.06582825897168652, -0.09122234398157081, 0.012929462273521751, -0.00013556621436743314, 0.06543765196196337, -0.03350336625813593, -0.07412142132609878, -0.038374844946823354, -0.05199278111061407, 0.022468615998815195, -0.0597274479776884, 0.06426058208113361, -0.0005921369797252486, -0.04952610470100272, 0.044920216791977934, 0.09247250552556807, -0.0490629071049652, 0.0073039580823888416, -0.00018835344834579443, 0.008400814779864442, 0.0006922834643702694, -0.028646075430107148, -0.006239228934437022, -0.08466921732581495, -0.005615777453113203, -0.09380201466674326, -0.051994264031641264, -0.07756608724512323, 0.09305682410134622, 0.006130395592738923, -0.06852488300567476, 0.057319299615089477, -0.028840612252598416, -0.004636503046957357, 0.08418155850842249, 0.08486239916436641, -0.08487767595904981, 0.06888363001046231, 0.012457691433153976, -0.08555286376563204, -0.01640784033374161, -0.015465268181593984, -0.03287143934082758, 0.08163091610450307, 0.017749179106004393, -0.0893520493333812], [0.08289608389131137, -0.0721155941744904, 0.019104858611646323, -0.027035375174213044, -0.07538727433755651, -0.027156828512930976, -0.07651332160183494, 0.06431523457955342, -0.06521457052250983, 0.03794435950796486, -0.06482650155119729, -0.02879212288558853, -0.047528898661873764, -0.010937378030264129, 0.05277487464921045, 0.06126512506464909, 0.013118522469388865, 0.09466008951295074, 0.045386082469860645, 0.04626931384908699, -0.04760702283550285, -0.04291563091929583, 0.04349145456505203, -0.06672282922206053, -0.003636014051964138, 0.03600727541604397, -0.046134530491021154, -0.011706335224490449, -0.012881959562525603, -0.042273612764098176, 0.03849666862769105, -0.06614125644806233, -0.044477431670630285, 0.07316991452751012, -0.01383337914371274, 0.021588389078455957, 0.08122265426463676, 0.07104340437815239, -0.0549875746774662, 0.03421367849958189, 0.0814879349526025, 0.06368660812279471, -0.010701307600226327, 0.04424221319275342, 0.08570645309965191, 0.041043800922987914, -0.07403878507607578, -0.058762506658855296, -0.003906250570434453, -0.05866500450405689], [-0.04004549328337786, 0.0928340924110522, 0.04764327908779953, -0.019485195593471547, -0.003189840742709185, -0.09673754270991508, -0.04460276073343861, 0.008155518765687847, -0.03412470454675108, 0.022608428140642498, 0.05655106603119925, -0.044194372687770406, -0.0014234186298008877, -0.010374660711115563, -0.0648022173959524, -0.05954128211737271, 0.09198818499821834, -0.05447516749459887, 0.07068650942966004, 0.02140061726590939, -0.05186113390187304, 0.09627443827591256, 0.01749653372554308, 0.07857922223044594, 0.037947596677518625, 0.09259995225439568, -0.07284508388381368, -0.018815432422971012, 0.02372542150119869, 0.09787108347863757, -0.009703647953214947, 0.050118346903960664, 0.05646372106506045, 0.08481430832305709, 0.059227679533267186, -0.004262219032102638, -0.07912327386625462, -0.056202068936697484, -0.029845197791778896, -0.030305317580162847, 0.0857602096100597, -0.07338366625218291, 0.0435415887940816, -0.07147314300687471, -0.09834923066343977, -0.0946495811813487, 0.04995352408778933, 0.0026159377342590134, 0.05438259161855652, 0.02675767774650445], [0.09750988761821808, -0.08002858112240566, 0.07782837771093101, 0.03776695868304375, -0.012063281766989412, -0.08102243906871126, 0.02939889456950104, 0.05869668796971622, 0.06796323190974349, -0.07171762568874836, 0.018961320968115758, -0.01164209262009161, -0.025874351484747135, -0.05673071239532262, 0.05778566268560659, -0.07227832275582412, 0.0708186380823354, 0.06940706747059908, -0.01982578655011205, -0.09085774465900709, 0.02605280907817059, -0.09217105192630144, -0.056811558498043785, 0.09330569347009565, -0.055289028292926125, 0.06697890289231614, -0.05293929617701503, -0.041788524361241586, 0.008811794544074908, -0.02607783394386491, -0.03739776074595265, 0.046342067383229074, 0.03479196603526488, -0.03429898074543647, 0.0476258391232994, 0.007374679470657758, 0.07696942538379781, -0.0431584134785658, -0.03204925071892076, 0.0154561427090468, -0.022328225757765274, 0.07969474977506522, 0.04956849437412719, 0.013471414145588431, -0.020598652620819585, 0.09397309433083795, 0.05150391674882268, -0.02895079630074429, -0.05553775051789261, -0.0891574581245876], [-0.06510793703769009, -0.09495097782430964, -0.016918249617529413, -0.06108039504985124, -0.08178219905872924, 0.06042756403887775, -0.017604451403840454, 0.039392288428337, -0.03438182127142353, 0.017608736219481516, 0.06159622151893063, 0.057214250579455755, -0.09782248466279884, -0.09357729775108728, 0.09848061902831978, -0.062204710793597, -0.036150556409582674, 0.03796512156645834, -0.09819071723466032, 0.07967891461668006, 0.0679908555985225, -0.0336681579591198, -0.09924659527322746, -0.09984914474403331, -0.08033266871857705, -0.042827342639107084, -0.0774372454746279, -0.05867658213826315, 0.01939739863782322, 0.033175751450008395, 0.07733209749794015, -0.026842022142690367, 0.019364702429496394, -0.005409937615545396, -0.00314811157878922, 0.06526780313896638, 0.08915955353980329, -0.01605398405398599, -0.04551888360196519, 0.05491422984006042, 0.003446801113830694, -0.021236005555727577, 0.05874220403431382, 0.08569119057711858, -0.06531977399332359, 0.0735425880959216, -0.005185289710239793, 0.05481169274943351, 0.007900814698763803, -0.0971944298988199], [0.06539101704955233, -0.002097088805314784, -0.008958621877122458, 0.04443126630493294, 0.03848380866535256, -0.004686223444635401, -0.029528748493698506, -0.029436977548743457, 0.06549304369467199, -0.016622333763512215, 0.0022585209734009293, 0.08998455415956963, -0.052861285387907665, -0.09186627966331769, 0.014453252709229453, -0.043131896608233, -0.0067205700798880635, 0.04441847534907434, 0.05787929873282635, -0.0949773385609128, -0.020853324460537975, 0.009395513795677046, -0.06322593077585788, -0.07286334058802937, 0.02644140857616531, -0.07683300955825756, -0.04162695174342926, -0.04489584181356976, -0.08445415899533815, -0.020893370214776816, 0.03853812519964325, -0.05387163294710937, 0.027201081972688085, -0.05394519107535927, -0.07853388994635152, 0.05794718800053139, -0.004609573291080249, -0.011691319406987338, 0.06417107144514142, 0.006429306461466527, -0.09168936411062528, -0.06272002661953276, -0.02742236462599308, -0.08452154881395797, 0.08835181671489742, -0.03777018355946465, 0.007888816726516645, 0.0726210049140946, 0.06241959940190772, 0.06950013104979583], [0.045369713401542805, -0.06307895255164689, -0.013621094066259193, -0.08710973276556791, 0.05945542103734347, -0.09340674604126453, -0.08767506771102151, 0.016262655004981807, 0.03319618840588276, 0.0625366477482911, 0.05073411988883181, -0.08750190101112863, -0.06905292007289798, -0.03423579310992231, -0.019615603355205596, -0.03253863360094354, -0.0012179395600653564, 0.07898602660898454, 0.06205899666391851, -0.04650091826028693, -0.01943834005922071, 0.08544282567244885, 0.06336658631220721, 0.03198170170541692, -0.054383787988200386, 0.0627915059309839, -0.09346967170872378, 0.06336075007574957, 0.054685026990787894, -0.011021239757638399, -0.09449691149945315, 0.014875923178201272, 0.08291238128799591, 0.036629861640980754, -0.00844608303150822, 0.050804807345377984, 0.08209385281948386, -0.04220592987071059, -0.06082778816025014, 0.000622368793911865, 0.026938911615894817, -0.03105543517399678, -0.06544260958591724, 0.009883074508074102, 0.0375556262512535, 0.003424434133118992, 0.014063749712358603, -0.015094716107519737, -0.08794079584876664, -0.07197933097480802], [0.07730674073288302, 0.012274686990701625, -0.06411586236877181, 0.0862495152210494, -0.009397812831456173, -0.09697890042815614, 0.0315053195138133, 0.0649927291665468, 0.03720207367071293, -0.04811564098592809, -0.016718598456178665, -0.09058477744645813, -0.05849203675947428, 0.07970929319013195, -0.05932403683836429, 0.06467511219572644, -0.0249293965329557, -0.09929382310949098, 0.07053571795352251, -0.03398533057211657, 0.032502171506676086, 0.019812191338125215, -0.08913200221078232, -0.02631698236580142, -0.03435361249632278, -0.08148392827023357, -0.014052980820875652, -0.0505396812548796, 0.013436129001619529, 0.05695794712424054, -0.07535062902347514, 0.07297604154724444, 0.06406826888250491, -0.0638208396296703, 0.05938126364553259, -0.0020753918287598483, -0.014360405323056075, 0.03407721651342219, 0.048395010610478656, -0.07143786489764331, -0.04338348117447002, 0.007000797083277138, -0.036610248651454194, -0.09400582447350528, 0.05175741787182106, 0.0607493346426351, 0.0042896619403998415, 0.01603389094754218, -0.0466509068101286, 0.021506130743306054], [0.09031810693306147, -0.09667036699978918, 0.0022311215459399347, 0.06476514111981688, -0.030070670587627787, 0.06386525792885234, 0.05487460326383828, 0.002465165465355218, 0.09048462631303808, -0.09411180811897693, 0.04813802262575101, -0.08712065961646807, -0.07433318545487225, -0.035507485382588036, -0.05218313565874149, -0.0013827228274706782, -0.09354137357102406, 0.07179497134200435, 0.016354161631179642, 0.09922335317815231, 0.04345071466194486, 0.01630661784848944, 0.008727554471056553, -0.06212450255513871, 0.07743772633153506, 0.09400730711606467, 0.09460149795797371, -0.015148741674633273, 0.0821582291326147, -0.02477582935526365, 0.08446232365681214, -0.09136098573906482, 0.08975938409482062, 0.03230560890754064, -0.0169704284410898, 0.09077697237223659, 0.06958280132581479, -0.04378897474850607, -0.09970836686434546, 0.06342905523424006, 0.017779679166009726, -0.05342995924717358, -0.07875336925716384, -0.026700802927750594, -0.015019026162565938, -0.08750077898648645, -0.029589194364397886, 0.0660544847884679, -0.06109281553155235, -0.01130974610302489], [-0.030129309173330385, 0.08046842265071175, 0.015612500486720735, -0.09225055706512093, 0.009540924971603373, -0.09146441750145824, 0.0759761457436258, -0.07762502925067392, 0.08935034934739827, -0.09054533114660493, -0.06433456117759143, 0.06984578140300318, 0.026685508083144238, -0.07308778598084663, -0.08559938794427423, -0.04755525587067884, 0.026590498268937834, -0.01147914803615098, 0.03562416560060791, -0.010258560259001848, -0.028085833688986983, 0.057539254532393114, 0.04622612592013034, -0.01812112484132107, -0.07307239993836755, 0.021014561679653126, -0.024576792069683148, 0.011138569661941905, 0.027945775061770067, 0.0414867370718843, 0.04945128086417577, -0.03644826897055767, 0.025147374563226993, 0.09338499812267151, 0.054036853822906905, 0.08604722844798574, -0.04771003004554042, -0.010317377350100895, -0.0855808306090943, -0.06619589230291095, 0.0909528953561397, 0.09478948407929783, 0.08021727496326536, 0.007758123243310905, -0.0975611789768892, -0.020622424142409668, -0.07979587038592523, 0.03294911219082247, 0.09402670319358702, 0.02328651123495014], [0.011083061708833317, 0.041498629616010634, 0.050174426865702955, 0.022047263806530732, 0.03423049239115207, 0.06382934231758128, -0.022869962029502672, -0.06480120905828927, 0.01519674763688202, -0.060585007830771684, -0.010338087817576412, 0.09278764923122762, 0.014644357863521435, -0.0388498227420146, 0.021781107909803952, -0.09901470165295288, -0.09678983835962095, -0.03999556401310073, 0.08055073962326377, -0.017261835845634146, 0.0719278857189621, -0.02229133852771429, 0.01953527824682523, 0.08830395286590283, -0.06455555195127918, 0.0141154427323979, 0.04196901727926871, -0.08439086581055058, 0.03622334697468643, -0.018649028424960162, -0.0547257956699699, 0.025294904878583994, -0.028845881965698733, 0.02899582367924165, 0.047097381597448335, -0.045910206607016876, -0.03983471106537867, -0.05325457227413576, 0.08281221345094684, 0.08192374872371512, -0.04122576836431683, 0.03240868250580196, -0.09934449389072553, -0.09453572066141704, -0.04310246794299365, 0.025002012529661777, 0.0156083615559331, 0.04027888734510979, -0.02884417428609849, 0.06194528595825709], [0.04240044403106359, -0.0403613233965358, 0.07965337137001549, -0.02578664643840438, 0.028256900307606497, 0.02358599202589368, -0.027457978613179383, -0.02004720064515082, 0.032451689919551004, -0.02027860309183053, -0.054649205402228535, 0.03149891461302406, 0.016158718309883746, -0.027852579643722328, -0.09028479534768451, 0.008260246878831909, 0.03317244433862564, -0.0818701433048011, -0.01848267678549661, -0.04393347879496941, -0.09167598068639635, -0.07376480752425887, 0.08043214785486613, -0.06606351710930146, 0.08591860481530926, -0.008375261131324191, 0.01578859283962197, -0.07491189814107008, 0.0714867268123282, 0.09883144051016499, -0.017975511021447583, -0.011889680572805069, -0.019208891552648315, 0.006175864433319415, -0.05450323048157446, 0.07292655887626538, 0.05146731632141298, -0.021624379970778, -0.0006011321997725988, 0.06508355815575208, 0.08279562595485632, 0.08804124756441954, 0.04884292032234008, 0.0040015432311471845, -0.043159807888885716, -0.04953522613096143, -0.09279651322205813, 0.06710981282762607, -0.010281554595717488, -0.000760472441249505], [0.00032651107176955246, -0.015854343774017055, 0.019512930629528087, -0.08770643330133386, -0.08886135420646502, 0.05010024605924579, 0.050641621108770005, -0.03984546102807072, 0.047657314176830466, -0.07755602862742295, 0.01689959428776057, -0.008093604803063172, 0.009675763626250503, 0.00918325621424509, 0.07554723916775044, -0.0146147121501265, -0.01724092354900539, -0.0961748159464589, 0.07358753641423282, 0.07833567936886461, 0.023005104180936414, 0.07077941847839729, 0.020882388083389387, 