{"hidden_layer": 50, "iterations": 400, "learning_rate": 0.005, "dropout": true, "_parameters": {"W1": [[-0.057339259945237676, 0.08439013941960269, -0.0890099011834054, -0.09501732005667102, 0.04023582956087893, 0.0012983770937362304, 0.05057746620894746, 0.08354100920882146, 0.014739472292729247, -0.021396931116976575, -0.04292690190774515, -0.08110794971211693, 0.007169930919511153, -0.045677678305037286, -0.06313114574653395, -0.06489231355080134, 0.01744291426847437, 0.051638933603423864, -0.02911204372957539, 0.042618138487444335, 0.09681576714129156, 0.08314784246963336, -0.05434833740695158, -0.03535652720979712, 0.06492818153355473, -0.005265614697502752, 0.036456784294637334, 0.06042787163700178, 0.008554366394201665, -0.09961245042016123, -0.08563191276662857, 0.02146798386891821, 0.07827815058388518, -0.006066370311208241, 0.054412325204690165, -0.0680198158818621, -0.03610497739183349, -0.0993576842678931, -0.030677390230144888, 0.07331936383543053, -0.06268911982358902, 0.030207231549266716, -0.023571914935019575, -0.08474046274350387, 0.056477515960355884, 0.07126830898751674, -0.06588337043912969, 0.010361034265607055, -0.0758759222959063, -0.09265624554595508], [-0.08630311703955124, 0.07407853450434357, -0.02243895554148871, -0.06390663117394699, 0.07934087545317545, 0.02384905091729521, 0.08848079767126937, -0.06904108357594683, 0.051773471265641385, -0.0667732380372001, -0.04918597721738369, 0.0645773798822579, -0.07239821783180299, -0.03074686264676184, 0.07831569043298278, 0.012466455932729631, 0.07043988750257252, 0.007968570651863738, -0.09284526196438717, -0.070756546839789, -0.05085782020213334, -0.0655636467387227, 0.006483167960595004, 0.02609204363802467, 0.059200553560282865, -0.021868384359352525, -0.02404075819326175, -0.03697321752993843, 0.0038186556167741498, -0.08428578633568916, -0.05957070897435282, -0.019117620813397226, 0.08017661234626802, -0.015142593101879709, -0.052514504906639004, -0.017957892195124586, -0.011079460302205385, 0.053930759100956016, -0.04125408338290529, 0.01281054411972496, 0.03449825836782586, 0.04193022315044012, -0.09580553152178194, -0.012274148543055557, 0.02121496455903596, -0.016661585738684898, 0.014618840467104932, -0.023357149158020937, 0.018699614236633605, -0.07066605215248781], [-0.04377981980342791, -0.05671303138302311, -0.004561924424484193, -0.0438785878395167, 0.04803625945330525, 0.08991089594097018, 0.032097358933868864, -0.07839436858277156, 0.04907898962288931, 0.006812874463905133, -0.035336840452200605, -0.009548412713468, 0.0459699278668555, 0.03004448983914182, -0.03892724554476859, -0.015605830320131742, 0.03967160919818449, 0.0846272403664616, 0.043829592769570935, -0.04724581645022077, 0.008969363648822018, -0.044796411268803654, 0.020750016379630143, 0.09007752280532125, -0.07855457262950914, -0.004382327741555184, 0.06891652390461081, -0.008918181417836152, -0.010528706402103377, 0.006315663261199589, 0.037162263362861714, 0.029759432658819612, -0.04406954913325332, 0.026795833163711424, -0.08065106795949468, -0.04199155012143061, -0.029292174761429604, -0.0071511491059000065, 0.09702224064435055, -0.02801832297703022, -0.05661573176477561, 0.04784611008734685, -0.03665244001681199, 0.024562701124021924, 0.06099764385611853, -0.061332298944977895, -0.04748892427102267, -0.018073268893520053, 0.002924011355600095, -0.05156359463394886], [0.05359379029973341, -0.06896058644580233, 0.03894479679781479, 0.021221290392410913, 0.03608443642115458, 0.0891621843196369, -0.06863442806134998, -0.037743679391041576, -0.07036490435902674, 0.007368047933267438, -0.03825904576352582, -0.054579990190954566, -0.07074662443166675, -0.02528243360508063, 0.03054424438984113, -0.06453711060206915, 0.08870715171903298, -0.044364053566584974, -0.013380281751869783, 0.06968340097887751, -0.06310770024860832, 0.021911815875722412, -0.07566754704801748, -0.06207530921587117, 0.025526610423278362, -0.022327958683735008, -0.016568804291838518, 0.03746127744112121, -0.019016992960123533, -0.045038469100676104, 0.03641421343200596, 0.027834487796442764, 0.06820486039388929, 0.08048561921906758, 0.07253760724050315, -0.07813115185883641, -0.05282857157794843, -0.06012592038993301, 0.06440076050947754, 0.02892726560625225, 0.0464379678055265, -0.07320679471303633, -0.09792282452148367, -0.0242074735512392, 0.008635935927675892, -0.058582053412904594, 0.023745833681682774, -0.09333316490522699, 0.032736891921110456, -0.04910355958998194], [-0.09944369876619535, -0.055975431505934564, -0.02006708412984201, -0.0740360672444135, 0.03923423660800515, -0.0755022126942418, -0.050929156863017, 0.04602777141843903, 0.0339559861336744, 0.030932880903068782, 0.011284025052049645, 0.004197626566998708, -0.08796913382714121, -0.05737568937475273, 0.012765656655588861, -0.09489239374753544, -0.07872907791205459, 0.06739034906250649, -0.08367681357081619, -0.026413762453271428, -0.08352468383879447, -0.08633792566158748, 0.07368445370359075, -0.06695413965650301, 0.09759517081800537, -0.0029403866318024746, 0.08001630073767349, 0.023578684954394677, -0.053328234606490436, 0.061075123442791424, -0.09057533811313345, -0.0899081711224053, 0.023294101563502465, -0.03779602337192367, -0.030860945585904728, 0.015211149983938174, -0.07801085870819378, -0.012102957691710145, -0.047837432890285504, -0.06154712666722966, -0.052752389474565335, -0.07415588119853343, -0.08184956867673132, -0.051876527328693835, 0.09428155438008184, 0.012165921703048893, 0.06354992726796602, 0.014471035089789641, 0.007948727779588508, -0.08416056385530275], [-0.018266532642536276, -0.0750777891439552, -0.032853347141426334, 0.06365468421734052, -0.0802970604050477, 0.04978994857388752, -0.02639553503320087, 0.00714535541170451, -0.05709415879861675, 0.0986165246486139, -0.018485836114088522, 0.091176804647639, -0.029883237882297298, 0.004566192795049925, 0.050635970958129384, -0.05521777377358483, 0.06724549121424636, 0.04733026071733748, -0.02252550246475829, 0.0716924786027294, 0.0966014203095362, -0.012084896487653068, -0.09710075939509151, -0.06738644073960817, -0.0625059321328287, 0.028408479472644188, -0.05681169267059083, 0.0874048239995596, 0.029998220028671474, 0.05595510230005893, -0.03819498189117354, 0.06822876616757942, -0.0015284658300549758, 0.09486970142765777, -0.02507150854972877, 0.002636594665577377, 0.06575638860084534, -0.021830357327002073, 0.060600306003696564, 0.08346913712497497, 0.05759339816876821, 0.06269969307939235, -0.05063607829210451, 0.0004499663645004953, 0.001999865710094695, -0.017210747348856456, -0.09839948215174961, -0.09902473749644525, -0.049623286670790745, 0.029994162284266573], [0.01264824733896859, 0.0153092283520216, 0.006298784973176708, -0.018859443391733094, 0.09549700281291221, -0.04553751853101118, -0.02673701927372603, 0.04702565413366641, 0.02163575706693263, -0.09632782013994533, 0.059922568061808706, -0.03583779602999784, -0.002092020608373102, -0.08116725973490396, -0.0017842110527740707, -0.02591784440358616, -0.00245967845919684, 0.0760167252053337, 0.012135227518124347, -0.002678108958854633, 0.012317278923498876, -0.03641746119186165, 0.024605986728996207, 0.049385413942051565, 0.0016536184521557945, 0.02555487729250644, 0.06551249164330489, -0.02643256591684666, -0.0735652081036396, 0.021486386640968094, -0.05654686934707383, 0.012722090939452355, 0.0802006727575951, 0.012623070694202612, -0.07305215029107988, 0.09037222561978717, 0.09045056224572542, 0.005294774543824654, 0.09007890415234185, -0.023216622480024027, -0.0023037350275616486, 0.017955760167898085, -0.08983869949281659, -0.06639735214700321, 0.06861775332846659, -0.05333566498967457, 0.06765773394573782, -0.03392233134104179, -0.03887462546237557, 0.034729449858263706], [0.06035318222968389, -0.08646933351093161, -0.03723211581481674, 0.06554376329682288, -0.03670349173593111, 0.0015174549174328672, 0.06068847193180757, -0.013177400732288347, 0.020620419954473654, 0.05067956323298578, -0.0704295315656732, 0.07225689964414014, -0.001895144339294122, -0.05483178623427076, -0.032594867999132165, -0.04722714350981157, -0.03574520663548959, 0.015867954079395633, -0.08876986661994515, -0.08370356158251108, -0.06145486402089531, -0.009231343953764043, -0.08492579634827757, 0.02755103351604629, 0.09813162081423779, -0.012347098345671492, 0.0044443187818911795, 0.03898335208577053, -0.0752084893484903, 0.09328120409167992, -0.06134341375271688, 0.011836310669584543, -0.06518606468951962, 0.03013375320685538, -0.006231483013823064, 0.058448636139415616, 0.0004444436627736026, -0.040976103915355444, 0.04946954433148404, 0.061101276943581834, -0.0940518829312279, 0.07906555142851887, -0.09892052042437952, -0.06262729033898169, -0.08214616418981119, 0.005583834394892448, -0.035681899406204365, 0.007865374281421977, -0.07954649291084177, -0.028640913088129355], [0.09199904624007846, 0.09349253531487806, 0.027915417175920637, -0.0958752433071119, -0.072964453352097, 0.03143648529302029, 0.009300203898017112, 0.04419820591843093, -0.083048944813543, -0.016405818087494015, 0.022175738163182995, -0.03522554103385456, 0.052153023349342326, 0.007201290784498493, 0.0631756556912147, -0.09889222109932959, 0.033530422486724026, -0.06549525163027248, -0.06156101311301248, -0.08323403432406273, -0.02262424118704945, -0.09289462600451853, -0.019878034515349946, -0.08064389210072474, -0.001632006471514097, 0.02091130840309459, -0.016421984297568776, -0.08638135592794155, -0.0917481242746693, -0.021049259635649548, -0.06353754483133545, -0.03384026314786673, 0.08113723399797898, -0.016774240916020006, -0.04218981503752777, 0.012651502629330985, -0.076783260962613, 0.09789564425979883, 5.099157657562081e-05, -0.05516148715350713, -0.04385052485862198, -0.03060454951732905, 0.08800423340214514, -0.017699505327765916, 0.01441692304123203, -0.0588046697404464, 0.03551251450674303, -0.09998078742417688, 0.06915379334711946, -0.036850415497093364], [0.04261850561907021, -0.08151302468667242, -0.06820954119663866, 0.08984583223902817, 0.013355461736285282, 0.062042121996808974, 0.0432832976918944, 0.054422131980212896, -0.07339475976539406, -0.0125095683264667, 0.005725361053532718, -0.09027940318250899, 0.09124033333855197, -0.0817341638181512, 0.06426388582550996, -0.059456423003163165, -0.03868542426534732, -0.08135941819899083, -0.08982675597692968, -0.035168122433840224, 0.009098985023937106, 0.04833437836900395, 0.06846100194263416, -0.009921558379903966, 0.017301806928261595, 0.049753450920826, -0.025418131149373788, -0.060613747746421254, -0.05572425371894572, -0.026671814804247115, 0.0036605794372287226, -0.04825336749282094, 0.0331132389842565, -4.5969973223009e-05, 0.03323604810745534, 0.04780877582203255, 0.03565650548531635, 0.07835013757433551, 0.03967689107979061, 0.06051483466110216, 0.06724808467759161, -0.00916106580610325, -0.07622014188723157, -0.06753002538957883, -0.06204089173430301, 0.07360119156393, -0.06861118297605237, -0.04258517978476078, 0.09490256669008498, 0.06021712923765263], [-0.06526788096945804, -0.03849137437990096, -0.005039311203847513, 0.09123681991494861, -0.07759304107939027, -0.03307907675847803, -0.030152239903908515, 0.03922524426237356, -0.017853242648333836, -0.08290719603176162, -0.07682537593871647, -0.044014681787926294, -0.02041328063880435, -0.09129739387343105, -0.058947638658412266, 0.03318040894234095, 0.06636224326850951, -0.016029881975243063, 0.08174477525140675, 0.04640400375351866, 0.0831130324027611, 0.043593945826520486, -0.02064066499010213, 0.023992828813566278, -0.0004320900985083781, 0.07122777595650828, 0.03904618497425899, -0.05708414195136649, 0.08164870943284117, 0.0608708467110064, 0.06402301731506815, -0.04099979647439718, 0.007091013809968835, 0.047174812866889904, -0.049919118422779254, -0.0763753432034464, 0.05801217842979975, -0.054281845942457954, -0.005022730814338988, -0.038073677735292626, 0.026454053294689056, -0.08791390358267626, -0.06664847330567047, 0.006424532158253449, 0.019943493711105556, -0.056255431880860574, -0.05262180595177375, 0.012220502075052056, -0.06755974420972116, 0.07351970989999398], [-0.004325378692026399, 0.09442404499754584, 0.02215395254546311, -0.04812851377669991, 0.07379976847637518, -0.01982607648564952, 0.07189488752543577, 0.019775761114379023, 0.05441737587236509, 0.0952446210345537, -0.07939941374397459, -0.0902739077235155, -0.05132632684508218, -0.012507219894464641, -0.0019268609299030182, 0.027532896463498324, -0.010571765305551636, 0.04702281763324537, -0.08597217773471631, 0.030758671907841817, 0.04245062021121332, 0.022028476663063026, 0.018144227217409686, -0.08666018770641404, 0.059092587870541474, 0.0988724813629955, 0.038064468370335114, 0.059736942970111645, 0.07988398180114706, -0.07359970131627298, 0.07691413848037526, 0.06382731833085148, 0.0009756204026246662, -0.08031173819769799, 0.07853126304583, -0.008507437077473742, -0.02503949479313143, 0.029320381968608367, -0.0009793691496912532, 0.026702615511404598, -0.03793357195824894, -0.019821103121239705, 0.08579219367623694, -0.09939697812689555, 0.09947966612210954, -0.013885531951081359, -0.0009786008743863095, 0.058177788373054734, -0.07716778515527899, 0.07609610692778632], [0.0016742449295265305, -0.05266377302697241, 0.0646983138332114, 0.08468584000922774, 0.08755833901498478, 0.045325298906697925, 0.06995120327948148, 0.008765940962687305, -0.07013881024948493, -0.07093528937922854, -0.020201655517940315, 0.06040643562260564, 0.04005985454635125, -0.03819383761827453, 0.07302233952191084, -0.030687533488052296, -0.057119497780443985, -0.09941970733406241, 0.0859735875523214, -0.07371799743411277, 0.07491968370305785, 0.030714001989676526, -0.03894872458749368, -0.0885837781145559, -0.06006514044641327, -0.06906302137962116, 0.01603388379614587, 0.0750616604732576, 0.00403717323792277, -0.03825990047635313, 0.0053523068639938776, -0.03262044640897235, 0.01559717770761293, 0.0649949802331376, -0.06148136032280065, -0.027716677490551914, -0.06049305663873712, -0.06377571239333897, 0.09009776832011349, 0.05205291312925331, -0.06351741434284411, -0.024038959821712808, 0.09295352731946072, 0.07895314409259932, -0.09113396608796738, -0.03394410214468968, -0.07305065330743143, -0.07853143281884956, -0.01660020849424304, 0.007450576079162816], [-0.02403698193235862, -0.06528814139178724, 0.07821605887257518, -0.027586252929941088, 0.03821445655728428, -0.011516905805313088, -0.0006491231661744506, 0.01977087961233108, 0.08091159316397031, -0.026628339155340394, -0.004088918114906609, -0.0003256582131688779, 0.006460567330852873, -0.08005375313475721, -0.04819466345623163, 0.0643852611745904, -0.0608575328596066, 0.05309703088555712, 0.0657645696646881, 0.0028249159030380583, -0.02559392515120114, -0.05025897890996567, -0.04042919443156345, 0.04595942039311812, 0.0647809006892957, 0.022719682141915554, -0.09086038293364172, -0.09535876115192272, -0.05255466945390552, -0.009901150014930818, 0.07733944386577088, 0.09815473294632415, 0.09556074936538461, -0.019881270170995904, -0.03918207449258977, -0.035790520912406754, 0.0061595069131005625, 0.04288518885079612, -0.009859776715951105, 0.04587117825352954, 0.02488778624290186, -0.07331140126426305, -0.03402985171282065, 0.030153694652569868, -0.07746679482614885, -0.028873291719988314, -0.08541808282390406, 0.08055716039118394, -0.04463946708405558, -0.0806505412857551], [-0.07572595865978737, -0.02144922652600914, -0.06136318279384352, -0.012315358286051209, -0.0912712444526366, 0.06700024211912067, 0.0841135967287675, 0.04798627469124553, 0.07362091159918546, 0.041239411355497885, -0.0768853501293507, -0.03412084249272172, 0.09587817327213846, 0.06132554628977191, 0.00485359235141955, -0.008367943646344328, 0.04874368014339367, -0.056252054327551315, -0.051035748780426854, -0.009235585780314026, -0.07514232036329652, -0.023567347388450205, -0.08401158740898779, -0.06529960276685945, 0.08302573528747012, 0.05918253456426659, 0.053460873898156985, 0.01182121373490505, -0.08904047024947757, 0.047619601200708905, -0.05569550956742713, -0.015771193414174572, -0.013881963137631098, -0.046516097326971644, 0.08622219044116025, -0.09958322058787741, -0.09583321988801659, -0.058421889204290305, 0.056954696261620114, -0.06272715416168159, -0.036097470259665074, -0.03408548598808028, -0.09850795590368203, 0.051632788011441805, -0.024284075946130843, 0.011762688135262128, -0.014693826078232372, -0.0024067309094750328, -0.04671551703011245, 0.058524749657667546], [-0.08013865913751093, 0.06256550377074069, -0.0861465771364841, 0.052863056085425214, -0.06698516161041657, 0.03128260915690448, 0.06338082566865996, 0.013936931171081524, -0.08992704161554864, -0.057019460202395345, -0.010612816102181191, 0.08089442712607794, -0.024862107125510027, -0.008385110785842184, 0.0861308688153738, -0.05414162007071746, 0.0031206333021421423, -0.09235411243862746, -0.07861179612220132, 0.07449153947004411, 0.018784660815116802, -0.09592132639937932, -0.05511131696140786, 0.0564899913393003, -0.012472701260044322, 0.07437649013125483, -0.03474760513976825, -0.0933419180292423, -0.030043599243913463, -0.08409210752074905, -0.06496764582180228, -0.08412858100983495, 0.05321219106598005, 0.02871018229941452, 0.015122321288001311, -0.06538468752962706, -0.07433888673511622, 0.015893488205201867, 0.017537437843723053, -0.010134029532377228, -0.07087596632421916, 0.07980056400998248, -0.03204422230648345, 0.010247895165015411, 0.011106745220470324, 0.05830313580739363, -0.07254056687936257, 0.012270420294778234, 5.101569552552754e-05, -0.09173812174490129], [-0.09988187388721614, 0.004225338923665806, -0.09388794148799923, -0.04269315286335214, -0.009716489613456836, -0.02233351054125647, -0.0009531332658475195, -0.0561208334315102, -0.04272853198899869, 0.09231231694245284, 0.03567114897165691, -0.0330656952464741, 0.08752062333938038, 0.040400175562606916, 0.016072861676578218, -0.010042886387909483, -0.09042847306038673, 0.020179426422897856, 0.004646375049845178, -0.018566824262738674, -0.08396009602215178, -0.08886632862978072, -0.09724713578439909, 0.06602616539584469, -0.07412829839908999, 0.0794716388471349, 0.035282987931545745, -0.05014753884615868, 0.07805130501241506, -0.020791293057717625, -0.002941969946662071, -0.001482235138411503, 0.09529790240666935, 0.05810850400879222, -0.09192934706495981, 0.08827463587244785, 0.05080753946716193, -0.07167195268781985, -0.003911766263453756, 0.09948806832445137, 0.058767198392526726, 0.07931616798209645, -0.08773530453950383, -0.06072631466340339, -0.021892283842580462, -0.052691568530357794, -0.015386815853777658, 0.09703462437771185, -0.012796239930407169, -0.04074811469959974], [-0.0785406113214092, -0.06517399817403169, 0.09972190446114257, -0.0809683549704946, 0.09486196458118173, -0.05014240592552482, 0.02838501342836766, 0.049434926584771666, -0.09333981478286657, 0.0678501910561565, -0.021052666720319607, 0.08727607677417654, -0.09569777756528852, -0.03406780219013439, -0.08566704212784326, 0.06211174210093018, 0.029100750611024184, 0.02366600616763781, 0.09293261180222959, 0.0827164810163917, 0.03180899348196203, 0.09316915412001567, -0.010053270328686331, 0.040922434082765885, 0.051220296339241245, 0.09120852998340659, -0.059213186115546074, -0.09564171847736423, -0.04179861033410377, 0.09436686228560764, 0.05205458097492552, -0.041377477506667315, -0.055663823355937184, 0.0049097386789353215, 0.07381275795819159, 0.05941299774417927, 0.010689058772602927, 0.09564091505134892, -0.007923005112202855, -0.08605345646307493, 0.062380292498721984, 0.07848393490813471, 0.07690355878743213, 0.09124456981088086, -0.05141544614995486, -0.08532539770105636, 0.035610264796775926, -0.0856585136824713, 0.004029803613190344, -0.005090784277977642], [-0.08865514986829326, 0.03824634316009495, -0.09411564411341251, 0.015746702100115015, 0.0042594115186921355, -0.017921587502127176, -0.07582114780313626, 0.012056368671009704, -0.007469913011707005, -0.03059100235091687, 0.09282721971320493, -0.01778651307545935, -0.03130514335244905, 0.07667039376847026, -0.0514764513472622, 0.08195797735359478, -0.06331961634273349, -0.04121539315565681, -0.07367219268417538, 0.03471492156831274, -0.0023436126260765883, -0.0402521310943494, -0.0877142084503739, 0.005771517599914747, -0.07188668189014749, -0.03618094331643611, 0.03564302276308973, -0.09983028948187536, -0.0893650154746672, 0.07515052303936878, 0.008593517527781772, -0.03834455860528266, -0.0756894034627273, 0.01578611034042625, 0.03545559993814679, 0.08166842117614626, -0.04831778049365143, -0.02781929460269382, -0.030323489170983486, -0.07917946871371917, 0.037334840965254634, 0.07062676418626473, -0.03322248450501945, 0.04515853649069121, -0.044959279111285416, -0.05552295466557902, 0.02306661907007959, -0.018937194561764306, 0.0339421190981056, 0.09050277194746933], [0.008412780919479862, 0.056638407312476935, 0.018249032117211655, 0.051056477061699995, -0.039619171762226894, -0.0964663582615619, -0.07046045995791239, 0.09768379327062213, 0.03467171293509225, 0.09796411834677965, -0.01078282606296728, -0.009797269970035757, 0.014032572495313714, -0.047440939762093584, -0.05573205207766801, -0.03187870883018851, 0.0728868194816241, -0.03267923238065133, 0.061123852557818464, 0.04927469505051327, -0.020139325544387326, 0.043820442749019806, 0.009264807419191806, 0.06601695259277049, 0.06214100757682936, -0.01454111866700633, -0.02169627513024308, -0.07556069841711058, -0.02140102158521595, -0.05600682595715008, -0.05496043915729063, 0.07279923485608661, -0.06307320732580654, -0.007927075208140927, -0.04736865131838093, -0.0978428692217378, 0.0652146378008816, 0.009429979896011867, -0.025490848650639955, 0.009756819446326337, -0.022243102455224234, -0.08935994606486393, 0.06662136233788737, 0.09673956739601941, -0.017976690248509147, -0.06775706464815034, -0.044057680073149766, 0.09751403956963006, 0.0037141866364994724, 0.045967815745727], [0.06624587911823121, -0.02066870712178634, -0.05018427596929107, 0.06685528412134178, -0.02344656917857242, 0.08658928699831611, -0.057089554178339746, 0.06918055665545894, -0.04692253362253776, -0.06344822470162222, 0.062420287256293394, 0.08335292646572401, 0.07721020332689008, -0.06308139164990989, -0.03877167280447964, -0.05125371558721268, -0.05044137992602991, -0.06989504440036659, -0.09257852804753322, -0.02353861778273894, -0.04182390146919031, -0.032115606528790044, 0.06326426806129451, -0.06926904172726532, -0.09155727908025638, 0.05150593342819798, -0.07598379180037707, -0.006451697168329912, -0.06317141541787077, -0.015300708427520585, 0.09552175439994362, -0.0947618383861608, 0.08393470821735452, -0.032177421573406445, -0.009607387823775349, -0.042048400578658975, -0.02744904590948631, -0.05545647386895461, 0.019991358814349297, 0.03273552979290198, -0.05538837880572665, 0.042510914640817854, 0.00699602463524944, 0.010829248923365523, -0.07420576850799843, 0.08937157748436236, 0.072804280984401, -0.056741464733478235, 0.025348653414389022, 0.09972839708301859], [-0.0745737584930265, -0.018227845818402602, 0.04782919595278001, 0.05790564400888645, 0.0054245320808546105, 0.06365737921121611, 0.08607146951159445, 0.009752937383556454, -0.07439686769960466, 0.027274684206507527, 0.017111920470494993, 0.03969441163233428, -0.05728582093205614, 0.04715901352227109, -0.09452223904960862, -0.018748559032330123, -0.06016854639617711, 0.02705995894931673, 0.01489399842945402, 0.08517750125134371, -0.05847407605341053, 0.0187431242413824, 0.08452088523954504, -0.04814285211826397, -0.048124645053818305, 0.07858921987176798, 0.07307200679003065, -0.08181831977047749, 0.046165041101472876, 0.02281683224378775, -0.0027777852334547326, -0.04336725857065429, 0.05544997223715775, -0.06038711268635018, 0.04081981410526761, -0.09183881366991185, 0.039721516565552895, -0.06692198974353644, -0.08704261618192553, 0.049765375759470404, 0.07678927366795268, 0.03467205348880156, -0.03165599207534127, 0.06666336400108838, -0.027251104051667488, -0.05044702477422702, 0.03896934092120499, 0.005980314000710488, -0.05980050363228809, -0.015637663580549938], [0.020246808946013467, -0.0642159312879669, 0.0674339111169758, -0.010749560051393936, -0.04863639856631696, 0.09247126899670227, -0.08482608029165464, 0.044674999263737275, 0.03435204230049241, 0.04508840807171016, -0.08865941453379896, 0.012788277737811618, 0.06698838708578042, -0.09303330407236819, -0.09850713100553075, -0.03764922640102426, 0.09220895830656717, -0.05477098688831472, 0.09265415994771181, 0.029447420542998787, 0.07294231958128847, 0.07402708958633708, 0.03298900590476417, -0.06470979202393552, -0.023874774202525637, 0.054859982408409697, -0.0722745575563623, -0.0914042858574623, -0.08915990197606255, -0.07962553134483136, -0.08784938095091809, 0.046448589623529296, 0.06353882578131004, 0.05652519919929261, 0.0032017144474213444, 0.06750295059103026, -0.09579312643007208, -0.09468696894445394, -0.03603808910336921, 0.07775188795956797, 0.024521789343209588, 0.09746280364156762, -0.06595546501874491, 0.012017102229507873, 0.0697334984490054, -0.07706113719718143, 0.016105955072960795, -0.03946760931708333, -0.061486605974966003, -0.0981586240100111], [0.008224096468331513, -0.07244684286154296, -0.07257467708753751, -0.07503391314055857, -0.009776052967850848, 0.08172695317299838, -0.0405703080329241, -0.051486471199546836, -0.00922139398387653, 0.007393398875204543, -0.0033208572845572493, 0.009524667179845209, 0.0915841747072699, -0.07779194011884279, 0.08022999182178042, 0.09181166708318961, 0.03459859726162012, 0.028997705010869373, -0.09075986255907752, 0.027175787226863785, 0.0647164014184029, 0.028342019525339657, -0.07876500763775618, -0.08098842497164871, 0.07840650964318849, 0.018665989562094684, -0.024424514045337825, 0.05811720379925042, 0.0036713389602779645, -0.053781815598852895, -0.09809256320490758, -0.03053510303180916, -0.036833952932236486, -0.028145419518906478, 0.05527305415006051, 0.012907320087341412, 0.015734255463131924, -0.05777424984542352, 0.08579237822123112, 0.09900056483469866, 0.0728711646406977, -0.07279493606573038, 0.05659428281931919, -0.07991657709883626, 0.03368777617700583, -0.02627311197343389, 0.0669113598087393, -0.012318581428450298, -0.05999981178719858, -0.09178270645012053], [0.06210040733738184, -0.07304562482772448, -0.010996714195930735, -0.047045864588896105, -0.04106698783404648, 0.09864819464516625, 0.017442469633897145, 0.05619412058915235, -0.06533461628592892, 0.0902125556109016, -0.08749682423678327, -0.025146060775298004, 0.00891667405590417, 0.042829688441756886, -0.010363924051473128, -0.09385400006566179, -0.05788555461504437, 0.0033023460700516705, 0.057226884852942334, 0.017139884706864478, 0.010142393472821712, -0.04712895112086815, 0.0484000736343603, -0.07307174345256173, -0.055537808992992724, -0.054221642410114027, -0.05507360746417844, 0.017662571174617517, 0.05419127265791768, 0.0857552043641305, -0.0438918857011174, -0.01972504643512965, 0.06874362551832688, -0.03198109259735758, -0.0331516598326862, -0.07520440149258355, 0.020350099073694075, -0.058419397892124386, 0.09939277572747396, 0.02891005165630095, 0.030948191121529384, 0.03166756717268454, -0.0550929156902881, 0.03362667921378315, 0.04010666174072869, 0.06971106068016297, -0.0305366955263041, 0.06327722241316411, 0.08537814051862413, -0.005753507400958591], [0.08020809129155199, 0.045044846571676816, 0.06544430417227418, 0.014573505543964527, -0.07622221132795509, 0.010258442059694436, -0.027304957199518087, 0.06467337441297402, -0.08138935333089406, 0.053245100920414984, -0.033964818418378576, 0.07489060843622802, -0.0959276990323945, 0.03066234617310437, 0.00876032236583342, 0.03214426768777556, -0.0015886236898759176, -0.0883193595163015, -0.07658893725280483, 0.055047770848437455, -0.0708679056379729, 0.08244014164525121, 0.07999075075644857, 0.03684149944359866, 0.022458985566941328, -0.08580653339079923, 0.06383328373602809, -0.0018129018130641078, 0.024511672502575868, -0.07761579561217154, -0.08987849760612299, -0.05825959609110076, 0.07926058793581964, 0.05777352524158563, 0.02406779628663569, 0.027953888987545472, 0.09675132266776207, 0.01960630878060858, -0.0731405187040437, -0.06365869364386631, 0.040247824902235746, 0.00838606594976432, 0.09353866488722357, 0.07267468765217383, 0.06376818207766263, -0.04321795070734633, 0.019385593109486066, -0.06789431517375255, 0.05536280982493727, -0.018237275542855147], [0.010316699184451147, -0.05717553207228703, -0.04863127116810691, -0.058585738432205985, 0.03432539068255516, -0.0666766689044436, 0.06539639781299267, 0.02459644745985559, -0.09715904045842816, -0.011140465020517937, 0.03839647295900267, 0.062203324778718344, 0.062415750872011205, 0.023457788297017765, 0.04341644783512935, -0.0907031301070082, 0.05271058395317549, -0.02470527073727087, -0.03684059703561736, 0.04263411305550335, -0.003043093498032695, -0.09995117811091053, 0.04622786480368907, -0.010832187208472163, -0.007815677171638405, 0.06290829318576838, -0.01861499000534883, -0.04427870235592584, 0.0527059560417493, 0.082216454628562, -0.004633295481649896, -0.08905021027950173, 0.07451154666702442, -0.09752383297707067, -0.09012463179165103, -0.03623332211195958, -0.0749581980234002, 0.020123233304762594, 0.049494375184148676, -0.0372843414345103, -0.051414478862028413, -0.06966854114073902, -0.09900529630972321, -0.06960313999987296, -0.02668243507762047, -0.002413762193069463, -0.002259456818076336, -0.09506242393007498, -0.028303783449485018, -0.05982895207205574], [-0.007136155976487951, -0.06985652257170041, -0.04173114887912069, -0.007998983217713557, -0.06910259091322149, 0.003927235422220995, -0.034456795627029635, -0.050420173928107714, 0.04491794766160975, 0.09746531170851144, -0.07838115755243323, -0.0034784268150120506, -0.03303272150984092, -0.041425625000834757, 0.027658744781717454, -0.021718167632927374, -0.047437017046582944, 0.05815852219075482, 0.09593600693231982, -0.04071355296172468, 0.08739123470042334, 0.04865514098813023, -0.02021156587267936, 0.04651293362137632, 0.06797703376834846, 0.042510748873082094, -0.07248711373220879, -0.05796666348822513, 0.03184670491100497, 0.006361806587776853, -0.05587368546865854, 0.05009553244205017, 0.02937526365861337, 0.05922396614510489, -0.010948953651774812, -0.022244789064252382, 0.016079385952891642, -0.060855863433150484, 0.08607391619373614, 0.012677562263034264, 0.001222351568454072, 0.08164985621614623, -0.09950120801415197, 0.035365459626832296, -0.03294902953534469, -0.015320231004313817, -0.012993815363514558, -0.0778663469507735, -0.07343583237299514, 0.07161824044384044], [-0.023904300464261216, 0.04435249987388479, -0.013582619980760297, -0.04261747940987659, -0.0157743203898294, -0.031457473104355746, 0.01722415916341144, 0.07574077980330604, 0.009430110329283717, -0.017785027687864982, -0.016700827776777477, 0.01734742736268921, 0.006227562408888804, -0.09218471153683985, 0.06027364385645895, -0.08277008326021368, 0.0671885569385125, -0.08311900799732119, -0.054648189839754086, 0.05223920847150054, -0.06293616112398366, 0.02419949263280266, -0.06682807327380308, 0.09084212288454085, -0.03588754076941861, -0.08266241849075778, -0.07131436382956412, -0.08683582810787616, -0.054354077690416606, -0.016556805495042945, -0.027517584235046272, -0.06422191847481824, -0.06370454137498434, 0.09957198450586341, 0.09369927384223373, -0.02179629206299158, 0.04858735045471943, -0.08247774949100835, 0.018251417374576764, -0.03264262118163584, -0.022681295169123053, -0.01792520540992966, -0.07991409321431492, 0.007585229353239617, -0.006250248235807734, 0.04779363449089655, 0.09875454404718484, -0.057912462861594904, -0.09395817557138467, -0.061654244242470124], [0.07609255584719596, -0.028750884707659186, -0.0266596332443146, 0.00541754876181702, 0.0732181670450418, 0.05830052295810814, -0.05194604811173978, -0.09486334147278085, 0.07841640847457096, 0.07744081050232512, -0.07832298444279664, -0.04310585603815778, 0.08438247389168368, -0.05898488697892493, -0.06838002169135549, 0.06436896748140741, -0.08815737786515998, -0.042680602104256615, -0.013783588342055023, 0.07161103217193163, -0.04745035431464373, -0.06273424555161636, 0.08949204005412711, 0.0420537892970711, -0.045991857971687235, 0.03949513103597929, -0.0579401580826346, 0.0671493611456534, -0.03772450940904646, 0.0016527689794154365, -0.055552717292106785, 0.09659705374083843, 0.009977491940596009, 0.008761117381152969, 0.058831375132725156, 0.033836597628863097, 0.05059488028443615, -0.09636593976650575, 0.0022682320285859064, 0.04242287942980438, 0.0033890747513825314, 0.09828212263997382, -0.08619881775835044, -0.04797237690146488, -0.09837751774249677, -0.05841315698982026, 0.04880074724528999, 0.0655489286090429, 0.0318343480970002, -0.05045271628256747], [-0.03103558365645008, 0.009660427415362632, -0.06394901572631612, -0.03756462893718204, 0.07949178699984283, 0.04237869420029863, 0.03796253053742818, -0.032989572458298075, 0.094433036414455, 0.05572428233461982, -0.043154946477596726, -0.04489052953446966, 0.012284664265192008, 0.09686544665340274, 0.03490039663726616, 0.013071622101734667, 0.016531346087157978, -0.0015493016433409251, -0.01920405340732742, 0.035538821818081906, 0.09081065356373763, 0.07102755562826343, -0.0849558937214796, -0.05490875744127171, -0.018422469609567546, 0.09371891012226152, -0.07741787845661954, 0.018304159635825365, -0.08552122688892042, 0.0033380921487366627, -0.0840758755510364, -0.0009901000864472875, -0.09902411060607996, -0.09556873623404205, 0.004969662254057969, -0.05303714860411617, -0.0076853637964558325, 0.001232156931128367, 0.09226751389217544, -0.020571890448258204, -0.031936042789004596, 0.02539196393758031, -0.03830353433722027, -0.012830866649711448, -0.05401576636354677, 0.04671658929651101, 0.051458131524459105, 0.08025886223079615, 0.030997827372305886, -0.04046724511372049], [-0.054336607758529956, -0.03608387373259317, 0.09815690122379692, 0.09253382976318755, -0.07616396330788128, 0.09224161671501527, 0.09501677236782177, 0.052148206829674054, 0.0016989946204297723, 0.04170061279311699, 0.035152030962479264, -0.025874297729792065, -0.0017447411158112852, 0.0377668777836459, 0.0008715910537258065, 0.07620900852209755, -0.04942614018386598, 0.017901125817158456, -0.002265886072162604, -0.07242683572805925, 0.045037645443086805, -0.023933712189540768, 0.05838110321308748, 0.032884379838124894, -0.0801570373738036, 0.09536042048045018, 0.08612214024052223, 0.09884351364709831, -0.09828796026244294, 0.046493712251609615, -0.07507577507107262, 0.06117284132179454, 0.034215156695299453, 0.006246933167596391, 0.053786029117339595, 0.08219971293038059, 0.024557579636312582, -0.027938263936614388, -0.023576931804648177, 0.06464234443073127, -0.0515889133791482, 0.0834669688362297, -0.09938287383264321, 0.00513233727131375, -0.06009663315795271, -0.07385779254875685, -0.0660738002693537, -0.010150347974307666, -0.08760256418901952, -0.03635591816918386], [-0.08044469802608184, -0.04235198512407066, -0.09374947891472407, 0.0606222294426797, 0.05499569492666842, -0.013798561900661574, -0.08929198492426148, -0.05650829138475699, 0.08627773031323716, -0.0027047098036669104, 0.02425847600627977, -0.09394614531904684, 0.038316040718570754, -0.09674035340669265, 0.005517764097937111, 0.013823536070531856, -0.08049167933497747, 0.02758733785912576, 0.02450272183445286, -0.07221700523712155, -0.012495552355255457, -0.009195636976675664, 0.05518959037189605, -0.06961912179998966, 0.012888121940704128, 0.04915857219917144, 0.008432021597411368, 0.08214609242649665, -0.06856164072784562, -0.09428244974710523, 0.010112542460323254, 0.04660010754266686, 0.035918984017076494, -0.09548621897449361, 0.07952477593308183, 0.0646400680765917, -0.022976912237564415, -0.0889116745545827, -0.025905389057368375, -0.044041931713445684, -0.08988391136215985, -0.06185459167900112, -0.052109914537861915, -0.03325764492223722, -0.09757297598870224, -0.024133639064123094, 0.03619635618987388, -0.04898244596837691, -0.07057998575302415, -0.06652006474179001], [0.042945986120223656, 0.09239355323804699, 0.06818244983968033, -0.09301574465367522, -0.06540403463876399, 0.057673724437590224, 0.09375323093043947, 0.08258899306958409, -0.08399588244644998, 0.052670800422029096, -0.018732138408444815, 0.07441113779040287, -0.09037628628262989, 0.08991323563126677, 0.06966775187572724, -0.003571595026379895, 0.0283703990690648, 0.022706321232821153, 0.045597762970044475, -0.062167822692245106, -0.013819115952490718, -0.004223682120896785, 0.011588379264110424, -0.09213420906689458, -0.03899237528875519, -0.081496621553731, -0.014151455847316294, 0.07450302007697393, 0.04653883858898755, 0.011520116517644327, -0.032487735402926196, -0.029943339879626163, -0.006958453921281554, 0.018531646431873258, -0.0185799714741864, 0.04627182109589967, 0.0031648196303196707, -0.011100110104361252, -0.004550573198868757, 0.008761749800466997, 0.0228437414025882, 0.08472315492213092, 0.07888651232135643, 0.04667730266464501, -0.0836667073891096, -0.00948616579330716, 0.05677323752242691, -0.03021925514013893, -0.04058171614036321, 0.0035442002811701956], [-0.03556687711260324, -0.02593098405550001, -0.09850743622129694, -0.04580044794382865, 0.07934897756431677, -0.07350895685855574, -0.08533113723721697, 0.009955524844699595, 0.05292866358647247, -0.023431771871083362, 0.0906841014270072, 0.059885398149309294, -0.036883774977014075, 0.0903005786090367, -0.04965030945544551, -0.0482318933381219, -0.045013163761006884, 0.019648808729920406, -0.07467863271116469, 0.008609694658872957, 0.06287806600887463, -0.023119107546098652, -0.03359216659997942, -0.03848273911245299, -0.008038073472090984, 0.0031395560357762864, -0.025826892441759758, 0.07161264916693177, -0.034673771322918406, 0.04796087111525735, 0.08571680565589873, -0.09705764631192011, 0.02342325208032156, 0.08389316377000822, -0.04937060282849753, 0.03423501508449381, 0.048942615318277094, 0.07811759024155124, -0.035420842156860546, 0.008519712212914213, -0.0660833748475222, -0.037819711122146216, 0.0654541088721251, 0.07340573948042248, -0.08932477605121539, 0.09343466989885071, 0.09050278055993788, 0.07145910253858742, 0.03555830358075146, -0.08293693148098809], [-0.0879299678929067, -0.08943831157292237, 0.07387177119702151, -0.07645007294073057, -0.09934815923517724, 0.05179610038884411, -0.060935345299278826, -0.09281523074566073, -0.0558096321749833, 0.040613619042651816, -0.02598365431551157, 0.016265658266336996, -0.07661854383255087, -0.06479038955786638, 0.01249752572035226, -0.09665223427532595, 0.02037209292896655, 0.057853015540800634, 0.020009148171441365, 0.05709653787881719, -0.08779571003603898, -0.08063851255730631, -0.07160594405298447, -0.04952844933628782, 0.0032297138225374916, -0.02995438317459241, -0.05954508889056298, 0.024615950493762417, -0.05444154503807015, 0.09168303838915756, 0.012181116244134912, 0.045362042923481505, 0.09877886671083638, -0.009993689012329818, 0.003799352662503197, -0.019667597539275022, 0.07650955182469008, 0.08575511542951283, -0.02931678349238269, -0.02235700890750089, 0.029912884976483867, 0.08507969289146144, -0.0818551477192901, -0.05765596576562775, -0.0420557254471051, -0.03149715187656847, -0.06071129968193472, 0.04289613283131449, 0.017947406947564762, 0.003305455339890198], [-0.09232706923050893, 0.021206173646672516, 0.06830144082102604, 0.09491357344902868, -0.006762191763270239, -0.09021501809141141, 0.01626544387621101, -0.03253841557902144, 0.04865521160509406, 0.02051984988234097, -0.03764363646248592, 0.0881992307378586, 0.005159231751591831, -0.06294724572869562, 0.009589200706073636, -0.05027945967413905, 0.03797130096218099, 0.044648288248996, -0.01962742643082134, 0.026983393726477123, 0.06997933429779912, 0.07313376514359415, -0.08075734147166963, -0.014612886957396681, 0.016307085471601312, -0.032628440186976956, -0.01917761268119675, -0.0014269235665327756, 0.04382167715317373, 0.058022909177555426, -0.040369690373599436, -0.09720146383942425, -0.0018302535620765975, -0.09025778283245048, 0.07353415169226546, -0.08826085178492415, 0.000987288317333787, -0.05229168207522464, -0.04370409815643775, -0.06492919125925017, -0.024388505350316933, -0.08526403736062843, -0.09384911174619762, 0.06527812928955287, -0.03358746658469003, 0.04097126941338855, 0.05104411012990456, 0.033301726914750224, -0.005217976277255815, -0.061734307980603004], [-0.04624913692756279, -0.08330595284684364, 0.03287214640223646, 0.08636068446744657, -0.02138210964827622, -0.07621840077289044, 0.0625974252081698, 0.05401307710635442, 0.007826154882328254, 0.09529785517634368, -0.005432773339143826, 0.04993509992391851, -0.004809911224708446, -0.07397564515985833, -0.004073762903252565, 0.05851102966803762, -0.012777117852079092, -0.016107005518329998, 0.08547973366070177, 0.0702209549178279, -0.015651470647028015, 0.0817316291000286, -0.00974859795103658, -0.011158705655816309, 0.027205040888930776, -0.041037940109697794, 0.08446584836754964, -0.003385686074899391, -0.0035248069034474333, 0.0510061308859725, 0.01593009415069302, -0.03685767081586215, -0.0989083685999068, -0.05327618287506746, 0.04683948588462941, 0.0818636082752566, 0.05902005683533365, -0.07435688473027911, -0.003085602057775347, -0.06097743239674611, -0.0643116354960537, 0.09176023283443716, 0.07925648056676024, -0.07475652070201884, -0.0971717907967745, -0.021309372439775293, -0.0165037080552944, 0.03863370301597813, -0.02221749727801478, 0.0038167135289823018], [0.08649178326932133, 0.013281726541154198, -0.009348329694899465, 0.026407572887929626, 0.07689672838658801, -0.07237628018434217, 0.013438082412742063, 0.06256058583411035, 0.037504689021220484, 0.016238176651849873, -0.005638610531420865, 0.06546072726517262, 0.06865478955359607, -0.06321787760626438, 0.0013392535610596643, -0.05118684963190401, 0.046088356937438554, -0.05577895722772023, 0.08953947708636985, -0.03511491933390431, -0.08113286062744583, 0.034406982830356266, -0.06883138010792274, 0.04814447953845564, 0.012650090056881839, -0.02857845933415252, 0.08438105615789193, 0.09500450986348592, 0.08533678228383978, -0.07913635801820108, -0.09302550046001465, -0.018301885062883792, -0.03721966754267349, -0.08614128910084203, -0.038184131666469175, -0.07690291043839909, 0.08838143581052042, 0.09887795340399835, 0.045020631990789, -0.0550563076866936, 0.03617862957577919, -0.0690763947632622, 0.03843019384601963, -0.028837976966249866, 0.06926911640478892, 0.07072432971646546, -0.06531334022140554, -0.0059749187279505836, 0.0602239024097971, 0.05353874935460019], [-0.0012781578732605423, 0.007097688106077298, 0.03987103199020781, 0.05784967121161767, 0.007548167284868837, -0.0003107300453372138, -0.03393648781212118, 0.09471965033038918, 0.06791530864144144, 0.09285582151771946, -0.012283384155050673, -0.03361513652661415, -0.020007806103533282, 0.02035397212571179, -0.03421873162690107, -0.024635367711899333, 0.08731351676024415, 0.06523114990071256, 0.041054510512468466, 0.054253433654548475, 0.03189702508909862, -0.048159492108606684, -0.023219737421413613, 0.021895359578083702, -0.0030587552060922485, 0.04532604788345099, -0.0722410747512065, -0.06908511202574191, -0.0694530490596239, 0.0014612957321062515, -0.0884242944159388, -0.008375856621463755, -0.047883242166646765, 0.08828093390265034, 0.09074107014386852, 0.02505655524210579, 0.00893354791303569, -0.06900790025641564, 0.051305549852750855, -0.010776243225193698, -0.07927551939202372, 0.07305674212320235, 0.07996845083327807, -0.07876149960512298, 0.07269839754369194, -0.01762370969700441, 0.01175512185321598, 0.07602222175485811, 0.09098545466784404, -0.09700444468584124], [-0.0936126847555068, 0.018017225536514202, -0.046604682129787085, -0.09144249385828335, 0.03272346482902334, 0.07192842407299228, -0.030769627606538844, 0.06899799785468268, -0.05790615850385519, -0.07507250471231738, 0.023559376497223505, 0.07872412886791864, -0.03756052572972331, 0.0645131302728344, -0.059576402434097606, -0.08439199036179261, 0.0703428753973139, -0.04332426545280481, -0.020104995827837927, 0.09366558692879712, -0.012940944144310941, 0.04435235109436759, 0.05197751672099626, -0.05305127345410585, 0.03724120937469019, 0.08397145881831466, -0.08878300805660713, -0.022525908278732687, -0.05890939637884926, 0.07092950920049745, 0.07432795199118163, 0.10480349816135184, -0.09029972533551564, -0.05190923644508012, -0.0376381476114509, 0.014706372882015685, 0.0717794276488383, -0.06791441304532764, 0.08150035547437325, -0.04425824857737842, 0.023635966716569732, 0.026391361849905634, -0.08018908983269374, 0.09046505452966595, -0.07307806332012298, -0.060326928638251474, 0.07278149783624317, 0.01613548168145207, -0.09612937866558742, -0.0759977645990943], [0.008361391971044376, 0.05825160436171434, -0.093296397711896, -0.07924583936513939, 0.02120804693395428, 0.03995140582172465, 0.0927939238318174, -0.048702622587568294, 0.041489125818101234, 0.07779536694930748, 0.028933005037503845, -0.10313546476051039, -0.006300952101216791, -0.05001903424248894, -0.021076823179114895, -0.07821058295089753, -0.07992280846154713, -0.07924402490129452, 0.050602551839100424, 0.024584009520208273, -0.06293181137225198, 0.043642132712769816, 0.04183484993303885, 0.06452178229547291, 0.05803763181743587, 0.025390324989712883, -0.030334170786743213, -0.07411196554944373, 0.06888826055075997, 0.09534394543780444, 0.04187185902977553, -0.06113857259683034, 0.004179662850170359, -0.09646742518988566, -0.004434180457535275, 0.06464989056602397, -0.04453347087313012, 0.01930594650448219, -0.03631198239248568, 0.04642938026373722, 0.003286917031332734, 0.05822946761125071, -0.07281990817590096, 0.0850615991519078, 0.008354759030879958, -0.013245570189471654, -0.08567608682109343, 0.013766139044354447, 0.06268657943520058, 0.030106232478932106], [-0.10780109766996428, 0.08025874222293504, -0.05954943131718612, 0.07556986379299555, 0.06007167436662711, -0.06137716928343984, -0.08661137427061254, 0.04333948388968304, 0.013813147670499215, -1.0595731461091857e-06, -0.09735224574333375, 0.048207698382877265, -0.08571617586994491, -0.12002598801157019, 0.02686473003430616, 0.0532576224140491, -0.09696413524690248, -0.06249274452673935, -0.027294224751157267, -0.06896673031605238, -0.10643299938609486, 0.08878089158597328, 0.07667682535046791, -0.028540209547520297, 0.08591981250460336, -0.11459323199053387, 0.01259174487401128, 0.019271951966143834, 0.025585683418690393, -0.021749414335779402, 0.03722629644397705, -0.04109314062298179, 0.09224485335457451, -0.07838223702485714, -0.04400310939383366, 0.08224906529012024, -0.03604715991912974, -0.10130248628882435, -0.09643362135281142, 0.07010780166307136, 0.0838009976875607, -0.087515092264844, -0.02111264133790256, 0.011077900748673293, -0.018010253783308554, 0.08959229958923785, 0.019827506002591054, -0.09849805199510882, 0.02438114886120487, -0.04928738515462913], [-0.11827266683300897, 0.0818111154965666, 0.029656791639199535, 0.056718436722712436, 0.021693424775651882, 0.04338579175033129, 0.0627109331130687, -0.001180146833457052, 0.016505652367533197, 0.08211156054833989, 0.09476689573961593, -0.07943683192528918, 0.06734647409620327, -0.16424215633263525, 0.0437817541652486, 0.05860915457768135, -0.01905994805428933, 0.018540969017983036, -0.004706502735280075, 0.002357704612277273, 0.05523586912083593, -0.05234838637109668, -0.009502554370383555, -0.0343799806287161, 0.09575664302787268, 0.007334295695282098, -0.02406688786694047, -0.0392998257115294, -0.08584918519339273, -0.0050101188258457035, 0.01724947793014577, 0.08964545528913945, -0.03029304757160853, -0.003313575991618873, -0.007638613908417963, -0.03365495928665453, -0.08076165231390953, -0.042737636167872614, -0.07990108406986626, -0.01935992886909408, -0.041260416798175964, 0.11997211227433417, 0.03932351106883418, -0.0018229602968045954, -0.06965343323185501, 0.1450299332129508, -0.06188824568577999, 0.03823300414938951, -0.003244918644413973, 0.05392527643307556], [-0.1538453295146558, -0.018373773656854372, 0.08518371250906737, -0.07922205613374096, 0.025392953445053445, 0.0332666722600715, -0.09635516803638225, 0.0579407575982393, -0.07583522175079298, 0.02383775523535769, -0.03168148150655977, -0.017465291257641267, -0.015010712479270471, -0.007407588385224295, 0.02604438901109299, -0.09234529242614346, 0.11596526863071419, 0.019597162919123508, -0.04216367501505936, -0.09212748432791969, 0.0817699544432073, 0.02702668622767254, 0.0629180444494963, -0.0026664248454764724, 0.052930839121234766, -0.013032920043379437, 0.05060595184106903, -0.019240482652714632, 0.06104989319958215, -0.07645597766319924, 0.16384400190940027, -0.05181088998469637, 0.060793632940242474, 0.012306742786818438, -0.04597455360227888, 0.0081742193702133, -0.08223155869610797, -0.0567748529558461, -0.04069453035031156, -0.024119023260504302, -0.017335615620722222, 0.042367222622077524, 0.06363288553596022, 0.04979795617970044, -0.027221486187580808, 0.03152526404545361, 0.012256865490775605, 0.05007840529987998, 0.014834069867269203, 0.051933237905460714], [0.01063015893947999, -0.021172207072181533, 0.0541993085517082, 0.06417379712151892, 0.0722306734689209, -0.05134946569322812, 0.04760162083987127, 0.0977641110979554, -0.04839960956399042, 0.03073571192186864, -0.019453376505873175, -0.04578766770222247, -0.06600146823392654, -0.018768161070708694, 0.03263764343677439, -0.06979931958527215, -0.10134739273261105, 0.01299711460193222, -0.06729636931014954, 0.01880245630600238, 0.09722064150644541, 0.041625112447372645, 0.04181788300887227, 0.010963665269825855, 0.027863419258582996, -0.136666188162006, 0.022376378231967402, 0.027790995381409736, 0.02207401986812074, -0.07734968151084799, 0.003146391890037906, 0.08654003466930998, -0.0476694674512743, 0.008281891381956343, 0.04681307944463659, 0.04733219084891108, -0.04861008636691426, 0.02811143201288503, -0.09277865238036595, -0.04202907964159182, 0.04289490312249916, -0.009754885665439288, -0.03473606104079093, -0.007345041306321194, -0.05090874471443157, -0.09341485270997933, -0.09806622996026092, 0.02129255750330366, -0.005546322888591938, -0.016033904123235396], [0.03139255425470112, 0.03022528299941015, -0.03513406681065985, -0.09248613132092313, -0.041346710149613684, 0.09064120948460519, 0.09605435474569035, -0.09753093247905797, 0.036088046166176474, -0.04469762971720944, 0.062846796340906, 0.027308850669793355, 0.004716504903630097, 0.05043298998493067, 0.07525252317906558, -0.005417501546558958, -0.09884543312750305, 0.0640607933231001, -0.03215658907612517, -0.08011381032285773, -0.028672156950787196, 0.04583497928580162, 0.04095962448296872, -0.06819933665853445, 0.04440302883468882, -0.045460705056109725, 0.06503720470571446, 0.0013778689462180433, 0.043176796425106544, -0.07179153301036614, -0.037227453635482396, -0.00045587766988933783, 0.08695352904505214, 0.07966338089976661, 0.08008836587137441, 0.0207548384248211, 0.060023518395945094, 0.05423549489684924, -0.07273563916502244, -0.09392436967587464, -0.06018278928222554, 0.03757399108567132, 0.017659906690293277, -0.09468965778319346, 0.06517212546389375, -0.07130416387147365, -0.10989090660209919, -0.06352350170586295, -0.050751264076063674, -0.07370480080076634], [0.0010129538079457748, 0.08451320782312223, 0.004072111361395622, -0.08817847058384702, 0.053580614964670856, 0.09579500025904306, -0.013657115151665022, -0.09804711856176893, -0.011965540187907464, 0.07569389641575533, -0.09527936909910782, -0.03347581781126417, 0.039642480332213334, -0.12841846907640017, 0.048055810653661546, -0.02193834340716291, -0.07257527857111518, 0.06795774843745049, -0.04573045927722727, 0.09552344874507752, -0.04625485732420838, 0.09529915476355873, 0.09707831287884751, -0.07239009428500921, -0.0424465908035199, -0.08289713320886799, -0.03091016313646641, -0.042722951867913264, 0.08154503265878658, -0.07545961518409393, -0.009865343911599747, 0.012142047895645273, 0.08374091827462417, 0.05147691106743045, -0.05121832262405684, 0.05010747322545483, 0.03731374290996644, -0.0725568132427428, -0.11344224011020893, 0.0245329579699473, -0.05367994779135842, -0.02048826024252107, -0.07132546352444533, 0.07853463169680346, -0.09039073201392546, 0.07948387215854007, 0.0025774215517601444, 0.07841189327151585, 0.03563362791253829, 0.03165901177543592], [0.0013326914850770877, 0.02867612901449799, 0.03828819154562914, -0.0686602695025429, -0.03530067395580628, -0.09933252354897922, 0.04020937056594343, 0.038365806010877426, -0.010543832844303753, 0.08358731903260959, -0.06268681770097369, -0.06346285098075415, -0.09369686846273985, 0.007813436966938439, -0.08553893659726161, 0.011209322321768642, -0.05363566282676341, 0.009668416052097225, 0.03279183703972728, -0.03627736151596341, -0.08271672748083776, 0.03537737470303969, -0.010361977964490836, -0.03914761873513258, -0.0056691933113288346, 0.057554037253247904, 0.0037496722208518792, 0.013730296635891518, 0.01940368135171986, 0.062015982938383285, 0.017319286380465655, 0.0052852220568636, -0.028065095025979474, 0.027209953120558898, -0.013075557187351492, -0.021588244910499894, -0.09593080094968803, 0.09443866124334499, 0.009046330404234703, 0.07936757325467286, 0.09349099287322436, 0.030112140356258785, 0.0340374946129941, 0.12225453442139576, -0.061531939848962706, 0.07730250965159122, 0.07730533865387744, 0.06816471217374857, -0.013831854214235747, 0.06945683272057479], [0.004184948859471698, 0.04209848633165944, 0.06055457586998558, -0.0025093738334336087, -0.02261649375020113, -0.07830362095011369, 0.06969796242044829, -0.056663521854620896, -0.03288823940858983, -0.08323202924588012, -0.07366194625251982, -0.09738164762032267, -0.037917293617219607, -0.05111354874451596, 0.04236623789414348, -0.008812497643294259, -0.04712871769635338, 0.09289199832878679, -0.07167316708421458, 0.050502903399437644, -0.0939052641116453, -0.07208667843124188, -0.09829993024737914, 0.0403266931250688, -0.0010248536326069168, 0.04557840953839998, 0.05633132166679547, -0.04388106406032558, -0.009730455359854008, -0.04338558473274127, 0.08072257514703907, -0.04814684038126808, -0.002321859510857231, 0.012625759821030954, 0.05033213122968034, -0.04557479070037786, -0.034424582455448716, 0.08901537519622957, 0.060392014334835195, -0.06311954883921628, -0.03832832355348136, -0.00718500116197114, -0.07995990855855607, 0.06927622799271599, -0.04511422766389663, 0.009590280174779767, -0.0062401782207887994, -0.06464871632343107, 0.05784784122554061, 0.019825090263248978], [-0.09265259776354992, -0.06135848638622401, -0.039957798662291474, -0.06815131811452584, -0.058920710724281095, 0.05826381263725401, 0.07447967438132752, 0.0006718752218963778, -0.045131787284424525, -0.06730167978714381, -0.06254446957395339, -0.03848932120194278, 0.010952672156993642, -0.03390275694964627, 0.01734003292668325, 0.09948627778202261, 0.046833682201667566, -0.046489578082518045, -0.029157928676480333, -0.018965190273315058, -0.04090179982252129, -0.06044919930543712, 0.012876500742415004, -0.06177393406517904, -0.08964731006929107, 0.08448706919217196, -0.05617241809750858, 0.0486269615168664, -0.027372384280947317, -0.005636617767787631, -0.008178358325253926, -0.01810528562705275, -0.03132643128592354, -0.05362715378702464, 0.034236087259418166, -0.0680519244058509, -0.02269468525654281, -0.034813831203544914, -0.10516865864339958, -0.01718275591028442, -0.006696872611721589, 0.013886840864699072, 0.08214999787041413, 0.03490902339501695, -0.09400254873525857, 0.09620149946617841, 0.013981292467923337, 0.09677243422042568, 0.08444907282699605, -0.05348882414703919], [0.001722012579485746, 0.015030622870572927, -0.09815587290715533, -0.04284337706380954, -0.07712158200429056, -0.09772804245750544, -0.0571821053822305, 0.06382869137436259, -0.04928374234266533, -0.07489901709206666, -0.02572313676609031, 0.084789054395434, -0.05664208547984269, 0.02216082204940531, 0.044228233020203456, -0.0008661389295253619, 0.09742425248402073, -0.08646394560658727, -0.052239057167922834, 0.0296282347908797, 0.03020226763123593, 0.036185660256771335, 0.035046274440860115, 0.042105209751657546, -0.06957432994318076, 0.038537130713757695, 0.049679857270223726, 0.01783076585276984, -0.08032087574923, 0.05936258646487158, 0.04607290462642444, -0.019896887397213556, -0.02431610581189428, -0.005856203667365029, -0.0537707959420948, 0.029637016909582314, 0.010953716238077019, -0.059996843507465814, 0.08184989172698981, 0.03804217743780383, 0.05078246730166874, 0.05553392446086103, 0.03350717672113665, 0.008395817447625076, -0.02329645647936769, 0.0141116999678524, 0.027452685257209564, 0.05887491106208739, 0.0036662306159397084, -0.05239915570935865], [-0.022692800992005144, -0.05367361481046722, -0.05055992985776972, 0.06818301037238206, 0.0042926392696294585, 0.07858071171102995, -0.009513013301578721, 0.09329061281704817, -0.04093026969520408, -0.08807410301341262, 0.05873930019231441, 0.050795389789464296, -0.07958475062386867, -0.060938238532277735, 0.03177131457682858, -0.08154759738807667, 0.03779911341633138, 0.018067144031355814, -0.06460265385432454, 0.07783098182419376, -0.06414487195906621, 0.0342495416195282, 0.0792798713978792, 0.02819543731543367, -0.07531648384955691, -0.08337010945009733, -0.07767821020242138, 0.03849342246624679, 0.06519104844282439, -0.08938970834956193, -0.05537261160900911, -0.07612124169377382, -0.06271683853830312, -0.09513545090057605, -0.006719430505585849, -0.09278442084738865, -0.07017858976277543, -0.06228836190498104, 0.05531091833178778, 0.08978351917413593, -0.032267140127601124, -0.09398967392240459, -0.08853935384566339, -0.04191145276526283, 0.07692495853203782, -0.09728597414361224, -0.09669118517040627, 0.0543818900397072, -0.06464692144509745, -0.02143534581646042], [0.0362487378553516, 0.07201035753796542, -0.06498154664508929, -0.07542196687092739, -0.05146428803433714, -0.02266254401396857, -0.09940925956430434, -0.0017689280667800844, 0.05031347403008987, 0.022425405509263238, -0.0899789764537734, 0.08841940946393287, 0.008035245727952778, 0.04319277838893465, -0.05589630747335153, 0.08605250062532496, -0.0650808815229433, -0.0241055030944044, 0.018199047193867293, 0.07612247262126445, -0.042859714794182296, 0.057054755567045146, -0.0995658750581082, 0.026660295337825823, -0.09055436969126729, -0.09860900445275018, 0.019683669574187837, -0.05088866430444608, 0.04849850776222725, -0.011146028853768142, -0.03891331776574909, -0.02177803198216935, -0.06837673196353752, 0.058588291267471504, 0.020404411007898, -0.09270283327479811, 0.04786436965200114, 0.031367752886172384, 0.05750617400805197, -0.09104292278453965, -0.0010788648553647917, 0.04358035997420484, 0.006378015317731342, 0.05169682657384919, 0.0594636633095543, -0.027868869077052355, 0.033405588595188995, 0.08701608806186867, 0.04798256295411679, -0.09601991384699904], [-0.06132622112459756, -0.045680473677913835, 0.08372716706051633, -0.04914814243320867, -0.03225885388288574, 0.033946410002296534, 0.07119060681445083, -0.058877832804442365, -0.02498074961158145, 0.022021168864015256, -0.00443166664938395, 0.011158618345735324, -0.017759503474347446, 0.05633827848135581, -0.046261913591699136, 0.053592085926723154, 0.0804863763493642, 0.09310849612918337, -0.0023695517640977687, 0.04692690156426421, -0.07460585374726823, -0.03828256414420579, 0.059683822265475917, 0.07116838376249693, -0.01533289154648447, 0.013633866456033955, 0.09095332425258368, -0.05408251877629122, 0.07649303655483852, 0.059718704013179164, -0.06087848060063357, 0.0338461441017443, 0.01466333953199997, -0.0036546407538316783, -0.04673480689573446, 0.05139121074269881, 0.08216385367838006, -0.0620536084739634, -0.06612557771310346, 0.08741127539084662, 0.058038998231303346, 0.008801218963828128, -0.07318936737414383, 0.09155734009168912, -0.028342458029446016, -0.09066677420900791, -0.06307134765962537, 0.043190205970704276, 0.07414803287369903, 0.051964741560682426], [-0.06887470243585632, 0.028406793938508174, -0.0003372055387461659, -0.08109518106404463, -0.06070572249545878, 0.06319092691706527, -0.07837917336961803, -0.0006501956630399486, -0.005215102809891195, -0.01304340324746664, 0.06525914654517967, 0.04672133649169982, 0.04086070863631455, 0.052305367667767444, 0.09470787218078636, 0.008629443043885063, 0.09175484684202881, -0.027497567506595932, 0.06707790299516217, -0.08983571866357941, -0.0422414443521731, 0.015889333648772944, 0.04695297964958539, -0.014375967110903498, -0.03660962315725845, -0.08811024126526693, -0.08665994038800587, 0.09866020929655545, 0.02968796427339443, -0.061666760901983114, 0.03764968593908602, 0.09835910122065394, -0.060158219396129226, 0.035363636360701445, -0.08441983578124349, -0.06046911562755719, 0.029427608003702477, 0.024888542237352568, -0.07934384376099379, -0.02950654366567254, -0.0073872267138298114, -0.08992422667002016, 0.08693649715663307, -0.002654417600595732, 0.032290240090313976, -0.03781373121929277, -0.03688788814128721, -0.06745971103317656, 0.022466889761426523, 0.04980492782974383], [0.01544369910090082, -0.0650168833673735, -0.027660049999060382, 0.012129067594755516, 0.013009899760757879, -0.00024216896802424503, -0.01902345056677683, -0.008904849647474664, 0.014289542439004682, 0.013488805629380568, -0.013354806982416603, 0.047850159197997094, 0.05879887656771454, -0.01684727104968828, 0.08097485763344323, 0.09134128926725471, 0.030478648828969224, 0.0767124436534177, -0.031788359754129705, -0.01096114015364584, -0.045054038060310414, 0.022952030315974634, -0.07909760266659827, 0.021976905866833027, -0.002719864763121402, -0.017229684552722807, 0.0965318239563129, -0.023233590170906135, 0.06929372309151088, 0.04386935262079242, -0.05943342306163357, 0.04033734214321591, -0.06562639694391131, 0.011065645779877342, -0.04300364554334704, -0.05873923806359669, -0.08328722389101549, -0.012666597160496035, -0.09637728172756176, -0.07378537825518804, -0.0038672259788286867, -0.07712059561426379, 0.029387320821311402, -0.05268602708037016, 0.006859220586295289, -0.07198683458236602, -0.023672705915826195, -0.04453227890467331, 0.027959021239764625, 0.005630145399102379], [0.08764648023513913, 0.04048187750445334, -0.09429706005034791, -0.002528662901454079, 0.04421652273972135, 0.047677093936310616, -0.011460837973331417, -0.06961590632073873, 0.08948494616532213, -0.09270666763952207, 0.03853139805711148, -0.022645835137885845, 0.035500353326698264, -0.08927941750366636, -0.011154746163640789, -0.09186477216470729, -0.004787680788512216, -0.05546998849939815, 0.08551310555503175, 0.08562409042146654, 0.05384230530862452, -0.0017337213575268767, 0.01510897627245289, -0.08594330953208183, -0.07371109677740117, 0.038744806793418074, -0.061072513921129626, -0.030047114052477827, 0.09160312610384067, -0.010977873041715824, -0.03546853430672685, -0.02133079214011921, -0.091731746514441, 0.07492844733556331, -0.011687988586586734, -0.017761239668786108, 0.048696469646242, 0.0630382698539236, -0.055346081628194835, 0.08073658287754135, -0.0098221103249857, -0.017761723230026005, -0.030233937840199884, -0.017856753710285236, 0.04325941909994896, 0.00735575150405883, 0.003356363200314877, 0.048710912039940796, -0.02166982330525155, 0.060161686141540355], [-0.034698775607646434, 0.05183975527848805, -0.04851119365011698, 0.08127868820640347, 0.026722553604346305, 0.02797224292767278, 0.011069085748170143, -0.004391599607558791, -0.09268943749046549, 0.042798761078712444, -0.022011259832824925, 0.043467513713388334, -0.0810566797519196, -0.09021949293955758, 0.09860520358269373, -0.020102786627019545, -0.003315835830748265, -0.07255538608323098, 0.09803466536027103, 0.0430234950320601, 0.0014136473493693708, 0.0008370419525998568, -0.010745932527681523, -0.05103282168481034, -0.06475227263010197, 0.003110169821439676, 0.09795427666353046, -0.012185584428687668, -0.01547910791160842, -0.06672169654766165, 0.09865058874876642, -0.03278986957025974, 0.0252178900215842, 0.09242593359993548, -0.032653359624444864, -0.012292542191188999, -0.04062243470506364, -0.0632475747167961, 0.06714966978736814, 0.05223872856904507, 0.0064365787770979815, 0.0770814361232651, -0.056646775209031386, -0.057095277255580945, -0.09228211714802584, 0.027896210769228436, 0.07267510748806585, -0.009880844012185835, -0.030937032778721466, 0.028097505034837156], [0.09741453022595112, 0.07044335650539554, 0.04066361834572868, -0.013814245553706847, -0.05945798722739193, -0.03765073221897311, 0.06629807537099894, -0.06890206922028635, -0.04413869124622907, 0.01254056013058133, 0.03969288289538203, -0.014673214268370788, 0.025881591474184895, -0.012733622089947591, 0.09800673161231183, 0.06729080125712825, -0.09012694087205697, 0.0017198664102304473, -0.035938995032231344, -0.0795770685739442, -0.0035175417026860056, -0.017082567141527977, -0.007937560126355797, -0.004629339589614062, 0.08914776235984764, -0.02664004492040313, -0.060020348326213974, 0.046998337380276006, -0.03434652977387023, 0.07109584266424815, 0.032513898912384764, -0.09662416219949027, -0.07850960645674182, 0.06367007948571499, -0.040326987907803584, -0.06898592059608562, -0.06773542317290393, 0.0029334425325088925, 0.09337991467729453, 0.09314974395909034, -0.07792809575773128, -0.07657163173682152, -0.03799325971145409, 0.06126393045131254, 0.08130801166989113, 0.03571486490765055, -0.029144672483517306, 0.027822636268268364, -0.0828296973497617, 0.09044178713246306], [-0.019909802222399353, 0.05658582656511249, 0.06077050038572879, 0.07147660395368657, 0.08974856371171422, 0.06017683241485794, 0.02821729468454448, 0.042189527631481705, 0.05351792364159677, -0.030379521238039803, -0.0015859639492313005, -0.06451490004533708, -0.04178498632379271, -0.03324954103917331, -0.035249239574506167, -0.04625399618470223, 0.07136212485568141, -0.025241142806646605, -0.0785696135229837, 0.05585290520578029, -0.09678805591006466, -0.09331641536679475, 0.096013707517246, -0.0413145600688267, 0.0005984182280929506, -0.050891147562761765, -0.06141686215664315, -0.006911532965877834, -0.08428611778558968, -0.08883541971348352, -0.019020818809316387, 0.0769160120785026, -0.06957502061361187, 0.0700466745842154, 0.011695066762565293, -0.02921642507655818, 0.04034251259940502, 0.03521091093360004, -0.07089641783374108, 0.027211337627615906, -0.02968565310823694, -0.05554624339459444, -0.014783408472676424, 0.018168440261192173, -0.06299873305132705, 0.07616019990177411, 0.00891679443372255, -0.05750400415675164, 0.008382770410590365, 0.08885991868389403], [-0.03438513729086966, 0.0051322732977333585, 0.05326286983050063, 0.07685126897626371, 0.0925590730564314, 0.09702420201492115, -0.02241996436204438, -0.0523408921465119, -0.06798257231238121, 0.04686676494076231, 0.000142092354185136, -0.08449239835365381, -0.04114996835456966, 0.06444617197805144, 0.05789845585836881, -0.05214114511434986, 0.06525979696819098, -0.07591958805872678, 0.03230156282950286, -0.05215300119786484, 0.05093547680863261, 0.042303074933346674, -0.06284820290455026, 0.019392575764898348, 0.06293466327880262, -0.029329694431497952, 0.006722769970507109, 0.0352570801106524, 0.09815042996807133, 0.010812532308509912, -0.03738809924409621, -0.0452959348919489, -0.05552053811977014, -0.015937509567548608, 0.01912118369779381, 0.042691001702018616, 0.03970122347515753, -0.06830623490527754, 0.06854417127345447, -0.08221167580798208, -0.01897630086221827, -0.026280585787316582, 0.0005675493651036145, 0.028131984965382467, 0.0689551333207582, -0.041709803281186564, 0.08724773209050393, 0.03466768082556618, -0.018917141580215666, -0.021998510308328445], [-0.008347682858040703, -0.0849846307021685, -0.09204720468862145, 0.09605402742386554, -0.03267055838854978, 0.09648726497974461, 0.05337352442024493, 0.085788545534387, 0.07454707703209767, 0.022625016572083906, 0.02194918221857138, 0.04273251300782216, -0.03909430007262904, 0.08108545745140724, -0.08382384947942373, -0.030439747675730197, 0.0184533320367138, 0.028171563199837324, 0.04095112002568305, 0.00392064233736826, 0.006989478607948518, 0.0017216451308994518, 0.0185522199836734, -0.04960330534708333, -0.07169971400599764, -0.030318966949879567, -0.002875253112716039, 0.059436100029019084, -0.017572888549188287, 0.0688252545609693, 0.07945353082884576, 0.033604826010289024, 0.03254220128789215, -0.0907697593894459, 0.09214969130871623, -0.05641636204796572, 0.007268730576886512, -0.022979777496766343, -0.026931010201909064, 0.08662183136061313, 0.0577513513807045, -0.01545094706429602, -0.09436136670291834, 0.08138487839265357, 9.561471099653329e-05, 0.07764105949081052, 0.05935798202681594, -0.0987208604285568, 0.02588509766465713, 0.05589461680701413], [0.07333406784534134, 0.06337482780879111, 0.015761482842516192, -0.001104750124857387, 0.06806782460348636, 0.04623917585069801, 0.056064547381466094, 0.0837349360153482, 0.04708518506205643, -0.08934527892271267, 0.06147026514540412, -0.05587938761826702, 0.07274278914697238, -0.09260499210145931, 0.10123824320958143, 0.022572984363700043, 0.0018638840107300127, -0.0632156638311587, -0.06864448521644424, -0.08174342726962099, 0.026403369985352677, -0.02158877231368103, 0.049869098970960195, -0.0013849440732625223, 0.02056720015588277, 0.05723234027736433, -0.0711114270956847, -0.04617768893428948, -0.06125049618915854, -0.0706571848041831, -0.05796256199656716, 0.0036381892998061955, -0.018066708187234996, -0.005875050423915996, 0.019615204142083145, 0.04565778108295763, -0.02274898187963811, 0.0881512800387185, -0.0633678299031151, -0.07151932875066766, 0.06509640853088432, 0.05323316595861837, -0.026713314987496427, -0.0749270183393331, 0.0430370826211517, -0.069211109225771, 0.08974335183639259, -0.049756471497378774, -0.04349440877135492, 0.015301898201174849], [-0.08619875769971144, -0.05574205337234019, 0.050966276766464196, -0.10076261566653523, 0.005114829474769844, 0.049514353622830645, -0.0861142361312496, 0.0006926525916529244, -0.06074061825937398, -0.07306803625008496, 0.08930825753139063, -0.007897805076272022, -0.0020995697317237215, 0.006094781697067574, -0.03439126865234276, 0.0434986647739761, -0.018224822426037686, 0.05769909485791629, 0.09353287703838249, 0.04605599237384129, 0.08941877299304467, 0.09163515478282942, -0.07689611007278968, -0.011349557641411824, -0.00992732353968635, -0.03622572215629464, -0.027671183517182656, 0.024574200605541958, -0.05820455620393563, -0.05038323958896046, -0.013151671500549102, -0.07992200286972546, -0.024407297817096794, -0.06509563085302839, -0.008348678019605562, -0.038890347558082156, -0.05262618445249112, 0.0739446628784065, -0.03949265845235989, 0.07503648288200924, -0.013943057772703065, 0.028363422021326835, 0.0511246953926353, -0.06299017994814429, 0.04507991335874809, 0.06291905090062515, 0.05671526026184068, 0.005032392387111212, 0.0018156284242374077, 0.06127625488861099], [-0.10560825034517228, -0.07661415391494268, -0.04558431163028535, 0.0012634991901232097, -0.0755595490139835, -0.02647725534395212, 0.0779897379779498, -0.0060273509740939426, -0.0704131426324456, -0.07137983574294067, -0.010589172822241361, 0.07718383155616473, 0.012365854960835615, 0.09531203755249383, 0.10638332265966356, 0.06504712318742356, -0.023536223217943922, -0.07896568578187795, -0.06234507856794498, 0.017742461986586935, 0.07915835846538738, -0.012005415294975515, -0.087974136762236, 0.04131791863264587, -0.0037235724278619443, 0.06964712855318007, 0.00751264274111732, -0.09648394789517521, 0.042833198180042754, 0.09116067953051665, 0.04168552988153504, -0.10168045235029499, 0.08219362830304845, 0.027172826377737186, 0.08366092736621825, 0.08608109974512676, -0.06683288104177139, 0.004806500934650632, -0.014766575624899289, -0.04639986257817922, -0.02607488369077618, -0.10666415795419326, 0.026437186265162105, -0.1019163130554159, -0.0008146539715793253, 0.019624117383971247, 0.06203434061440405, 0.09478172505029284, -0.026342252893711435, 0.024852956994512638], [-0.20466843481807998, 0.028169053450496494, -0.0369939440750675, 0.03455052084996471, -0.09477900659001043, 0.04476912401290679, -0.06571876863969521, -0.031572385001635124, 0.09320734707809475, 0.07906721165470391, -0.02261981709419655, -0.043783302046413106, 0.029635252541685038, -0.11319558036730701, 0.05403558063704788, 0.0029801741845582683, -0.04030735948638928, 0.09097488358101011, 0.09198253884423148, 0.01851299837055682, 0.020477450836826866, -0.043646574149325955, 0.09689357830590521, 0.04921102674072638, -0.038628575493335225, -0.11346084043373161, 0.08639868015520642, -0.07420746427670961, -0.03224777855482965, -0.0003293876040929938, 0.19997439228758604, -0.07282905909516749, -0.005051540275930564, -0.029636642036667427, -0.029182359978918476, -0.07967665535645524, -0.006549284914950107, -0.08923672329161524, 0.07096076263134496, -0.057995947123967606, -0.060810695602385514, 0.08539095463096165, -0.03437537544580505, 0.09551985021967972, 0.0648575985443033, -0.0729504344065907, -0.019983946125234006, 0.0781512628269569, 0.06779724471233692, -0.07462476891467691], [-0.18945344507018314, -0.03479147785410367, -0.10014962349255811, -0.09586999432946561, 0.010992186343032975, 0.09443307480550753, 0.0064534594794276685, 0.013707605565006368, 0.07459264450464034, 0.07677563860261577, -0.012281158217019692, -0.07856519726596996, 0.04280262084619071, -0.09925653123811852, -0.07270347104909203, -0.08443534707071598, 0.0701876749954143, 0.05326042008067255, 0.023127651553660897, 0.028392362616317307, 0.03504790649932026, -0.00564415589309908, 0.09306749613439447, -0.05357072640830673, -0.029997097185953107, -0.17091109679593447, 0.053220556064956175, 0.01121873015021151, -0.1095511586354086, -0.05872006049239134, 0.13591786179611237, 0.027065501427957547, -0.07915195832421364, 0.07629460661961557, 0.07702315891521008, 0.006787635408129662, 0.08792500769775576, -0.06662402840813249, -0.08117481581860554, -0.04056981947583608, -0.06388029768429314, -0.013177946483784094, -0.042348646204239296, 0.09299940768779617, 0.05553625912693967, 0.0813757550467702, -0.12669638430596333, -0.05137311399801087, -0.05208356817921397, 0.02924034242125359], [-0.48910609304045116, -0.05127291121079358, -0.08263133189702689, 0.07377389258316985, 0.07851817604060513, 0.06370333203554432, -0.043723440766940486, -0.0004540918805129659, -0.06827281724122523, -0.11309691631963925, 0.08216281807319134, -0.0934527872458927, -0.044088405274381764, -0.1786620163581606, 0.09960661008107058, 0.02311339070991511, 0.039313179579375204, -0.04502499566739151, 0.037369661687107286, -0.014244303436097009, -0.0377061745796659, -0.0887509584125612, -0.008295792902504586, 0.013232108808551449, -0.072051110874189, -0.11001669182690324, 0.08328594667944288, 0.007656369767955855, 0.027339713350822033, -0.0385206232405553, 0.28634404859675283, 0.028626303153783058, -0.10044204195866134, 0.14930244959321934, 0.017892076911927273, 0.00143628777351156, 0.009411995277268671, -0.07705782104727071, -0.06887161361923232, -0.028711992069809504, -0.09108260950496565, 0.08382804197668643, 0.046162707492343025, 0.005959944584898407, 0.01020798517107377, -0.015428972093565013, -0.08151990742389169, -0.07082417311237932, -0.06422391619687902, 0.01990752205644866], [-0.7346663762680955, 0.05344584383736533, -0.0319412518864061, 0.07118135312246619, -0.023686329699148034, 0.05845966045703009, -0.07657773287433614, -0.028455932372265975, -0.042764305493748336, 0.05298235505504767, 0.01636001423660242, 0.050821260594500456, -0.019156591053184405, -0.3173661644343441, 0.08326394832123962, -0.07931999462220385, 0.13250527501016826, 0.072048435449863, -0.09806007154093087, -0.07979559777235122, 0.03490784376584077, -0.03426954837700734, -0.030602971331913906, -0.10823316725815516, 0.03993229354154126, -0.13366599180310018, 0.01712584379225019, -0.08698491515358449, -0.07895923806919057, -0.003841988651652, 0.42736068621810014, 0.23378155711547116, -0.06842030429663004, 0.004831881182222823, -0.03457607864551967, -0.054418839124648274, -0.05898476848199486, -8.234784484525414e-05, -0.2958428573099455, 0.03724182880945758, -0.09122210576408617, 0.16639996992479045, 0.19029309398348082, 0.20998835004957644, 0.10535420869996587, 0.08582510399087172, -0.17279446173696833, -0.07864575536917479, 0.06560105728393159, 0.023721531125213736], [-0.9041579523550122, 0.0481583625124964, -0.10884148534001113, 0.01519803218692869, -0.08123606562880577, 0.045008690511060316, -0.04604023696983595, 0.04555468181260003, 0.0023663040124534264, -0.11715642776975335, 0.00995136910270964, -0.03299698074128245, -0.21436102169010735, -0.6239814419477858, 0.009192842026688396, -0.18267090827003232, -0.05820852269289069, -0.10844919469982986, -0.055891644064838326, -0.08979762609046099, -0.030225972949402786, -0.09599626728371882, -0.09607021887548083, -0.017192784509181432, -0.09736635969722199, -0.2690042042211855, -0.0651665892544787, -0.06634312625283259, -0.3130162402074803, 0.043530213710533956, 0.3012894720149101, 0.10977282088335924, 0.00982799039634724, -0.0782558452164087, 0.02428245638492041, 0.07347526448216421, -0.09590630635084113, -0.010349984134980303, -0.44821375781359435, 0.037864540707453945, 0.04843634816677008, 0.055556308178920905, 0.18046025571685317, 0.17501288321463784, 0.003840673793244161, 0.2008282029836808, -0.22730529468520907, -0.13014878790103535, -0.054310849248222236, 0.03278694632886621], [-0.87097950732933, -0.0851348772573957, -0.008649430368176262, 0.009968359721935403, 0.055331618711357874, 0.022249509921104322, 0.026357496590560713, -0.05968002815719731, 0.08122595910024591, -0.07404590695812616, 0.05501444223051849, 0.010831861778111709, -0.0386592897864145, -0.7716914474892921, 0.06976676241968002, -0.034314169021690155, -0.13940753429268002, 0.06415250164054816, 0.002746816258968999, 0.05149540778121974, -0.1257530383130731, 0.01412168301836963, 0.07150100121541471, -0.1419966991398605, 0.0016334493880563708, -0.07532959903380902, -0.1038952270473708, -0.08012997119092771, -0.12602670920510858, -0.07505312993800095, 0.28154396643175683, 0.019734833968187374, 0.034450311182603444, -0.17795337786211426, -0.045395184899018205, -0.001925201314762212, 0.02396650649938201, -0.0796375912813134, -0.3123440209515621, 0.018480907639006203, -0.034228090978532945, -0.0980382551123271, -0.10057216793127917, -0.13116702526062413, -0.179060039123659, -0.05675931821650806, 0.005916455431523702, -0.08503154593451613, -0.07077619178694786, -0.039385889253310574], [-1.451389146094533, 0.0531630476107321, 0.0333214357740928, 0.031122413328342025, -0.060437716039176026, -0.11689191874536484, -0.019004321873125833, -0.07178543564928437, -0.014554132949579314, -0.05469814683117587, -0.05264361083502219, -0.058788270434169794, 0.024242605995607687, -1.214483151743706, 0.012192787286512886, -0.13001911732159427, -0.17525612779533545, -0.031364859838641214, -0.05965627031376771, 0.025087655163082125, 0.06419295300032171, 0.07600570437101353, -0.060620798336006185, -0.15974970382288875, 0.08105928599026999, -0.07717035373389927, -0.20600569982305317, 0.007009704079202551, -0.16708967403497907, -0.02508758751457172, 0.17481604324445663, 0.013771064655688746, 0.038838944546112496, -0.09100657065209355, 0.07253286604875957, -0.017575946035320564, -0.1201450432992849, -0.07851132918117598, -0.6742954615534722, 0.05483040844358161, -0.03401768067633053, -0.021629291826105533, 0.07477240307423244, 0.03499018336215155, -0.15476195737986015, 0.03687731641177843, -0.002822126490763901, 0.06678396551076052, -0.08313756632207439, 0.03964855850660262], [-1.4307018512429293, -0.09809738756888978, 0.03816021553660032, -0.026856782078875926, 0.02533179417985337, -0.0191633264663418, 0.0862709860214521, 0.0050637990461378886, -0.11064568355228406, -0.009387441429786897, -0.09783186144478767, 0.024448733194124224, -0.0073240761134257485, -1.2075144357975711, -0.263384105423177, -0.14783699402257577, -0.21373314090380854, -0.09271314048324915, 0.027960639264623263, -0.011376830239227694, -0.07940903762451236, 0.08699048502778893, 0.049190410197785354, -0.21327346152917734, 0.045408551033987506, -0.1468022926474392, -0.057276924341811745, 0.02247783504892899, -0.2426489289680857, 0.09998960660608602, 0.24852142141822064, -0.005763037769905094, -0.13305467647453817, -0.09345381338682412, -0.09940200020524337, 0.033354099530772265, -0.027778307774425866, -0.14378217724050685, -0.7746915931738985, -0.11317596702692675, -0.14404628977845443, 0.013565547136670327, -0.04630604464047335, -0.08061317026504787, -0.14993871191390598, 0.0027308307837055315, 0.006899234805089451, -0.07491339960074327, -0.017755416988868778, 0.015499802266352879], [-1.0818020188964093, 0.05594322742066189, 0.012299081059110732, -0.10587520706055999, -0.10705443736127021, -0.07618740656406565, -0.07802693049895097, -0.05083963403984089, 0.07993314716777275, 0.0834642565900756, 0.06928434335307086, -0.03483249683995368, -0.013679017598275648, -1.0306063586119352, -0.24291664591455045, -0.0083851449893656, -0.18175435596258396, 0.0685696506900157, -0.08260621529656383, 0.008216182846595865, 0.08044702757651692, 0.00405962664767883, 0.05807581987306269, -0.04224376960081407, 0.08280738769937915, -0.1543044415825406, -0.06012532845573045, 0.029172387419592848, 0.016415940329407876, 0.07953785033607629, -0.07569287965435992, -0.014284604532111287, -0.02029022304347892, -0.2493496938037691, 0.05625519859346918, 0.065013479230848, -0.04650404005958206, 0.009524274600253955, -0.5072596045097008, -0.01079200332840446, -0.08732921691550051, 0.007517455193008704, -0.055133344756754785, 0.07839051182444368, -0.11600622477498126, -0.009876050616827827, -0.09593182612438625, 0.009291413858085608, -0.07094223562729526, -0.07806185232117716], [-0.6624140101142482, -0.05292924223839965, 0.06480094667876868, -0.029655719819786666, -0.021179232045621606, 0.09525388334283215, -0.04368884484370986, -0.10662240530767357, 0.07489312681480192, 0.0804837914972276, 0.020813154497508916, -0.06528915222568346, -0.0690123950167764, -0.8198711384706833, -0.13074851301260387, 0.06114029592223496, -0.19085522437919306, 0.0726773513231345, 0.05590899387634826, -0.09309051547981147, 0.03496432242943085, 0.09943551566729862, 0.04956087706757296, 0.013118660267443669, -0.07194371955354792, -0.00908121767133997, -0.06878957357065855, 0.04659784233231591, -0.02704091450092296, -0.053288127731677376, 0.05910970105568987, 0.15236656757125047, -0.010970755970018875, -0.07144457126999819, -0.0022107436815283553, -0.019253525793191274, -0.023758700122820046, -0.06154812061207826, -0.3653322767517501, 0.06646625280535726, 0.011450439528247711, -0.09532115054074933, 0.1615134136286591, 0.055748021409254014, -0.11197191043245447, 0.15604942634670282, 0.036438194705801494, -0.10071311862722837, 0.08357330745525611, 0.0627099874014462], [-0.2956059361754713, -0.0487878372084549, -0.06110654132018541, -0.009610270569697967, 0.06338671878750204, 0.001770395030372106, 0.016102234876349552, -0.0368935770221352, 0.029682807139693655, -0.06932823892916576, 0.074982661302704, -0.04732544224686261, 0.01213109296310462, -0.21876297337493528, -0.14370739986878506, -0.04354822700225495, 0.0025356549678880623, -0.09904675150074925, 0.02045224184171982, 0.05106106951056388, -0.11137181021969468, -0.03296358051711048, 0.05817292928557204, -0.06246370425263581, 0.07961186625571365, 0.01631133643203028, -0.017999487357313416, 0.06793641103989126, -0.07902649901321883, 0.06657898960690452, -0.08918836453883136, -0.0353050618073924, -0.10497787448828134, -0.022361808513491413, 0.07712882026772395, 0.10683944992288151, 0.050419126224336565, -0.07190629412436599, -0.22485920458702305, -0.033306785915461566, -0.029744239346561886, -0.10371862213059498, -0.025994440780255205, -0.142169202742435, 0.014866348511401985, -0.06842649636040521, -0.004660853767591335, -0.024137461769303266, -0.0565333131768931, -0.0031825860895887356], [-0.18632474030213, -0.02183946925917474, 0.054169538941407726, -0.054950091145193086, 0.021078206888704647, 0.07069321888876175, -0.020620179285537135, 0.033667223157703756, -0.0429307501549031, 0.08150753240401727, 0.03700694763618694, 0.05161328906355461, 0.02784365150111665, -0.24791770988061368, -0.01605441285442064, 0.018723444087000832, -0.051979751872488086, -0.014060380155327411, -0.007627253938693372, 0.052599368908372746, 0.08454043797627367, 0.0353917987067411, 0.028197221247143953, -0.11920609526521857, -0.036936113385378264, -0.0714026089951568, 0.009182339895123539, 0.06481048685798901, 0.02227040802756129, 0.0855063346307828, 0.09055906910843338, 0.004819084516217777, -0.09525882868829323, -0.060235941890503714, -0.062423527190495855, -0.00695882207105697, -0.09012084525885773, -0.021926362803694605, -0.1640439701906371, 0.05879847226044781, -0.00028236394297138847, -0.08433798476286795, 0.09839564930043639, -0.04818847075632436, -0.11292296083892683, 0.03357937813370281, 0.04337985366381277, -0.060722245768621196, 0.07321633498180771, -0.02673409164185114], [-0.07032149724711913, -0.05864380372933962, 0.00691513290691241, -0.04371445702380231, -0.09366032691813331, -0.07994048141378736, -0.004512036114403119, 0.005030676555305975, -0.07243174227066572, 0.07586980649865249, 0.0014789126336180337, -0.07947930963211887, 0.021824580072851305, -0.11612777528879752, -0.07481254450441803, 0.0509023091383503, 0.057038585006397254, -0.08794020365879723, 0.033159185159189926, -0.053102449327518286, -0.04040506714854271, -0.0023425054084207273, 0.09363181287777628, -0.036458935857118034, -0.02717624798524938, 0.01777005975961876, -0.1223281869673485, -0.03163576220207678, -0.016732903320178235, -0.09509614204411468, 0.07579955006706202, -0.06119557980375265, 0.08857375280379956, 0.01258731193735336, -0.025310597755770388, 0.07630243416314199, -0.06422397191475321, -0.00894090614282601, -0.06140933145145874, -0.04515456258839766, -0.04398742374298709, -0.014836275250324311, -0.032692463725398115, -0.06454474047718463, -0.03307233133668271, -0.05156306877304546, 0.05168915150167874, 0.07422567502477935, 0.06715227558001083, 0.016481278667394503], [0.06391729606115276, -0.013613678800520869, 0.05749106671303973, 0.04014270501666488, -0.008234220510300051, 0.06271419560264237, 0.036668821051654844, 0.027380309797856377, 0.05684313988101508, -0.07296463649748482, -0.0227397403101631, 0.02674585928203312, -0.030461467925535165, 0.07115216597813394, -0.05027284093543741, -0.01928929654002938, 0.02836971609591252, -0.017083098137470675, 0.07507502104887588, 0.07923661480705343, 0.010169648846567918, -0.09505279539989805, 0.029445901239608472, 0.02138953664475131, -0.015946131691643682, 0.07907146712708157, -0.058176707469718814, 0.05099157734771997, -0.02934482409481012, -0.0654342878979598, -0.030146016968320775, 0.022372687480529813, 0.06836275923200574, 0.011333383508110893, -0.006042717487404575, -0.01000998778682, -0.07384990423125848, 0.008837633835262164, 0.10312790378693647, -0.037751730319040805, -0.09176955763363974, -0.07222224175004284, 0.08353744064746958, -0.04393931399293273, 0.05223870499487617, 0.06899480570858157, 0.09645840546181282, -0.08405048592071938, -0.06960391243082657, -0.011429292771876041], [-0.06599709058427622, -0.09652617989148837, 0.026328613164055454, -0.06881459354558488, 0.028655037346500063, -0.03311988017430622, -0.030501251909771192, 0.016799144186890578, -0.013294583554647387, 0.044287137809573315, 0.0754609366852685, 0.001321192746945493, -0.03645964053119482, 0.06881968994144479, -0.057153095740160406, 0.04475694858820631, 0.05296837818565972, 0.013343967663048937, 0.058426030890919634, -0.03534211892699693, 0.06079214700065199, -0.09715369172053379, 0.0032961356083649525, -0.0631879938025119, -0.04147737968591823, 0.009967825484451645, -0.026077025360739744, -0.03463169867797607, -0.0292014576877483, 0.08977446827441019, -0.0577561933318065, -0.003917772102817674, 0.06629846129483123, -0.010028581547847073, -0.01767675547106081, 0.0758002084882012, -0.051350780505284375, -0.024188971431298695, -0.05499427802266046, -0.0727298858902074, 0.0629563019679506, 0.027916904065952396, -0.06626829493554574, -0.04777959480985127, 0.10068636806918536, -0.0488116220362631, -0.062036376692962754, 0.035829268309031714, 0.06284157618177157, -0.06650719227842687], [0.022229994666885425, 0.02344915409143422, 0.0010902059135360354, 0.03197401551986706, 0.06030843117833262, 0.03192308856390774, 0.09205266813387084, -0.08449704598569921, 0.014684477444263933, 0.01689387000133029, 0.05183991584753539, -0.08410388694525571, 0.016561773145791908, -0.028217917032948583, 0.03573959089909079, 0.07381936321633059, -0.04118059947804664, 0.08924957277281562, 0.0865321553855263, 0.03889254937281322, 0.004120336851807724, 0.05335737056808243, 0.04134333503653556, -0.050529230616493725, -0.05972178194890228, -0.0997157917771441, 0.011242194913284292, 0.02567407357190704, -0.0348612583901176, -0.08964711878830989, -0.06673276806890344, -0.00659624417154174, -0.09452253461129329, -0.006935943134839279, 0.03956224068173794, -0.09652518659858333, 0.033878863512851104, -0.06617571146563617, -0.023135715631822235, 0.031409814933176045, -0.05793357607254701, 0.00213509600432224, -0.0596452560595165, -0.026628864470765665, 0.059032986952834016, -0.0277145688042663, 0.09299783915548451, 0.07365924810570756, -0.09015094786912517, -0.006964364217222838], [-0.09927859117317901, 1.8556749304649012e-05, 0.04560975104841261, -0.09414429706628334, 0.0823574441496639, -0.062148362711547, -0.017568305599730036, -0.02272886683466098, 0.04220885578172415, -0.08772668007052545, -0.04119905407542408, -0.020523624593759268, 0.0846578089537082, 0.06561719589698575, -0.055641606156066684, 0.030549731546258008, -0.05550850877688203, -0.06101948841292207, -0.024507805836780805, -0.09976272716560715, -0.05769114802309303, 0.0016702109177608448, 0.011688862160581653, 0.0002952822852367587, 0.07402215009747012, -0.00026647138209250076, 0.09786085282494447, 0.07433462048168382, -0.02955698764591326, -0.07273859097073294, -0.06643395575027444, -0.062098587072071255, 0.09014950096723598, 0.004747231467839952, -0.09649646259833522, -0.002433163522300566, -0.0666163055167717, -0.0499162078613721, -0.04324590473619572, 0.09078081238544014, -0.024785701527732767, -0.09024856618269123, -0.020474255471937375, -0.012612645107158205, -0.013243874384782778, 0.060167296271064236, -0.042083624863618455, 0.049856257573371116, 0.006640944295655024, -0.0011463039511319384], [0.027571476663115296, -0.046691443930245005, 0.014733353667434598, 0.08798967122200535, -0.06106185072350787, -0.07336023111326806, -0.021644189515336462, -0.07940257331391537, 0.048041205318566205, 0.08317883643796442, 0.0017011500032382554, 0.01684588518044501, -0.03739271513617966, -0.06744269590437205, -0.06687319695690291, -0.08664623912027808, -0.036257843673105694, -0.040422303440473574, -0.002927485674600036, -0.06664518975108596, -0.05614564016745736, -0.08001369422248593, -0.03022826306405353, -0.07372925948521465, 0.04146149816191119, -0.06217246468381084, 0.07967482299669426, -0.07497396665109171, -0.01712279407406532, 0.01815511353095159, 0.01881558932767384, 0.09670843247830102, 0.09808832647148497, -0.01218445179425362, 0.09139785693735, 0.08541841428989497, -0.09724734283233645, -0.06535333098833276, 0.03263616177693404, 0.06901994435003139, -0.011946564709898008, 0.03199491253789982, -0.08996254448419355, 0.029120844245830335, 0.07368370061636675, -0.062040061666753576, -0.0004664402072357826, 9.759034156246738e-05, -0.010835671784648615, -0.0876750983849846], [-0.08854429521168494, 0.009694980638908904, -0.0992220058153782, -0.042853441222634125, -0.025088024829747688, -0.03148520885337851, 0.005881852356548478, 0.00818632767616416, -0.06617568647812441, -0.014514602708492433, 0.04913198352729131, -0.05511960594883741, 0.06455121499650213, -0.020114421582187167, 0.08517436921623597, 0.03928513268876713, -0.09525225966376048, -0.027368303116773005, 0.09990029946298304, -0.009382329564247893, 0.013596313793654918, -0.09693722165579455, -0.06227763751819609, 0.03695935714861856, 0.09349188620339191, 0.0330109256096251, 0.07942320330232386, 0.07185394383450358, 0.019327194162379158, 0.023655634040590984, -0.0509312394721764, 0.07025576060093791, -0.031049656021419444, -0.009925144283048998, -0.025139557579056504, 0.01845409308898978, -0.004874680273388693, -0.0111413823329021, -0.04190322693575613, -0.06957535271854026, 0.07043597292647918, 0.08359639605106053, -0.014551598114662403, 0.08274409398737609, 0.043716999468656814, 0.08497753118202722, -0.05202742344960949, 0.012890618112334079, 0.027739875930082536, -0.04520273284920953], [-0.07028410324238399, -0.05619938553445152, -0.01411455295767021, -0.09531529477908299, 0.08530737710864009, 0.006766524679499009, -0.032447100356796765, -0.032071415201489886, 0.02487709997945098, 0.015980367246895527, -0.004193592333533155, 0.08611080080393504, -0.04856265652991232, -0.0596454489773681, 0.01765203648177563, -0.06009017031934492, -0.09714199772614088, 0.06155960554692305, -0.013040663052955995, 0.04594913041575338, -0.02074636515178467, 0.08315203213906278, 0.023376187335628296, 0.08665031456225267, -0.048466227227269655, 0.01811698107477995, 0.004546757696136078, 0.004288543901592307, -0.002914880066825762, 0.06539171320685291, 0.020598030551665952, 0.0597312807063837, 0.029728422857927123, 0.08743228597129729, 0.041257829607958124, 0.03939778154499743, -0.08798364886833926, 0.07699173262138653, -0.007665982084282527, -0.03425454382895857, 0.06145079662565442, -0.01893800179747729, 0.06732360316875871, 0.0979731069832396, 0.031324294612230824, 0.038123090156483325, 0.03752867434933552, -0.025380443682521722, -0.07989459846135674, -0.037583476442211855], [-0.0019099030132016803, -0.07130105994119346, -0.0183388562739758, 0.05980286066445009, -0.039979032652565395, 0.09289336138330637, 0.05827845631263778, -0.06652495778330303, -0.02515090445710509, -0.0597895215135599, -0.0630805325464073, 0.034042638702130895, -0.04040040594037986, -0.05229459829059949, -0.036527153423966605, -0.06244754223181701, -0.09998636035250097, -0.013091419058508039, -0.04420863483099553, -0.03522574145640123, -0.04806391351951938, 0.08530233209333543, -0.05967620003269336, 0.07741510356787532, 0.02628765490266355, 0.08128666839999132, -0.07474281292895216, 0.06011674402598366, 0.0026117795860430837, -0.0033485189319038267, -0.00989171556673929, 0.08396400454542802, -0.009849681089823398, 0.004012162168254618, -0.025361873722200806, -0.052995048416183126, 0.04785897757627239, -0.04447777872810053, 0.07742133783463198, 0.08953363069822987, -0.09446611407371103, 0.03404846889036675, 0.008745755145596876, 0.04602832751226288, -0.039684852447690294, 0.00044005379990555427, -0.07093574296095202, -0.07192473697694833, -0.027734800367015103, -0.0659885258803499], [-0.033694547667390176, -5.7340253578216926e-05, 0.09560758898597668, -0.05230878553939647, 0.04899758504146792, 0.08217279329329216, 0.09118311239891311, -0.004918039072453223, 0.09774592557750894, 0.05393504932306667, 0.05986459848849843, -0.02969840334274579, -0.04670994007714951, 0.010413565665606445, -0.042829346056551136, -0.037681205942043966, 0.06888862652284916, 0.027156895947049786, -0.08133491421184874, -0.08847368566776359, 0.09751273843116309, 0.09216076880962895, -0.03389557737619564, 0.014808928684506298, 0.0016841795102505025, -0.09806807933278068, 0.05440425478086158, -0.06193919700683488, 0.01891881838860214, 0.010885558049248095, 0.020580669675961283, -0.06929523119850933, 0.09697185494006147, -0.008908882853166128, 0.09722466613708775, -0.051430990624119245, 0.05311626370150077, 0.03274735542756063, 0.058212172882684515, -0.08751455382419507, 0.09292726897485445, 0.05991038339332075, 0.06756736718592896, 0.05518944290145292, -0.09350052497933621, 0.06722561810083624, -0.04294356758530269, 0.0879576353678074, -0.05317277117437738, -0.012654790150219614], [-0.0837582545861231, 0.03785049606554014, -0.0483746992565213, 0.07695236545594558, -0.009778524170704198, 0.030120325490343658, -0.031067700300377782, -0.054501852985000925, -0.0689092214404957, -0.004436402326597297, -0.027099361867340785, 0.0801222761380617, -0.055294496455132805, 0.0018059690805282413, -0.04172078981809362, -0.07763935507802366, -0.061706751728300535, -0.06977011903410334, 0.01461766246635672, -0.022091309868730383, -0.06456720386805866, -0.09254622652798819, 0.010105249237169461, -0.04685153903562254, -0.007057250951629124, 0.0604914107665889, -0.07011581135114893, 0.022313427731630295, 0.04690722009644205, -0.08040561020432535, -0.07807954966780657, 0.08280040687149051, -0.01779461569619363, 0.005246802395142192, -0.08480906471403925, 0.06037792877478218, -0.05081718644416209, 0.015348950421718355, -0.016119683265218107, 0.04057491414912201, -0.0724374573107828, -0.07967027020766132, 0.033274509357375165, -0.017923385594540903, 0.09337152874256902, -0.030545713009726347, 0.02708138948353478, -0.05542802135625167, -0.038846568230038986, 0.06852910629761882], [-0.021336657205149205, -0.04113404513499491, 0.0034981197579682577, -0.07396532799802392, -0.08587409779229196, 0.08194590932914608, -0.04141530886000701, 0.07107552881405904, -0.08417820903071717, -0.028686397416986937, 0.026288244434662232, -0.0777775274358277, 0.0015321676208407088, -0.017088600903614748, -0.10398312653525094, -0.09398482155751543, 0.02866477865492698, -0.07998106793772361, 0.02020873939168671, 0.06727312647059508, -0.06008328019963118, -0.046353411326313675, 0.06704594665892469, -0.04368738387621824, -0.10116071415289565, 0.06664115894586571, -0.0775849565862609, 0.01399071299110153, 0.07796864388215252, 0.07623077271341609, -0.00294114386676817, 0.010600017779740276, 0.02164375825337912, -0.02010137868299254, -0.03252382950904313, 0.04115863716664697, -0.03338998535592388, -0.08549367587874472, 0.024997614835391112, 0.055398776523836415, -0.054379462271837035, 0.009162256603952111, -0.04367693606466998, -0.08922194226126018, 0.06992244814651023, 0.006781330261923085, -0.09419464385158015, -0.05223694673812248, 0.06097713058890377, -0.014074245928780212], [-0.12583346529917283, 0.03583334900172561, -0.06887330241230252, -0.04817670242460879, -0.04867937670179019, 0.012480854207689487, 0.022338981942893806, -0.0402646817185131, -0.07384325779468519, -0.07197280634974787, 0.09578014062208144, 0.07394439980089265, -0.01808369637880953, 0.001532678703982324, -0.014474366323437415, 0.008663243290658722, 0.008217896409700125, -0.0729678604930236, 0.00701516255351217, -0.011210698241519901, -0.07648606139770661, -0.08646499060386414, -0.01684089994034668, 0.06386938134027842, -0.00542543923508557, -0.057759199008332714, -0.09584241210207349, 0.09503088008628012, -0.021662295179169882, 0.05143370459752435, 0.019886063535325085, -0.04614103098475419, 0.09285419503194896, -0.005032126851095056, -0.08310133391029152, 0.050897620659730726, -0.07427081922559706, -0.02046564518688783, -0.06129899367335242, -0.058713805833975355, -0.003934967465167198, -0.09348478906975125, -0.03740051193014072, 0.02011966953418278, -0.036426196029702686, -0.03519273083859226, -0.01879706833534071, -0.0026101904003566112, -0.10523340603310723, -0.0832227734197055], [-0.03399521534714588, -0.014854725908367472, -0.033054185097969556, -0.08388727158900278, -0.09691753173658296, -0.015428985819856474, 0.05061547366600852, 0.03349513394548585, 0.03345343648596016, 0.09685536507359344, -0.03829239520542581, -0.025067397818933485, 0.08203904124736582, -0.014133611740053289, -0.1106505651729145, -0.067076897789454, -0.05337206384604073, -0.09672389432993621, -0.05166652091629505, 0.097875191118299, -0.024700421080989358, -0.07702919742624591, 0.021232131632946485, -0.025430876380136656, -0.07334815959063991, 